<?xml version="1.0"?>
<opencv_storage>
<cascade>
  <stageType>BOOST</stageType>
  <featureType>HAAR</featureType>
  <height>20</height>
  <width>20</width>
  <stageParams>
    <boostType>GAB</boostType>
    <minHitRate>9.9900001287460327e-01</minHitRate>
    <maxFalseAlarm>5.0000000000000000e-01</maxFalseAlarm>
    <weightTrimRate>9.4999999999999996e-01</weightTrimRate>
    <maxDepth>1</maxDepth>
    <maxWeakCount>100</maxWeakCount></stageParams>
  <featureParams>
    <maxCatCount>0</maxCatCount>
    <featSize>1</featSize>
    <mode>ALL</mode></featureParams>
  <stageNum>20</stageNum>
  <stages>
    <!-- stage 0 -->
    <_>
      <maxWeakCount>9</maxWeakCount>
      <stageThreshold>-1.5936290025711060e+00</stageThreshold>
      <weakClassifiers>
        <_>
          <internalNodes>
            0 -1 68 -1.5166471712291241e-02</internalNodes>
          <leafValues>
            7.5275939702987671e-01 -4.3589743971824646e-01</leafValues></_>
        <_>
          <internalNodes>
            0 -1 323 -1.4343092218041420e-02</internalNodes>
          <leafValues>
            7.9210555553436279e-01 -2.4207437038421631e-01</leafValues></_>
        <_>
          <internalNodes>
            0 -1 284 -3.6068037152290344e-03</internalNodes>
          <leafValues>
            8.3957582712173462e-01 -2.2208254039287567e-01</leafValues></_>
        <_>
          <internalNodes>
            0 -1 110 1.8929786747321486e-03</internalNodes>
          <leafValues>
            3.2115855813026428e-01 -7.6954358816146851e-01</leafValues></_>
        <_>
          <internalNodes>
            0 -1 190 -4.0983333019539714e-04</internalNodes>
          <leafValues>
            -7.0724624395370483e-01 2.5730121135711670e-01</leafValues></_>
        <_>
          <internalNodes>
            0 -1 284 4.2860140092670918e-03</internalNodes>
          <leafValues>
            -2.4052472412586212e-01 8.3901298046112061e-01</leafValues></_>
        <_>
          <internalNodes>
            0 -1 170 -7.2423531673848629e-04</internalNodes>
          <leafValues>
            -5.6066888570785522e-01 3.2397052645683289e-01</leafValues></_>
        <_>
          <internalNodes>
            0 -1 18 -1.6759995371103287e-02</internalNodes>
          <leafValues>
            8.3766776323318481e-01 -1.8646670877933502e-01</leafValues></_>
        <_>
          <internalNodes>
            0 -1 5 1.2800895608961582e-02</internalNodes>
          <leafValues>
            -2.8437414765357971e-01 7.0317322015762329e-01</leafValues></_></weakClassifiers></_>
    <!-- stage 1 -->
    <_>
      <maxWeakCount>9</maxWeakCount>
      <stageThreshold>-1.0234156847000122e+00</stageThreshold>
      <weakClassifiers>
        <_>
          <internalNodes>
            0 -1 273 1.3557076454162598e-02</internalNodes>
          <leafValues>
            -4.0909090638160706e-01 7.6995307207107544e-01</leafValues></_>
        <_>
          <internalNodes>
            0 -1 91 -1.8861692398786545e-02</internalNodes>
          <leafValues>
            7.4857723712921143e-01 -2.4042584002017975e-01</leafValues></_>
        <_>
          <internalNodes>
            0 -1 178 -6.2079280614852905e-03</internalNodes>
          <leafValues>
            -6.8344491720199585e-01 2.9463747143745422e-01</leafValues></_>
        <_>
          <internalNodes>
            0 -1 282 -5.8670677244663239e-03</internalNodes>
          <leafValues>
            7.7327316999435425e-01 -3.0077767372131348e-01</leafValues></_>
        <_>
          <internalNodes>
            0 -1 120 1.1149016208946705e-02</internalNodes>
          <leafValues>
            -1.9889008998870850e-01 6.9754660129547119e-01</leafValues></_>
        <_>
          <internalNodes>
            0 -1 259 -2.2718215361237526e-02</internalNodes>
          <leafValues>
            -8.1713491678237915e-01 2.1596261858940125e-01</leafValues></_>
        <_>
          <internalNodes>
            0 -1 140 2.0234413444995880e-02</internalNodes>
          <leafValues>
            -2.2349382936954498e-01 7.8107804059982300e-01</leafValues></_>
        <_>
          <internalNodes>
            0 -1 308 -6.4642606303095818e-03</internalNodes>
          <leafValues>
            6.3931357860565186e-01 -2.9480454325675964e-01</leafValues></_>
        <_>
          <internalNodes>
            0 -1 169 -2.1052611991763115e-02</internalNodes>
          <leafValues>
            -7.4814867973327637e-01 2.7012792229652405e-01</leafValues></_></weakClassifiers></_>
    <!-- stage 2 -->
    <_>
      <maxWeakCount>10</maxWeakCount>
      <stageThreshold>-1.7039200067520142e+00</stageThreshold>
      <weakClassifiers>
        <_>
          <internalNodes>
            0 -1 324 -1.6618525609374046e-02</internalNodes>
          <leafValues>
            7.5115209817886353e-01 -4.1048035025596619e-01</leafValues></_>
        <_>
          <internalNodes>
            0 -1 282 -4.1648736223578453e-03</internalNodes>
          <leafValues>
            8.3670306205749512e-01 -2.6834616065025330e-01</leafValues></_>
        <_>
          <internalNodes>
            0 -1 90 -9.5610730350017548e-03</internalNodes>
          <leafValues>
            6.9770073890686035e-01 -2.9669556021690369e-01</leafValues></_>
        <_>
          <internalNodes>
            0 -1 33 1.8269160063937306e-03</internalNodes>
          <leafValues>
            -3.0275499820709229e-01 5.8914923667907715e-01</leafValues></_>
        <_>
          <internalNodes>
            0 -1 81 2.8778524138033390e-03</internalNodes>
          <leafValues>
            -2.0864033699035645e-01 7.6603060960769653e-01</leafValues></_>
        <_>
          <internalNodes>
            0 -1 143 8.6286570876836777e-03</internalNodes>
          <leafValues>
            -3.4397995471954346e-01 5.8703410625457764e-01</leafValues></_>
        <_>
          <internalNodes>
            0 -1 287 -4.1840821504592896e-03</internalNodes>
          <leafValues>
            6.4006268978118896e-01 -2.4853976070880890e-01</leafValues></_>
        <_>
          <internalNodes>
            0 -1 231 -2.5511123239994049e-03</internalNodes>
          <leafValues>
            6.8000495433807373e-01 -2.3499454557895660e-01</leafValues></_>
        <_>
          <internalNodes>
            0 -1 267 2.5865593925118446e-03</internalNodes>
          <leafValues>
            -2.7311033010482788e-01 7.0731079578399658e-01</leafValues></_>
        <_>
          <internalNodes>
            0 -1 67 2.1607014350593090e-03</internalNodes>
          <leafValues>
            -9.6799075603485107e-02 9.3875330686569214e-01</leafValues></_></weakClassifiers></_>
    <!-- stage 3 -->
    <_>
      <maxWeakCount>12</maxWeakCount>
      <stageThreshold>-1.3131254911422729e+00</stageThreshold>
      <weakClassifiers>
        <_>
          <internalNodes>
            0 -1 324 -1.8913310021162033e-02</internalNodes>
          <leafValues>
            7.1428573131561279e-01 -3.7634408473968506e-01</leafValues></_>
        <_>
          <internalNodes>
            0 -1 133 -2.1165220066905022e-02</internalNodes>
          <leafValues>
            6.6455769538879395e-01 -2.3426608741283417e-01</leafValues></_>
        <_>
          <internalNodes>
            0 -1 264 1.9109711050987244e-02</internalNodes>
          <leafValues>
            -1.7215664684772491e-01 7.9562014341354370e-01</leafValues></_>
        <_>
          <internalNodes>
            0 -1 122 -2.2675145417451859e-02</internalNodes>
          <leafValues>
            8.9738869667053223e-01 -2.2589756548404694e-01</leafValues></_>
        <_>
          <internalNodes>
            0 -1 229 8.4114260971546173e-03</internalNodes>
          <leafValues>
            -1.0431554168462753e-01 8.6878275871276855e-01</leafValues></_>
        <_>
          <internalNodes>
            0 -1 85 -1.0239576920866966e-02</internalNodes>
          <leafValues>
            3.1406918168067932e-01 -5.2071070671081543e-01</leafValues></_>
        <_>
          <internalNodes>
            0 -1 74 1.2163524515926838e-02</internalNodes>
          <leafValues>
            -2.4209266901016235e-01 6.1279696226119995e-01</leafValues></_>
        <_>
          <internalNodes>
            0 -1 279 -1.7585309222340584e-02</internalNodes>
          <leafValues>
            8.2584619522094727e-01 -1.8018621206283569e-01</leafValues></_>
        <_>
          <internalNodes>
            0 -1 63 1.3121305964887142e-03</internalNodes>
          <leafValues>
            2.7003026008605957e-01 -6.6785889863967896e-01</leafValues></_>
        <_>
          <internalNodes>
            0 -1 63 -5.2423763554543257e-04</internalNodes>
          <leafValues>
            -7.0783001184463501e-01 1.6430781781673431e-01</leafValues></_>
        <_>
          <internalNodes>
            0 -1 9 -2.5218244642019272e-02</internalNodes>
          <leafValues>
            6.0442590713500977e-01 -2.6631936430931091e-01</leafValues></_>
        <_>
          <internalNodes>
            0 -1 293 1.4737838646396995e-03</internalNodes>
          <leafValues>
            -2.5995460152626038e-01 6.5263301134109497e-01</leafValues></_></weakClassifiers></_>
    <!-- stage 4 -->
    <_>
      <maxWeakCount>15</maxWeakCount>
      <stageThreshold>-1.2106789350509644e+00</stageThreshold>
      <weakClassifiers>
        <_>
          <internalNodes>
            0 -1 313 6.5830545499920845e-03</internalNodes>
          <leafValues>
            -3.4318903088569641e-01 6.8238210678100586e-01</leafValues></_>
        <_>
          <internalNodes>
            0 -1 118 -2.4996317923069000e-02</internalNodes>
          <leafValues>
            7.8946888446807861e-01 -1.7450572550296783e-01</leafValues></_>
        <_>
          <internalNodes>
            0 -1 79 -1.3029429828748107e-03</internalNodes>
          <leafValues>
            6.3410145044326782e-01 -2.1840570867061615e-01</leafValues></_>
        <_>
          <internalNodes>
            0 -1 95 -1.9080262631177902e-02</internalNodes>
          <leafValues>
            7.1261769533157349e-01 -1.6824798285961151e-01</leafValues></_>
        <_>
          <internalNodes>
            0 -1 21 1.0498255491256714e-02</internalNodes>
          <leafValues>
            -1.9759495556354523e-01 6.9034808874130249e-01</leafValues></_>
        <_>
          <internalNodes>
            0 -1 32 -4.4811079278588295e-03</internalNodes>
          <leafValues>
            7.5654822587966919e-01 -1.4651091396808624e-01</leafValues></_>
        <_>
          <internalNodes>
            0 -1 286 -2.7165282517671585e-02</internalNodes>
          <leafValues>
            -6.6453480720520020e-01 2.0796057581901550e-01</leafValues></_>
        <_>
          <internalNodes>
            0 -1 152 -1.1528305476531386e-03</internalNodes>
          <leafValues>
            -5.4165709018707275e-01 2.6636636257171631e-01</leafValues></_>
        <_>
          <internalNodes>
            0 -1 312 6.8027237430214882e-03</internalNodes>
          <leafValues>
            -2.3110307753086090e-01 7.7479970455169678e-01</leafValues></_>
        <_>
          <internalNodes>
            0 -1 224 -2.4537594072171487e-05</internalNodes>
          <leafValues>
            4.0615805983543396e-01 -3.5187399387359619e-01</leafValues></_>
        <_>
          <internalNodes>
            0 -1 309 -5.1950206980109215e-03</internalNodes>
          <leafValues>
            6.7231476306915283e-01 -1.9544611871242523e-01</leafValues></_>
        <_>
          <internalNodes>
            0 -1 112 -5.5810611229389906e-04</internalNodes>
          <leafValues>
            -5.1822376251220703e-01 2.5730201601982117e-01</leafValues></_>
        <_>
          <internalNodes>
            0 -1 283 -4.3732561171054840e-03</internalNodes>
          <leafValues>
            7.9162305593490601e-01 -1.9802683591842651e-01</leafValues></_>
        <_>
          <internalNodes>
            0 -1 257 1.5616660937666893e-02</internalNodes>
          <leafValues>
            -1.1684183031320572e-01 7.9188501834869385e-01</leafValues></_>
        <_>
          <internalNodes>
            0 -1 215 1.8243176862597466e-02</internalNodes>
          <leafValues>
            -2.6296260952949524e-01 4.4942963123321533e-01</leafValues></_></weakClassifiers></_>
    <!-- stage 5 -->
    <_>
      <maxWeakCount>19</maxWeakCount>
      <stageThreshold>-1.2960916757583618e+00</stageThreshold>
      <weakClassifiers>
        <_>
          <internalNodes>
            0 -1 299 -1.9385538995265961e-02</internalNodes>
          <leafValues>
            5.7549232244491577e-01 -3.5050392150878906e-01</leafValues></_>
        <_>
          <internalNodes>
            0 -1 62 -5.2995281293988228e-04</internalNodes>
          <leafValues>
            -6.4486706256866455e-01 2.2624625265598297e-01</leafValues></_>
        <_>
          <internalNodes>
            0 -1 141 2.0709026604890823e-02</internalNodes>
          <leafValues>
            -1.8434056639671326e-01 8.3880096673965454e-01</leafValues></_>
        <_>
          <internalNodes>
            0 -1 53 -3.7225145846605301e-02</internalNodes>
          <leafValues>
            4.3257200717926025e-01 -3.5363811254501343e-01</leafValues></_>
        <_>
          <internalNodes>
            0 -1 241 -6.9872578606009483e-03</internalNodes>
          <leafValues>
            7.8748488426208496e-01 -1.7180763185024261e-01</leafValues></_>
        <_>
          <internalNodes>
            0 -1 256 -2.4784686975181103e-03</internalNodes>
          <leafValues>
            7.3148798942565918e-01 -1.7218668758869171e-01</leafValues></_>
        <_>
          <internalNodes>
            0 -1 62 1.1318342294543982e-03</internalNodes>
          <leafValues>
            2.5415629148483276e-01 -6.5265512466430664e-01</leafValues></_>
        <_>
          <internalNodes>
            0 -1 136 -1.3308574445545673e-02</internalNodes>
          <leafValues>
            5.5662059783935547e-01 -2.8789290785789490e-01</leafValues></_>
        <_>
          <internalNodes>
            0 -1 151 -3.0966168269515038e-03</internalNodes>
          <leafValues>
            2.7948191761970520e-01 -5.0881117582321167e-01</leafValues></_>
        <_>
          <internalNodes>
            0 -1 175 1.2478650547564030e-02</internalNodes>
          <leafValues>
            -2.3913158476352692e-01 6.4135265350341797e-01</leafValues></_>
        <_>
          <internalNodes>
            0 -1 158 3.6030826158821583e-03</internalNodes>
          <leafValues>
            -8.9167326688766479e-02 7.7585017681121826e-01</leafValues></_>
        <_>
          <internalNodes>
            0 -1 306 8.0120619386434555e-03</internalNodes>
          <leafValues>
            -1.7939847707748413e-01 5.8821964263916016e-01</leafValues></_>
        <_>
          <internalNodes>
            0 -1 10 -1.1106297606602311e-03</internalNodes>
          <leafValues>
            -7.5114345550537109e-01 1.4791983366012573e-01</leafValues></_>
        <_>
          <internalNodes>
            0 -1 123 2.2097263485193253e-02</internalNodes>
          <leafValues>
            -1.8765731155872345e-01 7.2049301862716675e-01</leafValues></_>
        <_>
          <internalNodes>
            0 -1 48 -1.7944971099495888e-02</internalNodes>
          <leafValues>
            6.4107829332351685e-01 -1.9915774464607239e-01</leafValues></_>
        <_>
          <internalNodes>
            0 -1 44 -1.5586325898766518e-03</internalNodes>
          <leafValues>
            -6.3373881578445435e-01 2.0132321119308472e-01</leafValues></_>
        <_>
          <internalNodes>
            0 -1 176 4.6884939074516296e-02</internalNodes>
          <leafValues>
            -2.4558821320533752e-01 4.8288184404373169e-01</leafValues></_>
        <_>
          <internalNodes>
            0 -1 266 -4.5511596836149693e-03</internalNodes>
          <leafValues>
            5.5030608177185059e-01 -1.9386866688728333e-01</leafValues></_>
        <_>
          <internalNodes>
            0 -1 230 9.2770308256149292e-03</internalNodes>
          <leafValues>
            -1.7477755248546600e-01 6.2427115440368652e-01</leafValues></_></weakClassifiers></_>
    <!-- stage 6 -->
    <_>
      <maxWeakCount>15</maxWeakCount>
      <stageThreshold>-1.5384255647659302e+00</stageThreshold>
      <weakClassifiers>
        <_>
          <internalNodes>
            0 -1 19 -3.3362437970936298e-03</internalNodes>
          <leafValues>
            6.8996959924697876e-01 -2.7130264043807983e-01</leafValues></_>
        <_>
          <internalNodes>
            0 -1 187 -5.0359306624159217e-04</internalNodes>
          <leafValues>
            2.8338655829429626e-01 -5.9173095226287842e-01</leafValues></_>
        <_>
          <internalNodes>
            0 -1 262 1.1153111234307289e-02</internalNodes>
          <leafValues>
            -3.4693086147308350e-01 4.5125287771224976e-01</leafValues></_>
        <_>
          <internalNodes>
            0 -1 12 1.6345608979463577e-02</internalNodes>
          <leafValues>
            -2.1748304367065430e-01 6.6372954845428467e-01</leafValues></_>
        <_>
          <internalNodes>
            0 -1 57 -3.9973538368940353e-03</internalNodes>
          <leafValues>
            6.4029896259307861e-01 -1.7792646586894989e-01</leafValues></_>
        <_>
          <internalNodes>
            0 -1 52 6.4234986901283264e-02</internalNodes>
          <leafValues>
            1.0092746466398239e-01 -9.0938282012939453e-01</leafValues></_>
        <_>
          <internalNodes>
            0 -1 164 2.0950601901859045e-04</internalNodes>
          <leafValues>
            -4.3470680713653564e-01 3.0553385615348816e-01</leafValues></_>
        <_>
          <internalNodes>
            0 -1 296 7.6702795922756195e-03</internalNodes>
          <leafValues>
            -2.0200882852077484e-01 6.2561857700347900e-01</leafValues></_>
        <_>
          <internalNodes>
            0 -1 237 -2.7083768145530485e-05</internalNodes>
          <leafValues>
            3.0969738960266113e-01 -3.8064411282539368e-01</leafValues></_>
        <_>
          <internalNodes>
            0 -1 129 -8.3550602197647095e-02</internalNodes>
          <leafValues>
            -7.6353979110717773e-01 1.6624906659126282e-01</leafValues></_>
        <_>
          <internalNodes>
            0 -1 305 -1.2320157140493393e-02</internalNodes>
          <leafValues>
            6.8871968984603882e-01 -1.9455383718013763e-01</leafValues></_>
        <_>
          <internalNodes>
            0 -1 269 -9.6790110692381859e-03</internalNodes>
          <leafValues>
            4.1289821267127991e-01 -3.1779932975769043e-01</leafValues></_>
        <_>
          <internalNodes>
            0 -1 27 -1.1156206950545311e-02</internalNodes>
          <leafValues>
            6.5946698188781738e-01 -1.4572043716907501e-01</leafValues></_>
        <_>
          <internalNodes>
            0 -1 130 2.8885463252663612e-03</internalNodes>
          <leafValues>
            -3.5894984006881714e-01 3.0311012268066406e-01</leafValues></_>
        <_>
          <internalNodes>
            0 -1 131 2.7143426239490509e-02</internalNodes>
          <leafValues>
            1.5475869178771973e-01 -6.8164193630218506e-01</leafValues></_></weakClassifiers></_>
    <!-- stage 7 -->
    <_>
      <maxWeakCount>18</maxWeakCount>
      <stageThreshold>-1.5015145540237427e+00</stageThreshold>
      <weakClassifiers>
        <_>
          <internalNodes>
            0 -1 41 -2.9196947813034058e-02</internalNodes>
          <leafValues>
            5.0000000000000000e-01 -3.4498834609985352e-01</leafValues></_>
        <_>
          <internalNodes>
            0 -1 74 1.8638428300619125e-02</internalNodes>
          <leafValues>
            -1.9863605499267578e-01 6.2388557195663452e-01</leafValues></_>
        <_>
          <internalNodes>
            0 -1 61 1.0352956596761942e-03</internalNodes>
          <leafValues>
            1.8123245239257812e-01 -7.2383362054824829e-01</leafValues></_>
        <_>
          <internalNodes>
            0 -1 139 -2.4986527860164642e-02</internalNodes>
          <leafValues>
            7.1627175807952881e-01 -2.4959744513034821e-01</leafValues></_>
        <_>
          <internalNodes>
            0 -1 212 -1.5112103428691626e-03</internalNodes>
          <leafValues>
            -4.2256718873977661e-01 2.9301971197128296e-01</leafValues></_>
        <_>
          <internalNodes>
            0 -1 253 2.7785808779299259e-03</internalNodes>
          <leafValues>
            -2.0099705457687378e-01 5.1903611421585083e-01</leafValues></_>
        <_>
          <internalNodes>
            0 -1 161 1.3090998400002718e-03</internalNodes>
          <leafValues>
            -3.8656151294708252e-01 2.9901704192161560e-01</leafValues></_>
        <_>
          <internalNodes>
            0 -1 61 -3.4068775130435824e-04</internalNodes>
          <leafValues>
            -5.6827390193939209e-01 1.9283621013164520e-01</leafValues></_>
        <_>
          <internalNodes>
            0 -1 206 -1.1672838591039181e-02</internalNodes>
          <leafValues>
            -7.6820373535156250e-01 8.2564704120159149e-02</leafValues></_>
        <_>
          <internalNodes>
            0 -1 106 -4.1495136916637421e-02</internalNodes>
          <leafValues>
            -9.1890293359756470e-01 8.0991826951503754e-02</leafValues></_>
        <_>
          <internalNodes>
            0 -1 17 -1.6784403473138809e-02</internalNodes>
          <leafValues>
            5.6595128774642944e-01 -1.9940945506095886e-01</leafValues></_>
        <_>
          <internalNodes>
            0 -1 291 -1.0323449969291687e-02</internalNodes>
          <leafValues>
            3.9666774868965149e-01 -2.4439705908298492e-01</leafValues></_>
        <_>
          <internalNodes>
            0 -1 7 7.2205498814582825e-02</internalNodes>
          <leafValues>
            -1.9762329757213593e-01 5.3329926729202271e-01</leafValues></_>
        <_>
          <internalNodes>
            0 -1 94 1.7753932625055313e-02</internalNodes>
          <leafValues>
            -1.3535843789577484e-01 6.2723237276077271e-01</leafValues></_>
        <_>
          <internalNodes>
            0 -1 115 -8.3924718201160431e-03</internalNodes>
          <leafValues>
            5.6519299745559692e-01 -1.8750149011611938e-01</leafValues></_>
        <_>
          <internalNodes>
            0 -1 221 -5.7127638719975948e-03</internalNodes>
          <leafValues>
            6.4165657758712769e-01 -1.7476320266723633e-01</leafValues></_>
        <_>
          <internalNodes>
            0 -1 284 -4.8853810876607895e-03</internalNodes>
          <leafValues>
            6.2577390670776367e-01 -1.6609828174114227e-01</leafValues></_>
        <_>
          <internalNodes>
            0 -1 236 1.0987510904669762e-03</internalNodes>
          <leafValues>
            -2.8804633021354675e-01 3.4262147545814514e-01</leafValues></_></weakClassifiers></_>
    <!-- stage 8 -->
    <_>
      <maxWeakCount>17</maxWeakCount>
      <stageThreshold>-1.3985688686370850e+00</stageThreshold>
      <weakClassifiers>
        <_>
          <internalNodes>
            0 -1 300 1.2470191344618797e-02</internalNodes>
          <leafValues>
            -2.7042800188064575e-01 7.0807451009750366e-01</leafValues></_>
        <_>
          <internalNodes>
            0 -1 80 -1.9999189302325249e-02</internalNodes>
          <leafValues>
            7.1178770065307617e-01 -1.2672676146030426e-01</leafValues></_>
        <_>
          <internalNodes>
            0 -1 265 1.2861282564699650e-02</internalNodes>
          <leafValues>
            -2.1126209199428558e-01 5.0818043947219849e-01</leafValues></_>
        <_>
          <internalNodes>
            0 -1 75 1.0754722170531750e-03</internalNodes>
          <leafValues>
            1.5863563120365143e-01 -6.5728026628494263e-01</leafValues></_>
        <_>
          <internalNodes>
            0 -1 11 -1.0651165619492531e-02</internalNodes>
          <leafValues>
            6.1875104904174805e-01 -1.7602390050888062e-01</leafValues></_>
        <_>
          <internalNodes>
            0 -1 60 4.3127138633280993e-04</internalNodes>
          <leafValues>
            2.2996704280376434e-01 -5.5597317218780518e-01</leafValues></_>
        <_>
          <internalNodes>
            0 -1 252 -4.0305429138243198e-03</internalNodes>
          <leafValues>
            5.8621209859848022e-01 -2.1747696399688721e-01</leafValues></_>
        <_>
          <internalNodes>
            0 -1 138 -9.5678260549902916e-03</internalNodes>
          <leafValues>
            5.1511538028717041e-01 -1.9648864865303040e-01</leafValues></_>
        <_>
          <internalNodes>
            0 -1 28 -9.0785147622227669e-03</internalNodes>
          <leafValues>
            8.1062996387481689e-01 -1.2463888525962830e-01</leafValues></_>
        <_>
          <internalNodes>
            0 -1 69 -3.4285115543752909e-03</internalNodes>
          <leafValues>
            5.1784777641296387e-01 -1.8539127707481384e-01</leafValues></_>
        <_>
          <internalNodes>
            0 -1 144 2.3945574648678303e-03</internalNodes>
          <leafValues>
            -3.2484549283981323e-01 3.1779623031616211e-01</leafValues></_>
        <_>
          <internalNodes>
            0 -1 274 3.2771478872746229e-03</internalNodes>
          <leafValues>
            -1.7539556324481964e-01 5.8767050504684448e-01</leafValues></_>
        <_>
          <internalNodes>
            0 -1 282 -3.9876024238765240e-03</internalNodes>
          <leafValues>
            5.0374698638916016e-01 -1.8054385483264923e-01</leafValues></_>
        <_>
          <internalNodes>
            0 -1 283 3.5728458315134048e-03</internalNodes>
          <leafValues>
            -1.3415528833866119e-01 8.1134486198425293e-01</leafValues></_>
        <_>
          <internalNodes>
            0 -1 172 -2.4546716362237930e-02</internalNodes>
          <leafValues>
            -8.3985006809234619e-01 1.4747342467308044e-01</leafValues></_>
        <_>
          <internalNodes>
            0 -1 328 3.5197520628571510e-04</internalNodes>
          <leafValues>
            1.6559313237667084e-01 -5.2591526508331299e-01</leafValues></_>
        <_>
          <internalNodes>
            0 -1 328 -8.2633725833147764e-04</internalNodes>
          <leafValues>
            -4.9655112624168396e-01 2.0304305851459503e-01</leafValues></_></weakClassifiers></_>
    <!-- stage 9 -->
    <_>
      <maxWeakCount>17</maxWeakCount>
      <stageThreshold>-1.2505835294723511e+00</stageThreshold>
      <weakClassifiers>
        <_>
          <internalNodes>
            0 -1 264 2.5086257606744766e-02</internalNodes>
          <leafValues>
            -2.3105706274509430e-01 7.0106762647628784e-01</leafValues></_>
        <_>
          <internalNodes>
            0 -1 223 -1.6541593140573241e-05</internalNodes>
          <leafValues>
            3.0169925093650818e-01 -3.1657978892326355e-01</leafValues></_>
        <_>
          <internalNodes>
            0 -1 331 -1.6007774684112519e-04</internalNodes>
          <leafValues>
            -5.2799165248870850e-01 1.6662044823169708e-01</leafValues></_>
        <_>
          <internalNodes>
            0 -1 154 -1.8734440673142672e-03</internalNodes>
          <leafValues>
            -4.6851846575737000e-01 2.1507874131202698e-01</leafValues></_>
        <_>
          <internalNodes>
            0 -1 289 -1.4324499294161797e-02</internalNodes>
          <leafValues>
            -7.2295463085174561e-01 1.3858158886432648e-01</leafValues></_>
        <_>
          <internalNodes>
            0 -1 203 2.0302779972553253e-02</internalNodes>
          <leafValues>
            -2.8801918029785156e-01 3.3907404541969299e-01</leafValues></_>
        <_>
          <internalNodes>
            0 -1 102 3.1540691852569580e-02</internalNodes>
          <leafValues>
            -2.2235442698001862e-01 4.6967244148254395e-01</leafValues></_>
        <_>
          <internalNodes>
            0 -1 1 -1.6010034829378128e-02</internalNodes>
          <leafValues>
            5.9353286027908325e-01 -1.7484369874000549e-01</leafValues></_>
        <_>
          <internalNodes>
            0 -1 25 2.9678059741854668e-02</internalNodes>
          <leafValues>
            1.3730077445507050e-01 -8.2594347000122070e-01</leafValues></_>
        <_>
          <internalNodes>
            0 -1 189 -1.1335229501128197e-03</internalNodes>
          <leafValues>
            -8.9783179759979248e-01 8.7187238037586212e-02</leafValues></_>
        <_>
          <internalNodes>
            0 -1 130 9.8920671734958887e-04</internalNodes>
          <leafValues>
            -4.0630885958671570e-01 2.0452859997749329e-01</leafValues></_>
        <_>
          <internalNodes>
            0 -1 128 2.7203988283872604e-03</internalNodes>
          <leafValues>
            -2.6446023583412170e-01 3.6172485351562500e-01</leafValues></_>
        <_>
          <internalNodes>
            0 -1 47 -2.7857577800750732e-01</internalNodes>
          <leafValues>
            5.6323897838592529e-01 -1.6961221396923065e-01</leafValues></_>
        <_>
          <internalNodes>
            0 -1 15 -4.8311366699635983e-03</internalNodes>
          <leafValues>
            6.9616842269897461e-01 -1.4323294162750244e-01</leafValues></_>
        <_>
          <internalNodes>
            0 -1 329 2.8408449143171310e-03</internalNodes>
          <leafValues>
            1.3853858411312103e-01 -7.2804230451583862e-01</leafValues></_>
        <_>
          <internalNodes>
            0 -1 216 9.6398014575242996e-03</internalNodes>
          <leafValues>
            1.0649809986352921e-01 -7.1757644414901733e-01</leafValues></_>
        <_>
          <internalNodes>
            0 -1 107 3.6906111054122448e-03</internalNodes>
          <leafValues>
            -2.8837209939956665e-01 3.1313851475715637e-01</leafValues></_></weakClassifiers></_>
    <!-- stage 10 -->
    <_>
      <maxWeakCount>16</maxWeakCount>
      <stageThreshold>-1.1270310878753662e+00</stageThreshold>
      <weakClassifiers>
        <_>
          <internalNodes>
            0 -1 134 -3.4331783652305603e-02</internalNodes>
          <leafValues>
            4.2494714260101318e-01 -2.8620296716690063e-01</leafValues></_>
        <_>
          <internalNodes>
            0 -1 290 -2.5354172103106976e-03</internalNodes>
          <leafValues>
            4.1927489638328552e-01 -2.2352506220340729e-01</leafValues></_>
        <_>
          <internalNodes>
            0 -1 126 5.3996471688151360e-03</internalNodes>
          <leafValues>
            -2.4360720813274384e-01 3.6037832498550415e-01</leafValues></_>
        <_>
          <internalNodes>
            0 -1 139 -2.9453486204147339e-02</internalNodes>
          <leafValues>
            7.8353232145309448e-01 -1.5293514728546143e-01</leafValues></_>
        <_>
          <internalNodes>
            0 -1 101 1.5122874639928341e-02</internalNodes>
          <leafValues>
            -1.9323022663593292e-01 5.0718748569488525e-01</leafValues></_>
        <_>
          <internalNodes>
            0 -1 276 1.8316265195608139e-03</internalNodes>
          <leafValues>
            1.4612621068954468e-01 -7.8797370195388794e-01</leafValues></_>
        <_>
          <internalNodes>
            0 -1 92 -6.5404877066612244e-02</internalNodes>
          <leafValues>
            -8.7549090385437012e-01 1.0410150140523911e-01</leafValues></_>
        <_>
          <internalNodes>
            0 -1 303 -5.0977631472051144e-03</internalNodes>
          <leafValues>
            4.4216918945312500e-01 -2.2315587103366852e-01</leafValues></_>
        <_>
          <internalNodes>
            0 -1 185 -1.0425494983792305e-03</internalNodes>
          <leafValues>
            -4.8240754008293152e-01 2.0088940858840942e-01</leafValues></_>
        <_>
          <internalNodes>
            0 -1 182 1.8832320347428322e-03</internalNodes>
          <leafValues>
            -3.2770097255706787e-01 2.6558056473731995e-01</leafValues></_>
        <_>
          <internalNodes>
            0 -1 13 1.2398075312376022e-02</internalNodes>
          <leafValues>
            -1.3062703609466553e-01 6.7610216140747070e-01</leafValues></_>
        <_>
          <internalNodes>
            0 -1 118 1.5083109959959984e-02</internalNodes>
          <leafValues>
            -1.6864557564258575e-01 5.8951073884963989e-01</leafValues></_>
        <_>
          <internalNodes>
            0 -1 20 -1.6861340031027794e-02</internalNodes>
          <leafValues>
            5.6255596876144409e-01 -1.9098404049873352e-01</leafValues></_>
        <_>
          <internalNodes>
            0 -1 236 4.5872740447521210e-03</internalNodes>
          <leafValues>
            -2.2089023888111115e-01 3.7161839008331299e-01</leafValues></_>
        <_>
          <internalNodes>
            0 -1 248 2.0736772567033768e-02</internalNodes>
          <leafValues>
            -2.5463664531707764e-01 3.2769614458084106e-01</leafValues></_>
        <_>
          <internalNodes>
            0 -1 290 4.4142976403236389e-03</internalNodes>
          <leafValues>
            -1.4832556247711182e-01 6.4947992563247681e-01</leafValues></_></weakClassifiers></_>
    <!-- stage 11 -->
    <_>
      <maxWeakCount>24</maxWeakCount>
      <stageThreshold>-1.3991340398788452e+00</stageThreshold>
      <weakClassifiers>
        <_>
          <internalNodes>
            0 -1 277 3.3850632607936859e-02</internalNodes>
          <leafValues>
            -2.3434343934059143e-01 5.0555557012557983e-01</leafValues></_>
        <_>
          <internalNodes>
            0 -1 0 -2.1629086404573172e-04</internalNodes>
          <leafValues>
            -4.7824165225028992e-01 2.0095394551753998e-01</leafValues></_>
        <_>
          <internalNodes>
            0 -1 113 -1.4286312274634838e-02</internalNodes>
          <leafValues>
            4.6057999134063721e-01 -2.2587279975414276e-01</leafValues></_>
        <_>
          <internalNodes>
            0 -1 38 2.1185528021305799e-04</internalNodes>
          <leafValues>
            1.6471523046493530e-01 -4.5840540528297424e-01</leafValues></_>
        <_>
          <internalNodes>
            0 -1 38 -4.3278452358208597e-04</internalNodes>
          <leafValues>
            -4.7957342863082886e-01 1.8572705984115601e-01</leafValues></_>
        <_>
          <internalNodes>
            0 -1 171 -5.7995799579657614e-05</internalNodes>
          <leafValues>
            2.2582483291625977e-01 -4.1049835085868835e-01</leafValues></_>
        <_>
          <internalNodes>
            0 -1 233 -6.3440902158617973e-03</internalNodes>
          <leafValues>
            4.9552318453788757e-01 -1.9518889486789703e-01</leafValues></_>
        <_>
          <internalNodes>
            0 -1 82 4.5047502964735031e-02</internalNodes>
          <leafValues>
            1.3907924294471741e-01 -7.1619129180908203e-01</leafValues></_>
        <_>
          <internalNodes>
            0 -1 205 6.5032886341214180e-03</internalNodes>
          <leafValues>
            -2.3462475836277008e-01 3.6994490027427673e-01</leafValues></_>
        <_>
          <internalNodes>
            0 -1 214 -3.9118633139878511e-04</internalNodes>
          <leafValues>
            -3.9662447571754456e-01 1.9873543083667755e-01</leafValues></_>
        <_>
          <internalNodes>
            0 -1 249 4.4193137437105179e-03</internalNodes>
          <leafValues>
            -2.9979440569877625e-01 2.7395719289779663e-01</leafValues></_>
        <_>
          <internalNodes>
            0 -1 157 -1.7697248607873917e-02</internalNodes>
          <leafValues>
            7.8518396615982056e-01 -1.2156395614147186e-01</leafValues></_>
        <_>
          <internalNodes>
            0 -1 121 -3.0313706025481224e-02</internalNodes>
          <leafValues>
            6.3773924112319946e-01 -1.2163206189870834e-01</leafValues></_>
        <_>
          <internalNodes>
            0 -1 226 -2.0648455247282982e-03</internalNodes>
          <leafValues>
            -5.6427448987960815e-01 1.7743103206157684e-01</leafValues></_>
        <_>
          <internalNodes>
            0 -1 87 -2.0929014310240746e-02</internalNodes>
          <leafValues>
            -8.0949246883392334e-01 9.3050852417945862e-02</leafValues></_>
        <_>
          <internalNodes>
            0 -1 135 -1.1617595329880714e-02</internalNodes>
          <leafValues>
            5.5887448787689209e-01 -1.6705809533596039e-01</leafValues></_>
        <_>
          <internalNodes>
            0 -1 23 3.3204965293407440e-02</internalNodes>
          <leafValues>
            1.2362560629844666e-01 -7.0719981193542480e-01</leafValues></_>
        <_>
          <internalNodes>
            0 -1 288 2.7513012290000916e-02</internalNodes>
          <leafValues>
            -1.1010453850030899e-01 8.4271872043609619e-01</leafValues></_>
        <_>
          <internalNodes>
            0 -1 260 -7.0943206548690796e-02</internalNodes>
          <leafValues>
            -8.7892621755599976e-01 1.1086075007915497e-01</leafValues></_>
        <_>
          <internalNodes>
            0 -1 86 -7.1853451663628221e-04</internalNodes>
          <leafValues>
            -3.9265254139900208e-01 1.7116913199424744e-01</leafValues></_>
        <_>
          <internalNodes>
            0 -1 24 9.7781978547573090e-03</internalNodes>
          <leafValues>
            -1.5836438536643982e-01 4.9258092045783997e-01</leafValues></_>
        <_>
          <internalNodes>
            0 -1 219 -3.3019136637449265e-02</internalNodes>
          <leafValues>
            -5.3973436355590820e-01 1.6662780940532684e-01</leafValues></_>
        <_>
          <internalNodes>
            0 -1 235 -1.6971711011137813e-04</internalNodes>
          <leafValues>
            3.0273410677909851e-01 -2.9270976781845093e-01</leafValues></_>
        <_>
          <internalNodes>
            0 -1 60 -8.5583288455381989e-04</internalNodes>
          <leafValues>
            -7.3920822143554688e-01 1.0250825434923172e-01</leafValues></_></weakClassifiers></_>
    <!-- stage 12 -->
    <_>
      <maxWeakCount>21</maxWeakCount>
      <stageThreshold>-1.3281438350677490e+00</stageThreshold>
      <weakClassifiers>
        <_>
          <internalNodes>
            0 -1 71 -1.6624066978693008e-02</internalNodes>
          <leafValues>
            4.0540540218353271e-01 -3.1250000000000000e-01</leafValues></_>
        <_>
          <internalNodes>
            0 -1 51 5.6196637451648712e-03</internalNodes>
          <leafValues>
            -1.7827253043651581e-01 4.7106069326400757e-01</leafValues></_>
        <_>
          <internalNodes>
            0 -1 16 1.1499414220452309e-02</internalNodes>
          <leafValues>
            -1.5491054952144623e-01 5.6856232881546021e-01</leafValues></_>
        <_>
          <internalNodes>
            0 -1 22 -2.9523478820919991e-02</internalNodes>
          <leafValues>
            3.5291984677314758e-01 -2.5680625438690186e-01</leafValues></_>
        <_>
          <internalNodes>
            0 -1 36 1.2229712447151542e-03</internalNodes>
          <leafValues>
            1.5011329948902130e-01 -6.5282315015792847e-01</leafValues></_>
        <_>
          <internalNodes>
            0 -1 111 3.7611057050526142e-03</internalNodes>
          <leafValues>
            -2.5980693101882935e-01 3.5519093275070190e-01</leafValues></_>
        <_>
          <internalNodes>
            0 -1 160 -3.6281829234212637e-03</internalNodes>
          <leafValues>
            -4.9334725737571716e-01 2.0240008831024170e-01</leafValues></_>
        <_>
          <internalNodes>
            0 -1 59 1.8911019433289766e-03</internalNodes>
          <leafValues>
            1.1094283312559128e-01 -6.3455414772033691e-01</leafValues></_>
        <_>
          <internalNodes>
            0 -1 313 7.6670302078127861e-03</internalNodes>
          <leafValues>
            -1.6760653257369995e-01 4.3134942650794983e-01</leafValues></_>
        <_>
          <internalNodes>
            0 -1 307 -7.6541323214769363e-03</internalNodes>
          <leafValues>
            4.3009775876998901e-01 -2.0989558100700378e-01</leafValues></_>
        <_>
          <internalNodes>
            0 -1 209 1.3709471095353365e-03</internalNodes>
          <leafValues>
            -2.8370988368988037e-01 2.6069277524948120e-01</leafValues></_>
        <_>
          <internalNodes>
            0 -1 210 -2.4506561458110809e-02</internalNodes>
          <leafValues>
            -8.0056250095367432e-01 1.1396502703428268e-01</leafValues></_>
        <_>
          <internalNodes>
            0 -1 3 -8.6409538984298706e-02</internalNodes>
          <leafValues>
            -7.4078357219696045e-01 8.2005046308040619e-02</leafValues></_>
        <_>
          <internalNodes>
            0 -1 328 -1.3136552879586816e-03</internalNodes>
          <leafValues>
            -5.1783788204193115e-01 1.3331186771392822e-01</leafValues></_>
        <_>
          <internalNodes>
            0 -1 279 -2.1250613033771515e-02</internalNodes>
          <leafValues>
            6.5350890159606934e-01 -1.3144987821578979e-01</leafValues></_>
        <_>
          <internalNodes>
            0 -1 254 -5.0581758841872215e-03</internalNodes>
          <leafValues>
            7.3957145214080811e-01 -1.2350108474493027e-01</leafValues></_>
        <_>
          <internalNodes>
            0 -1 234 4.8650434473529458e-04</internalNodes>
          <leafValues>
            -3.5683482885360718e-01 2.3395486176013947e-01</leafValues></_>
        <_>
          <internalNodes>
            0 -1 119 3.6363907158374786e-02</internalNodes>
          <leafValues>
            -1.3633474707603455e-01 5.9070622920989990e-01</leafValues></_>
        <_>
          <internalNodes>
            0 -1 103 -1.2547468766570091e-02</internalNodes>
          <leafValues>
            5.5712962150573730e-01 -1.5633317828178406e-01</leafValues></_>
        <_>
          <internalNodes>
            0 -1 37 -5.0360558088868856e-04</internalNodes>
          <leafValues>
            -4.2973995208740234e-01 1.9624388217926025e-01</leafValues></_>
        <_>
          <internalNodes>
            0 -1 137 -1.0572973638772964e-02</internalNodes>
          <leafValues>
            5.1829075813293457e-01 -1.6052836179733276e-01</leafValues></_></weakClassifiers></_>
    <!-- stage 13 -->
    <_>
      <maxWeakCount>24</maxWeakCount>
      <stageThreshold>-1.4001301527023315e+00</stageThreshold>
      <weakClassifiers>
        <_>
          <internalNodes>
            0 -1 324 -1.8950585275888443e-02</internalNodes>
          <leafValues>
            3.7142857909202576e-01 -2.9696971178054810e-01</leafValues></_>
        <_>
          <internalNodes>
            0 -1 79 3.8969968445599079e-03</internalNodes>
          <leafValues>
            -1.3853256404399872e-01 7.0061135292053223e-01</leafValues></_>
        <_>
          <internalNodes>
            0 -1 225 -1.3410949031822383e-04</internalNodes>
          <leafValues>
            2.7294027805328369e-01 -3.5384851694107056e-01</leafValues></_>
        <_>
          <internalNodes>
            0 -1 186 7.8446703264489770e-04</internalNodes>
          <leafValues>
            -3.1912535429000854e-01 2.7074983716011047e-01</leafValues></_>
        <_>
          <internalNodes>
            0 -1 43 -8.0268539022654295e-04</internalNodes>
          <leafValues>
            -6.3172119855880737e-01 1.4088517427444458e-01</leafValues></_>
        <_>
          <internalNodes>
            0 -1 63 -8.5498252883553505e-04</internalNodes>
          <leafValues>
            -6.1719077825546265e-01 1.5974947810173035e-01</leafValues></_>
        <_>
          <internalNodes>
            0 -1 320 1.8343213945627213e-02</internalNodes>
          <leafValues>
            6.0270074754953384e-02 -8.3296346664428711e-01</leafValues></_>
        <_>
          <internalNodes>
            0 -1 201 2.2696183805237524e-05</internalNodes>
          <leafValues>
            -3.4640896320343018e-01 2.5355237722396851e-01</leafValues></_>
        <_>
          <internalNodes>
            0 -1 302 4.4348933733999729e-03</internalNodes>
          <leafValues>
            -1.6767157614231110e-01 4.8867675662040710e-01</leafValues></_>
        <_>
          <internalNodes>
            0 -1 250 -2.0307903178036213e-03</internalNodes>
          <leafValues>
            -5.1280486583709717e-01 1.6804537177085876e-01</leafValues></_>
        <_>
          <internalNodes>
            0 -1 132 -9.0978841762989759e-04</internalNodes>
          <leafValues>
            -3.8758638501167297e-01 1.9287788867950439e-01</leafValues></_>
        <_>
          <internalNodes>
            0 -1 188 -1.0026160161942244e-03</internalNodes>
          <leafValues>
            3.4127992391586304e-01 -2.2156016528606415e-01</leafValues></_>
        <_>
          <internalNodes>
            0 -1 282 -5.9130070731043816e-03</internalNodes>
          <leafValues>
            4.6753701567649841e-01 -1.9493040442466736e-01</leafValues></_>
        <_>
          <internalNodes>
            0 -1 279 -1.9569523632526398e-02</internalNodes>
          <leafValues>
            5.8537006378173828e-01 -1.2788182497024536e-01</leafValues></_>
        <_>
          <internalNodes>
            0 -1 65 -2.5206592399626970e-03</internalNodes>
          <leafValues>
            3.3212283253669739e-01 -2.5325277447700500e-01</leafValues></_>
        <_>
          <internalNodes>
            0 -1 124 -1.7253067344427109e-02</internalNodes>
          <leafValues>
            -7.8524643182754517e-01 1.1397879570722580e-01</leafValues></_>
        <_>
          <internalNodes>
            0 -1 263 1.5177455497905612e-03</internalNodes>
          <leafValues>
            1.3593316078186035e-01 -5.0232732295989990e-01</leafValues></_>
        <_>
          <internalNodes>
            0 -1 70 -3.6570169031620026e-03</internalNodes>
          <leafValues>
            6.5942496061325073e-01 -1.2573920190334320e-01</leafValues></_>
        <_>
          <internalNodes>
            0 -1 70 1.0799495503306389e-03</internalNodes>
          <leafValues>
            -1.4764726161956787e-01 4.5909050107002258e-01</leafValues></_>
        <_>
          <internalNodes>
            0 -1 66 3.6086031794548035e-01</internalNodes>
          <leafValues>
            -9.3230895698070526e-02 7.7414536476135254e-01</leafValues></_>
        <_>
          <internalNodes>
            0 -1 31 -9.7483471035957336e-03</internalNodes>
          <leafValues>
            2.7508309483528137e-01 -3.4576126933097839e-01</leafValues></_>
        <_>
          <internalNodes>
            0 -1 14 3.0521441251039505e-02</internalNodes>
          <leafValues>
            -1.4967390894889832e-01 5.7354265451431274e-01</leafValues></_>
        <_>
          <internalNodes>
            0 -1 316 7.4903044151142240e-04</internalNodes>
          <leafValues>
            -3.1615290045738220e-01 2.5673609972000122e-01</leafValues></_>
        <_>
          <internalNodes>
            0 -1 311 -1.4137972146272659e-02</internalNodes>
          <leafValues>
            -8.4991317987442017e-01 8.5876762866973877e-02</leafValues></_></weakClassifiers></_>
    <!-- stage 14 -->
    <_>
      <maxWeakCount>33</maxWeakCount>
      <stageThreshold>-1.3981101512908936e+00</stageThreshold>
      <weakClassifiers>
        <_>
          <internalNodes>
            0 -1 49 -4.3066378682851791e-02</internalNodes>
          <leafValues>
            4.4499999284744263e-01 -2.3999999463558197e-01</leafValues></_>
        <_>
          <internalNodes>
            0 -1 89 -7.1063870564103127e-04</internalNodes>
          <leafValues>
            -3.6746510863304138e-01 2.1056154370307922e-01</leafValues></_>
        <_>
          <internalNodes>
            0 -1 268 -3.0293241143226624e-03</internalNodes>
          <leafValues>
            5.1131725311279297e-01 -1.4981813728809357e-01</leafValues></_>
        <_>
          <internalNodes>
            0 -1 54 -3.9797881618142128e-03</internalNodes>
          <leafValues>
            1.6711355745792389e-01 -4.5075082778930664e-01</leafValues></_>
        <_>
          <internalNodes>
            0 -1 268 1.8304670229554176e-03</internalNodes>
          <leafValues>
            -1.6280078887939453e-01 4.8587092757225037e-01</leafValues></_>
        <_>
          <internalNodes>
            0 -1 26 2.6076710782945156e-03</internalNodes>
          <leafValues>
            -1.8576665222644806e-01 4.1603207588195801e-01</leafValues></_>
        <_>
          <internalNodes>
            0 -1 251 -1.1893195100128651e-02</internalNodes>
          <leafValues>
            3.7387785315513611e-01 -2.2367523610591888e-01</leafValues></_>
        <_>
          <internalNodes>
            0 -1 20 -1.6956349834799767e-02</internalNodes>
          <leafValues>
            4.2948368191719055e-01 -1.5546633303165436e-01</leafValues></_>
        <_>
          <internalNodes>
            0 -1 147 6.6915829665958881e-03</internalNodes>
          <leafValues>
            -2.1781042218208313e-01 3.2851734757423401e-01</leafValues></_>
        <_>
          <internalNodes>
            0 -1 45 3.3753210306167603e-01</internalNodes>
          <leafValues>
            -1.4124381542205811e-01 6.5775603055953979e-01</leafValues></_>
        <_>
          <internalNodes>
            0 -1 174 -3.2222399022430182e-04</internalNodes>
          <leafValues>
            -4.8689261078834534e-01 1.5567821264266968e-01</leafValues></_>
        <_>
          <internalNodes>
            0 -1 292 -3.5109492018818855e-03</internalNodes>
          <leafValues>
            4.4112977385520935e-01 -1.4667715132236481e-01</leafValues></_>
        <_>
          <internalNodes>
            0 -1 285 2.9743622872047126e-04</internalNodes>
          <leafValues>
            1.3861839473247528e-01 -4.7350716590881348e-01</leafValues></_>
        <_>
          <internalNodes>
            0 -1 317 1.9696545787155628e-03</internalNodes>
          <leafValues>
            -1.6027724742889404e-01 4.3006557226181030e-01</leafValues></_>
        <_>
          <internalNodes>
            0 -1 218 -1.2754049384966493e-04</internalNodes>
          <leafValues>
            2.6534330844879150e-01 -3.0144163966178894e-01</leafValues></_>
        <_>
          <internalNodes>
            0 -1 148 -1.6908328980207443e-03</internalNodes>
          <leafValues>
            2.8916791081428528e-01 -2.6576134562492371e-01</leafValues></_>
        <_>
          <internalNodes>
            0 -1 79 5.6973178870975971e-03</internalNodes>
          <leafValues>
            -6.9348558783531189e-02 6.9741499423980713e-01</leafValues></_>
        <_>
          <internalNodes>
            0 -1 319 7.2251860983669758e-03</internalNodes>
          <leafValues>
            1.2036199122667313e-01 -5.7313817739486694e-01</leafValues></_>
        <_>
          <internalNodes>
            0 -1 167 1.9763153977692127e-04</internalNodes>
          <leafValues>
            -2.7575567364692688e-01 2.4647764861583710e-01</leafValues></_>
        <_>
          <internalNodes>
            0 -1 156 -1.7345458269119263e-02</internalNodes>
          <leafValues>
            -6.4021342992782593e-01 1.1330601572990417e-01</leafValues></_>
        <_>
          <internalNodes>
            0 -1 127 5.1571130752563477e-02</internalNodes>
          <leafValues>
            5.7549692690372467e-02 -8.1195557117462158e-01</leafValues></_>
        <_>
          <internalNodes>
            0 -1 77 -5.4806564003229141e-04</internalNodes>
          <leafValues>
            2.9897493124008179e-01 -2.1871170401573181e-01</leafValues></_>
        <_>
          <internalNodes>
            0 -1 99 -2.5303769856691360e-02</internalNodes>
          <leafValues>
            6.7291581630706787e-01 -9.1835692524909973e-02</leafValues></_>
        <_>
          <internalNodes>
            0 -1 325 -2.8526394162327051e-03</internalNodes>
          <leafValues>
            -5.5728113651275635e-01 1.3174556195735931e-01</leafValues></_>
        <_>
          <internalNodes>
            0 -1 96 5.8297909796237946e-02</internalNodes>
          <leafValues>
            -1.4818122982978821e-01 4.7336924076080322e-01</leafValues></_>
        <_>
          <internalNodes>
            0 -1 165 2.4134800769388676e-03</internalNodes>
          <leafValues>
            -1.5612414479255676e-01 4.1379928588867188e-01</leafValues></_>
        <_>
          <internalNodes>
            0 -1 202 -1.2393976561725140e-02</internalNodes>
          <leafValues>
            -8.6606991291046143e-01 8.6227416992187500e-02</leafValues></_>
        <_>
          <internalNodes>
            0 -1 158 -5.1050018519163132e-03</internalNodes>
          <leafValues>
            6.3627701997756958e-01 -1.3457114994525909e-01</leafValues></_>
        <_>
          <internalNodes>
            0 -1 97 5.3553964244201779e-04</internalNodes>
          <leafValues>
            1.1448987573385239e-01 -6.7344826459884644e-01</leafValues></_>
        <_>
          <internalNodes>
            0 -1 84 -4.6151485294103622e-03</internalNodes>
          <leafValues>
            6.9079113006591797e-01 -1.1541496962308884e-01</leafValues></_>
        <_>
          <internalNodes>
            0 -1 222 6.2635880894958973e-03</internalNodes>
          <leafValues>
            -1.5699547529220581e-01 3.9999857544898987e-01</leafValues></_>
        <_>
          <internalNodes>
            0 -1 204 -1.5016748569905758e-02</internalNodes>
          <leafValues>
            -6.9118750095367432e-01 9.9643498659133911e-02</leafValues></_>
        <_>
          <internalNodes>
            0 -1 242 1.6192298789974302e-04</internalNodes>
          <leafValues>
            -2.5834941864013672e-01 2.9605033993721008e-01</leafValues></_></weakClassifiers></_>
    <!-- stage 15 -->
    <_>
      <maxWeakCount>24</maxWeakCount>
      <stageThreshold>-1.2397600412368774e+00</stageThreshold>
      <weakClassifiers>
        <_>
          <internalNodes>
            0 -1 243 -1.4659456908702850e-02</internalNodes>
          <leafValues>
            4.1716566681861877e-01 -3.0506476759910583e-01</leafValues></_>
        <_>
          <internalNodes>
            0 -1 114 5.5633857846260071e-03</internalNodes>
          <leafValues>
            -1.1822465062141418e-01 5.9790277481079102e-01</leafValues></_>
        <_>
          <internalNodes>
            0 -1 278 -1.2520714662969112e-02</internalNodes>
          <leafValues>
            5.2735066413879395e-01 -1.6069523990154266e-01</leafValues></_>
        <_>
          <internalNodes>
            0 -1 321 -3.9665861986577511e-03</internalNodes>
          <leafValues>
            3.0475208163261414e-01 -2.5078317523002625e-01</leafValues></_>
        <_>
          <internalNodes>
            0 -1 324 1.7462512478232384e-02</internalNodes>
          <leafValues>
            -7.6463773846626282e-02 7.4540334939956665e-01</leafValues></_>
        <_>
          <internalNodes>
            0 -1 117 -1.0941624641418457e-02</internalNodes>
          <leafValues>
            3.8220399618148804e-01 -1.7121841013431549e-01</leafValues></_>
        <_>
          <internalNodes>
            0 -1 275 -1.0569449514150620e-03</internalNodes>
          <leafValues>
            -4.0265956521034241e-01 1.7839448153972626e-01</leafValues></_>
        <_>
          <internalNodes>
            0 -1 30 1.8005330115556717e-02</internalNodes>
          <leafValues>
            -1.4157424867153168e-01 4.8900321125984192e-01</leafValues></_>
        <_>
          <internalNodes>
            0 -1 199 2.9430557042360306e-03</internalNodes>
          <leafValues>
            -1.6275094449520111e-01 3.7604808807373047e-01</leafValues></_>
        <_>
          <internalNodes>
            0 -1 104 -5.7348143309354782e-03</internalNodes>
          <leafValues>
            5.6566023826599121e-01 -1.2319543957710266e-01</leafValues></_>
        <_>
          <internalNodes>
            0 -1 88 -9.6145970746874809e-04</internalNodes>
          <leafValues>
            -3.4740713238716125e-01 2.0647317171096802e-01</leafValues></_>
        <_>
          <internalNodes>
            0 -1 76 -2.5112487375736237e-02</internalNodes>
          <leafValues>
            8.1639844179153442e-01 -8.8888272643089294e-02</leafValues></_>
        <_>
          <internalNodes>
            0 -1 29 -1.1207301169633865e-02</internalNodes>
          <leafValues>
            4.2135220766067505e-01 -1.4872986078262329e-01</leafValues></_>
        <_>
          <internalNodes>
            0 -1 247 -7.0981634780764580e-03</internalNodes>
          <leafValues>
            7.8293138742446899e-01 -8.8435761630535126e-02</leafValues></_>
        <_>
          <internalNodes>
            0 -1 2 1.3137209415435791e-01</internalNodes>
          <leafValues>
            1.0569407045841217e-01 -7.2931182384490967e-01</leafValues></_>
        <_>
          <internalNodes>
            0 -1 153 3.4596443176269531e-02</internalNodes>
          <leafValues>
            6.2974445521831512e-02 -8.9583283662796021e-01</leafValues></_>
        <_>
          <internalNodes>
            0 -1 168 1.2503704056143761e-03</internalNodes>
          <leafValues>
            -3.1727445125579834e-01 1.9392322003841400e-01</leafValues></_>
        <_>
          <internalNodes>
            0 -1 280 -4.5951101928949356e-03</internalNodes>
          <leafValues>
            3.1234893202781677e-01 -2.2335119545459747e-01</leafValues></_>
        <_>
          <internalNodes>
            0 -1 327 2.2448947129305452e-04</internalNodes>
          <leafValues>
            1.7326058447360992e-01 -4.5589265227317810e-01</leafValues></_>
        <_>
          <internalNodes>
            0 -1 105 1.9260704517364502e-02</internalNodes>
          <leafValues>
            -1.4979347586631775e-01 4.9963513016700745e-01</leafValues></_>
        <_>
          <internalNodes>
            0 -1 100 5.3108427673578262e-03</internalNodes>
          <leafValues>
            1.1506874859333038e-01 -6.4392769336700439e-01</leafValues></_>
        <_>
          <internalNodes>
            0 -1 330 -5.5840762797743082e-04</internalNodes>
          <leafValues>
            -3.3977448940277100e-01 1.7497918009757996e-01</leafValues></_>
        <_>
          <internalNodes>
            0 -1 261 3.6783104296773672e-03</internalNodes>
          <leafValues>
            -3.6292240023612976e-01 1.7628382146358490e-01</leafValues></_>
        <_>
          <internalNodes>
            0 -1 220 -7.0786669850349426e-02</internalNodes>
          <leafValues>
            -6.7264693975448608e-01 9.7111105918884277e-02</leafValues></_></weakClassifiers></_>
    <!-- stage 16 -->
    <_>
      <maxWeakCount>21</maxWeakCount>
      <stageThreshold>-1.0840594768524170e+00</stageThreshold>
      <weakClassifiers>
        <_>
          <internalNodes>
            0 -1 58 -2.6677723973989487e-02</internalNodes>
          <leafValues>
            2.9503107070922852e-01 -3.3994334936141968e-01</leafValues></_>
        <_>
          <internalNodes>
            0 -1 98 3.2624371815472841e-03</internalNodes>
          <leafValues>
            -1.6746255755424500e-01 4.3645721673965454e-01</leafValues></_>
        <_>
          <internalNodes>
            0 -1 72 -3.5940838279202580e-04</internalNodes>
          <leafValues>
            -5.6899625062942505e-01 1.3354030251502991e-01</leafValues></_>
        <_>
          <internalNodes>
            0 -1 116 -4.7700535506010056e-03</internalNodes>
          <leafValues>
            5.6247127056121826e-01 -1.0537858307361603e-01</leafValues></_>
        <_>
          <internalNodes>
            0 -1 73 1.3385461643338203e-03</internalNodes>
          <leafValues>
            1.3357603549957275e-01 -5.8966988325119019e-01</leafValues></_>
        <_>
          <internalNodes>
            0 -1 314 -8.6481356993317604e-03</internalNodes>
          <leafValues>
            4.6755081415176392e-01 -1.3614089787006378e-01</leafValues></_>
        <_>
          <internalNodes>
            0 -1 270 -5.9837927110493183e-03</internalNodes>
          <leafValues>
            3.0170312523841858e-01 -2.6627632975578308e-01</leafValues></_>
        <_>
          <internalNodes>
            0 -1 194 3.8047996349632740e-04</internalNodes>
          <leafValues>
            -2.9250857234001160e-01 2.1591544151306152e-01</leafValues></_>
        <_>
          <internalNodes>
            0 -1 294 7.6395520009100437e-03</internalNodes>
          <leafValues>
            -1.4231805503368378e-01 4.8835784196853638e-01</leafValues></_>
        <_>
          <internalNodes>
            0 -1 232 3.5152357071638107e-02</internalNodes>
          <leafValues>
            1.2975028157234192e-01 -7.1104323863983154e-01</leafValues></_>
        <_>
          <internalNodes>
            0 -1 177 1.3663841411471367e-02</internalNodes>
          <leafValues>
            -1.4155584573745728e-01 5.3137439489364624e-01</leafValues></_>
        <_>
          <internalNodes>
            0 -1 10 -1.1089202016592026e-03</internalNodes>
          <leafValues>
            -6.5037828683853149e-01 1.2433533370494843e-01</leafValues></_>
        <_>
          <internalNodes>
            0 -1 155 -6.8822437897324562e-03</internalNodes>
          <leafValues>
            2.5076067447662354e-01 -2.7228295803070068e-01</leafValues></_>
        <_>
          <internalNodes>
            0 -1 208 -1.0075198486447334e-02</internalNodes>
          <leafValues>
            -7.8077870607376099e-01 8.1007711589336395e-02</leafValues></_>
        <_>
          <internalNodes>
            0 -1 183 5.0120018422603607e-03</internalNodes>
          <leafValues>
            -1.4894182980060577e-01 4.6997451782226562e-01</leafValues></_>
        <_>
          <internalNodes>
            0 -1 146 1.9684440921992064e-03</internalNodes>
          <leafValues>
            -2.1373870968818665e-01 3.3315789699554443e-01</leafValues></_>
        <_>
          <internalNodes>
            0 -1 164 -2.7093542739748955e-03</internalNodes>
          <leafValues>
            -5.0883299112319946e-01 1.4261795580387115e-01</leafValues></_>
        <_>
          <internalNodes>
            0 -1 197 -1.0280914139002562e-03</internalNodes>
          <leafValues>
            -4.3992483615875244e-01 1.6308915615081787e-01</leafValues></_>
        <_>
          <internalNodes>
            0 -1 40 1.0416777513455600e-04</internalNodes>
          <leafValues>
            1.8274626135826111e-01 -3.6892816424369812e-01</leafValues></_>
        <_>
          <internalNodes>
            0 -1 6 -1.5106264501810074e-02</internalNodes>
          <leafValues>
            6.3387149572372437e-01 -1.0209471732378006e-01</leafValues></_>
        <_>
          <internalNodes>
            0 -1 37 1.2016620021313429e-03</internalNodes>
          <leafValues>
            1.3632743060588837e-01 -5.1238125562667847e-01</leafValues></_></weakClassifiers></_>
    <!-- stage 17 -->
    <_>
      <maxWeakCount>22</maxWeakCount>
      <stageThreshold>-1.1521253585815430e+00</stageThreshold>
      <weakClassifiers>
        <_>
          <internalNodes>
            0 -1 74 2.7107989415526390e-02</internalNodes>
          <leafValues>
            -2.0303605496883392e-01 5.5405408143997192e-01</leafValues></_>
        <_>
          <internalNodes>
            0 -1 244 5.0639129767660052e-05</internalNodes>
          <leafValues>
            -2.9444736242294312e-01 2.6675939559936523e-01</leafValues></_>
        <_>
          <internalNodes>
            0 -1 281 3.8260908331722021e-03</internalNodes>
          <leafValues>
            -1.1906984448432922e-01 5.9593844413757324e-01</leafValues></_>
        <_>
          <internalNodes>
            0 -1 162 9.3818467576056719e-04</internalNodes>
          <leafValues>
            -2.7882796525955200e-01 2.3953574895858765e-01</leafValues></_>
        <_>
          <internalNodes>
            0 -1 179 -3.8635922828689218e-04</internalNodes>
          <leafValues>
            -4.4678285717964172e-01 1.5945228934288025e-01</leafValues></_>
        <_>
          <internalNodes>
            0 -1 159 2.5537304580211639e-02</internalNodes>
          <leafValues>
            1.9491253793239594e-01 -3.8641995191574097e-01</leafValues></_>
        <_>
          <internalNodes>
            0 -1 181 5.2848877385258675e-03</internalNodes>
          <leafValues>
            -2.6434266567230225e-01 2.4775759875774384e-01</leafValues></_>
        <_>
          <internalNodes>
            0 -1 227 -9.1744475066661835e-03</internalNodes>
          <leafValues>
            2.9426020383834839e-01 -2.5829324126243591e-01</leafValues></_>
        <_>
          <internalNodes>
            0 -1 322 8.6965542286634445e-03</internalNodes>
          <leafValues>
            -1.1928913742303848e-01 7.2993379831314087e-01</leafValues></_>
        <_>
          <internalNodes>
            0 -1 224 -1.3003394997213036e-04</internalNodes>
          <leafValues>
            2.8097447752952576e-01 -2.5627347826957703e-01</leafValues></_>
        <_>
          <internalNodes>
            0 -1 166 -3.5910988226532936e-03</internalNodes>
          <leafValues>
            4.1900196671485901e-01 -1.7432461678981781e-01</leafValues></_>
        <_>
          <internalNodes>
            0 -1 149 -2.2535449825227261e-03</internalNodes>
          <leafValues>
            2.7752077579498291e-01 -2.6988273859024048e-01</leafValues></_>
        <_>
          <internalNodes>
            0 -1 239 -5.4371473379433155e-04</internalNodes>
          <leafValues>
            -4.2663788795471191e-01 1.7582075297832489e-01</leafValues></_>
        <_>
          <internalNodes>
            0 -1 39 7.5998145621269941e-04</internalNodes>
          <leafValues>
            1.4255239069461823e-01 -4.7133156657218933e-01</leafValues></_>
        <_>
          <internalNodes>
            0 -1 184 -2.1675432100892067e-02</internalNodes>
          <leafValues>
            -6.9180107116699219e-01 1.0948341339826584e-01</leafValues></_>
        <_>
          <internalNodes>
            0 -1 271 -1.1437857523560524e-02</internalNodes>
          <leafValues>
            2.0955115556716919e-01 -3.0560582876205444e-01</leafValues></_>
        <_>
          <internalNodes>
            0 -1 4 2.0029760897159576e-02</internalNodes>
          <leafValues>
            -1.0686384141445160e-01 6.3864409923553467e-01</leafValues></_>
        <_>
          <internalNodes>
            0 -1 150 5.1235958933830261e-02</internalNodes>
          <leafValues>
            9.0570449829101562e-02 -8.6283993721008301e-01</leafValues></_>
        <_>
          <internalNodes>
            0 -1 326 4.6595284948125482e-04</internalNodes>
          <leafValues>
            1.3469618558883667e-01 -4.8451879620552063e-01</leafValues></_>
        <_>
          <internalNodes>
            0 -1 198 -6.2222458655014634e-04</internalNodes>
          <leafValues>
            2.2332002222537994e-01 -2.9089096188545227e-01</leafValues></_>
        <_>
          <internalNodes>
            0 -1 304 -4.5853317715227604e-03</internalNodes>
          <leafValues>
            3.4608301520347595e-01 -1.8901042640209198e-01</leafValues></_>
        <_>
          <internalNodes>
            0 -1 297 1.5405870042741299e-02</internalNodes>
          <leafValues>
            -1.3342365622520447e-01 5.2953010797500610e-01</leafValues></_></weakClassifiers></_>
    <!-- stage 18 -->
    <_>
      <maxWeakCount>28</maxWeakCount>
      <stageThreshold>-1.2130204439163208e+00</stageThreshold>
      <weakClassifiers>
        <_>
          <internalNodes>
            0 -1 258 1.0519398376345634e-02</internalNodes>
          <leafValues>
            -2.4824355542659760e-01 3.2661288976669312e-01</leafValues></_>
        <_>
          <internalNodes>
            0 -1 145 -1.6534426249563694e-03</internalNodes>
          <leafValues>
            -5.0091946125030518e-01 1.3008885085582733e-01</leafValues></_>
        <_>
          <internalNodes>
            0 -1 46 -3.6433283239603043e-02</internalNodes>
          <leafValues>
            3.1292289495468140e-01 -2.1608431637287140e-01</leafValues></_>
        <_>
          <internalNodes>
            0 -1 142 2.2650938481092453e-02</internalNodes>
          <leafValues>
            -1.8139372766017914e-01 4.1198414564132690e-01</leafValues></_>
        <_>
          <internalNodes>
            0 -1 217 8.9312549680471420e-03</internalNodes>
          <leafValues>
            -1.6162309050559998e-01 4.9647256731987000e-01</leafValues></_>
        <_>
          <internalNodes>
            0 -1 193 -1.8465012311935425e-02</internalNodes>
          <leafValues>
            6.0026299953460693e-01 -1.3718000054359436e-01</leafValues></_>
        <_>
          <internalNodes>
            0 -1 292 -5.3547588177025318e-03</internalNodes>
          <leafValues>
            4.5488175749778748e-01 -1.3458108901977539e-01</leafValues></_>
        <_>
          <internalNodes>
            0 -1 125 -6.1395511031150818e-02</internalNodes>
          <leafValues>
            -6.7363548278808594e-01 1.2862418591976166e-01</leafValues></_>
        <_>
          <internalNodes>
            0 -1 83 5.2506569772958755e-03</internalNodes>
          <leafValues>
            -2.0117381215095520e-01 3.1169027090072632e-01</leafValues></_>
        <_>
          <internalNodes>
            0 -1 207 2.4557000870117918e-05</internalNodes>
          <leafValues>
            -2.7243560552597046e-01 2.1876211464405060e-01</leafValues></_>
        <_>
          <internalNodes>
            0 -1 196 -6.4405694138258696e-04</internalNodes>
          <leafValues>
            -3.7419202923774719e-01 1.9271945953369141e-01</leafValues></_>
        <_>
          <internalNodes>
            0 -1 173 -5.2934363484382629e-03</internalNodes>
          <leafValues>
            -6.9999796152114868e-01 7.5963132083415985e-02</leafValues></_>
        <_>
          <internalNodes>
            0 -1 240 -1.0781822726130486e-02</internalNodes>
          <leafValues>
            6.0539764165878296e-01 -1.1073797941207886e-01</leafValues></_>
        <_>
          <internalNodes>
            0 -1 109 -3.1178045901469886e-04</internalNodes>
          <leafValues>
            -3.3198148012161255e-01 1.9856992363929749e-01</leafValues></_>
        <_>
          <internalNodes>
            0 -1 50 3.0999728478491306e-03</internalNodes>
          <leafValues>
            -1.7456679046154022e-01 3.4870514273643494e-01</leafValues></_>
        <_>
          <internalNodes>
            0 -1 228 -2.5062490254640579e-02</internalNodes>
          <leafValues>
            -7.6809066534042358e-01 7.3593698441982269e-02</leafValues></_>
        <_>
          <internalNodes>
            0 -1 315 -3.2449620775878429e-03</internalNodes>
          <leafValues>
            -4.9283480644226074e-01 1.1456246674060822e-01</leafValues></_>
        <_>
          <internalNodes>
            0 -1 295 -1.6729042399674654e-03</internalNodes>
          <leafValues>
            5.6121367216110229e-01 -1.1185526847839355e-01</leafValues></_>
        <_>
          <internalNodes>
            0 -1 272 1.6593246255069971e-03</internalNodes>
          <leafValues>
            -2.5071373581886292e-01 2.6872393488883972e-01</leafValues></_>
        <_>
          <internalNodes>
            0 -1 62 4.5530742499977350e-04</internalNodes>
          <leafValues>
            1.5998589992523193e-01 -3.9221423864364624e-01</leafValues></_>
        <_>
          <internalNodes>
            0 -1 300 -1.2904263101518154e-02</internalNodes>
          <leafValues>
            6.1538851261138916e-01 -1.1525646597146988e-01</leafValues></_>
        <_>
          <internalNodes>
            0 -1 246 -1.0426431894302368e-02</internalNodes>
          <leafValues>
            3.3631548285484314e-01 -2.2074899077415466e-01</leafValues></_>
        <_>
          <internalNodes>
            0 -1 213 -3.6059156991541386e-03</internalNodes>
          <leafValues>
            2.2262535989284515e-01 -3.3588331937789917e-01</leafValues></_>
        <_>
          <internalNodes>
            0 -1 195 1.3497710227966309e-01</internalNodes>
          <leafValues>
            9.3540854752063751e-02 -6.5305632352828979e-01</leafValues></_>
        <_>
          <internalNodes>
            0 -1 186 1.3785578776150942e-03</internalNodes>
          <leafValues>
            -2.9627600312232971e-01 2.0977093279361725e-01</leafValues></_>
        <_>
          <internalNodes>
            0 -1 56 3.1413696706295013e-03</internalNodes>
          <leafValues>
            -2.2761365771293640e-01 3.3232209086418152e-01</leafValues></_>
        <_>
          <internalNodes>
            0 -1 8 -3.8676065742038190e-04</internalNodes>
          <leafValues>
            -4.4729021191596985e-01 1.7473278939723969e-01</leafValues></_>
        <_>
          <internalNodes>
            0 -1 93 1.4312416315078735e-02</internalNodes>
          <leafValues>
            -1.0118525475263596e-01 7.3415493965148926e-01</leafValues></_></weakClassifiers></_>
    <!-- stage 19 -->
    <_>
      <maxWeakCount>25</maxWeakCount>
      <stageThreshold>-1.1332560777664185e+00</stageThreshold>
      <weakClassifiers>
        <_>
          <internalNodes>
            0 -1 211 3.9305612444877625e-02</internalNodes>
          <leafValues>
            -3.7302976846694946e-01 2.0924261212348938e-01</leafValues></_>
        <_>
          <internalNodes>
            0 -1 255 -5.5578234605491161e-03</internalNodes>
          <leafValues>
            5.5078822374343872e-01 -1.3887226581573486e-01</leafValues></_>
        <_>
          <internalNodes>
            0 -1 35 -3.7529654800891876e-03</internalNodes>
          <leafValues>
            4.1042914986610413e-01 -1.4209720492362976e-01</leafValues></_>
        <_>
          <internalNodes>
            0 -1 34 1.1520134285092354e-03</internalNodes>
          <leafValues>
            -1.6508987545967102e-01 3.8863229751586914e-01</leafValues></_>
        <_>
          <internalNodes>
            0 -1 245 2.7546598576009274e-03</internalNodes>
          <leafValues>
            -1.1688468605279922e-01 5.0441765785217285e-01</leafValues></_>
        <_>
          <internalNodes>
            0 -1 298 -5.8428518241271377e-04</internalNodes>
          <leafValues>
            -3.9482069015502930e-01 1.6748148202896118e-01</leafValues></_>
        <_>
          <internalNodes>
            0 -1 191 -3.6220531910657883e-02</internalNodes>
          <leafValues>
            -8.0726522207260132e-01 5.0309695303440094e-02</leafValues></_>
        <_>
          <internalNodes>
            0 -1 301 -9.6113216131925583e-03</internalNodes>
          <leafValues>
            4.4523334503173828e-01 -1.3539062440395355e-01</leafValues></_>
        <_>
          <internalNodes>
            0 -1 200 2.3240379989147186e-02</internalNodes>
          <leafValues>
            8.5293635725975037e-02 -8.8866096735000610e-01</leafValues></_>
        <_>
          <internalNodes>
            0 -1 238 -2.9560888651758432e-04</internalNodes>
          <leafValues>
            2.3719853162765503e-01 -2.6410156488418579e-01</leafValues></_>
        <_>
          <internalNodes>
            0 -1 55 2.7296515181660652e-03</internalNodes>
          <leafValues>
            -2.5647598505020142e-01 2.4017260968685150e-01</leafValues></_>
        <_>
          <internalNodes>
            0 -1 42 -9.4874445348978043e-03</internalNodes>
          <leafValues>
            4.6312797069549561e-01 -1.2747009098529816e-01</leafValues></_>
        <_>
          <internalNodes>
            0 -1 298 1.0262629075441509e-04</internalNodes>
          <leafValues>
            1.9021660089492798e-01 -3.2171595096588135e-01</leafValues></_>
        <_>
          <internalNodes>
            0 -1 108 -4.1380008042324334e-05</internalNodes>
          <leafValues>
            2.3361624777317047e-01 -2.4052441120147705e-01</leafValues></_>
        <_>
          <internalNodes>
            0 -1 163 -9.1013051569461823e-03</internalNodes>
          <leafValues>
            8.8809907436370850e-01 -5.5063966661691666e-02</leafValues></_>
        <_>
          <internalNodes>
            0 -1 59 2.8247560840100050e-03</internalNodes>
          <leafValues>
            1.1292612552642822e-01 -6.0002362728118896e-01</leafValues></_>
        <_>
          <internalNodes>
            0 -1 43 -8.2548795035108924e-04</internalNodes>
          <leafValues>
            -6.1212718486785889e-01 8.2237385213375092e-02</leafValues></_>
        <_>
          <internalNodes>
            0 -1 64 1.7135604284703732e-03</internalNodes>
          <leafValues>
            -1.9759845733642578e-01 2.9320466518402100e-01</leafValues></_>
        <_>
          <internalNodes>
            0 -1 0 3.9990086224861443e-04</internalNodes>
          <leafValues>
            1.5458646416664124e-01 -4.2283698916435242e-01</leafValues></_>
        <_>
          <internalNodes>
            0 -1 78 2.1430472843348980e-03</internalNodes>
          <leafValues>
            -2.1617646515369415e-01 2.7345630526542664e-01</leafValues></_>
        <_>
          <internalNodes>
            0 -1 310 8.7198633700609207e-03</internalNodes>
          <leafValues>
            -1.3675825297832489e-01 4.5432308316230774e-01</leafValues></_>
        <_>
          <internalNodes>
            0 -1 180 -1.5252199955284595e-03</internalNodes>
          <leafValues>
            3.1470218300819397e-01 -1.9542251527309418e-01</leafValues></_>
        <_>
          <internalNodes>
            0 -1 192 -5.0573586486279964e-04</internalNodes>
          <leafValues>
            -5.0665414333343506e-01 1.1954270303249359e-01</leafValues></_>
        <_>
          <internalNodes>
            0 -1 312 -7.9252310097217560e-03</internalNodes>
          <leafValues>
            5.6253719329833984e-01 -1.1904125660657883e-01</leafValues></_>
        <_>
          <internalNodes>
            0 -1 318 8.9289201423525810e-03</internalNodes>
          <leafValues>
            8.1355139613151550e-02 -7.4206036329269409e-01</leafValues></_></weakClassifiers></_></stages>
  <features>
    <_>
      <rects>
        <_>
          0 0 1 2 -1.</_>
        <_>
          0 1 1 1 2.</_></rects>
      <tilted>0</tilted></_>
    <_>
      <rects>
        <_>
          0 0 8 4 -1.</_>
        <_>
          0 0 4 2 2.</_>
        <_>
          4 2 4 2 2.</_></rects>
      <tilted>0</tilted></_>
    <_>
      <rects>
        <_>
          0 0 18 14 -1.</_>
        <_>
          0 0 9 7 2.</_>
        <_>
          9 7 9 7 2.</_></rects>
      <tilted>0</tilted></_>
    <_>
      <rects>
        <_>
          0 0 20 4 -1.</_>
        <_>
          10 0 10 4 2.</_></rects>
      <tilted>0</tilted></_>
    <_>
      <rects>
        <_>
          0 1 2 12 -1.</_>
        <_>
          0 1 1 6 2.</_>
        <_>
          1 7 1 6 2.</_></rects>
      <tilted>0</tilted></_>
    <_>
      <rects>
        <_>
          0 1 2 13 -1.</_>
        <_>
          1 1 1 13 2.</_></rects>
      <tilted>0</tilted></_>
    <_>
      <rects>
        <_>
          0 1 8 2 -1.</_>
        <_>
          0 1 4 1 2.</_>
        <_>
          4 2 4 1 2.</_></rects>
      <tilted>0</tilted></_>
    <_>
      <rects>
        <_>
          0 1 19 8 -1.</_>
        <_>
          0 5 19 4 2.</_></rects>
      <tilted>0</tilted></_>
    <_>
      <rects>
        <_>
          0 2 1 3 -1.</_>
        <_>
          0 3 1 1 3.</_></rects>
      <tilted>0</tilted></_>
    <_>
      <rects>
        <_>
          0 2 4 13 -1.</_>
        <_>
          2 2 2 13 2.</_></rects>
      <tilted>0</tilted></_>
    <_>
      <rects>
        <_>
          0 3 1 2 -1.</_>
        <_>
          0 4 1 1 2.</_></rects>
      <tilted>0</tilted></_>
    <_>
      <rects>
        <_>
          0 3 2 8 -1.</_>
        <_>
          0 3 1 4 2.</_>
        <_>
          1 7 1 4 2.</_></rects>
      <tilted>0</tilted></_>
    <_>
      <rects>
        <_>
          0 3 2 11 -1.</_>
        <_>
          1 3 1 11 2.</_></rects>
      <tilted>0</tilted></_>
    <_>
      <rects>
        <_>
          0 4 2 8 -1.</_>
        <_>
          0 4 1 4 2.</_>
        <_>
          1 8 1 4 2.</_></rects>
      <tilted>0</tilted></_>
    <_>
      <rects>
        <_>
          0 4 4 11 -1.</_>
        <_>
          2 4 2 11 2.</_></rects>
      <tilted>0</tilted></_>
    <_>
      <rects>
        <_>
          0 5 3 1 -1.</_>
        <_>
          1 5 1 1 3.</_></rects>
      <tilted>0</tilted></_>
    <_>
      <rects>
        <_>
          0 6 2 7 -1.</_>
        <_>
          1 6 1 7 2.</_></rects>
      <tilted>0</tilted></_>
    <_>
      <rects>
        <_>
          0 6 2 9 -1.</_>
        <_>
          1 6 1 9 2.</_></rects>
      <tilted>0</tilted></_>
    <_>
      <rects>
        <_>
          0 6 3 9 -1.</_>
        <_>
          1 6 1 9 3.</_></rects>
      <tilted>0</tilted></_>
    <_>
      <rects>
        <_>
          0 7 3 1 -1.</_>
        <_>
          1 7 1 1 3.</_></rects>
      <tilted>0</tilted></_>
    <_>
      <rects>
        <_>
          0 7 2 7 -1.</_>
        <_>
          1 7 1 7 2.</_></rects>
      <tilted>0</tilted></_>
    <_>
      <rects>
        <_>
          0 7 3 7 -1.</_>
        <_>
          1 7 1 7 3.</_></rects>
      <tilted>0</tilted></_>
    <_>
      <rects>
        <_>
          0 7 4 13 -1.</_>
        <_>
          2 7 2 13 2.</_></rects>
      <tilted>0</tilted></_>
    <_>
      <rects>
        <_>
          0 8 12 9 -1.</_>
        <_>
          0 11 12 3 3.</_></rects>
      <tilted>0</tilted></_>
    <_>
      <rects>
        <_>
          0 9 2 8 -1.</_>
        <_>
          0 9 1 4 2.</_>
        <_>
          1 13 1 4 2.</_></rects>
      <tilted>0</tilted></_>
    <_>
      <rects>
        <_>
          0 9 16 6 -1.</_>
        <_>
          0 11 16 2 3.</_></rects>
      <tilted>0</tilted></_>
    <_>
      <rects>
        <_>
          0 10 2 3 -1.</_>
        <_>
          1 10 1 3 2.</_></rects>
      <tilted>0</tilted></_>
    <_>
      <rects>
        <_>
          0 10 3 4 -1.</_>
        <_>
          1 10 1 4 3.</_></rects>
      <tilted>0</tilted></_>
    <_>
      <rects>
        <_>
          0 11 2 6 -1.</_>
        <_>
          0 11 1 3 2.</_>
        <_>
          1 14 1 3 2.</_></rects>
      <tilted>0</tilted></_>
    <_>
      <rects>
        <_>
          0 11 2 5 -1.</_>
        <_>
          1 11 1 5 2.</_></rects>
      <tilted>0</tilted></_>
    <_>
      <rects>
        <_>
          0 11 4 8 -1.</_>
        <_>
          0 11 2 4 2.</_>
        <_>
          2 15 2 4 2.</_></rects>
      <tilted>0</tilted></_>
    <_>
      <rects>
        <_>
          0 11 12 7 -1.</_>
        <_>
          3 11 6 7 2.</_></rects>
      <tilted>0</tilted></_>
    <_>
      <rects>
        <_>
          0 12 3 1 -1.</_>
        <_>
          1 12 1 1 3.</_></rects>
      <tilted>0</tilted></_>
    <_>
      <rects>
        <_>
          0 12 4 2 -1.</_>
        <_>
          1 12 2 2 2.</_></rects>
      <tilted>0</tilted></_>
    <_>
      <rects>
        <_>
          0 13 2 1 -1.</_>
        <_>
          1 13 1 1 2.</_></rects>
      <tilted>0</tilted></_>
    <_>
      <rects>
        <_>
          0 13 3 1 -1.</_>
        <_>
          1 13 1 1 3.</_></rects>
      <tilted>0</tilted></_>
    <_>
      <rects>
        <_>
          0 14 1 2 -1.</_>
        <_>
          0 15 1 1 2.</_></rects>
      <tilted>0</tilted></_>
    <_>
      <rects>
        <_>
          0 14 1 3 -1.</_>
        <_>
          0 15 1 1 3.</_></rects>
      <tilted>0</tilted></_>
    <_>
      <rects>
        <_>
          0 15 1 2 -1.</_>
        <_>
          0 16 1 1 2.</_></rects>
      <tilted>0</tilted></_>
    <_>
      <rects>
        <_>
          0 15 1 3 -1.</_>
        <_>
          0 16 1 1 3.</_></rects>
      <tilted>0</tilted></_>
    <_>
      <rects>
        <_>
          0 15 1 4 -1.</_>
        <_>
          0 17 1 2 2.</_></rects>
      <tilted>0</tilted></_>
    <_>
      <rects>
        <_>
          0 17 20 1 -1.</_>
        <_>
          5 17 10 1 2.</_></rects>
      <tilted>0</tilted></_>
    <_>
      <rects>
        <_>
          0 18 12 2 -1.</_>
        <_>
          0 18 6 1 2.</_>
        <_>
          6 19 6 1 2.</_></rects>
      <tilted>0</tilted></_>
    <_>
      <rects>
        <_>
          1 0 4 1 -1.</_>
        <_>
          2 0 2 1 2.</_></rects>
      <tilted>0</tilted></_>
    <_>
      <rects>
        <_>
          1 0 4 1 -1.</_>
        <_>
          3 0 2 1 2.</_></rects>
      <tilted>0</tilted></_>
    <_>
      <rects>
        <_>
          1 0 17 20 -1.</_>
        <_>
          1 5 17 10 2.</_></rects>
      <tilted>0</tilted></_>
    <_>
      <rects>
        <_>
          1 1 6 17 -1.</_>
        <_>
          4 1 3 17 2.</_></rects>
      <tilted>0</tilted></_>
    <_>
      <rects>
        <_>
          1 1 18 14 -1.</_>
        <_>
          1 8 18 7 2.</_></rects>
      <tilted>0</tilted></_>
    <_>
      <rects>
        <_>
          1 2 2 8 -1.</_>
        <_>
          1 6 2 4 2.</_></rects>
      <tilted>0</tilted></_>
    <_>
      <rects>
        <_>
          1 2 2 16 -1.</_>
        <_>
          1 6 2 8 2.</_></rects>
      <tilted>0</tilted></_>
    <_>
      <rects>
        <_>
          1 4 2 4 -1.</_>
        <_>
          1 4 1 2 2.</_>
        <_>
          2 6 1 2 2.</_></rects>
      <tilted>0</tilted></_>
    <_>
      <rects>
        <_>
          1 4 2 6 -1.</_>
        <_>
          1 4 1 3 2.</_>
        <_>
          2 7 1 3 2.</_></rects>
      <tilted>0</tilted></_>
    <_>
      <rects>
        <_>
          1 5 19 8 -1.</_>
        <_>
          1 7 19 4 2.</_></rects>
      <tilted>0</tilted></_>
    <_>
      <rects>
        <_>
          1 8 10 12 -1.</_>
        <_>
          1 8 5 6 2.</_>
        <_>
          6 14 5 6 2.</_></rects>
      <tilted>0</tilted></_>
    <_>
      <rects>
        <_>
          1 9 12 4 -1.</_>
        <_>
          1 11 12 2 2.</_></rects>
      <tilted>0</tilted></_>
    <_>
      <rects>
        <_>
          1 11 1 6 -1.</_>
        <_>
          1 14 1 3 2.</_></rects>
      <tilted>0</tilted></_>
    <_>
      <rects>
        <_>
          1 13 2 6 -1.</_>
        <_>
          1 13 1 3 2.</_>
        <_>
          2 16 1 3 2.</_></rects>
      <tilted>0</tilted></_>
    <_>
      <rects>
        <_>
          1 14 2 3 -1.</_>
        <_>
          2 14 1 3 2.</_></rects>
      <tilted>0</tilted></_>
    <_>
      <rects>
        <_>
          1 17 12 3 -1.</_>
        <_>
          7 17 6 3 2.</_></rects>
      <tilted>0</tilted></_>
    <_>
      <rects>
        <_>
          1 19 4 1 -1.</_>
        <_>
          2 19 2 1 2.</_></rects>
      <tilted>0</tilted></_>
    <_>
      <rects>
        <_>
          2 0 2 1 -1.</_>
        <_>
          3 0 1 1 2.</_></rects>
      <tilted>0</tilted></_>
    <_>
      <rects>
        <_>
          2 0 3 1 -1.</_>
        <_>
          3 0 1 1 3.</_></rects>
      <tilted>0</tilted></_>
    <_>
      <rects>
        <_>
          2 0 4 1 -1.</_>
        <_>
          3 0 2 1 2.</_></rects>
      <tilted>0</tilted></_>
    <_>
      <rects>
        <_>
          2 0 4 1 -1.</_>
        <_>
          4 0 2 1 2.</_></rects>
      <tilted>0</tilted></_>
    <_>
      <rects>
        <_>
          2 0 2 4 -1.</_>
        <_>
          2 2 2 2 2.</_></rects>
      <tilted>0</tilted></_>
    <_>
      <rects>
        <_>
          2 0 4 5 -1.</_>
        <_>
          4 0 2 5 2.</_></rects>
      <tilted>0</tilted></_>
    <_>
      <rects>
        <_>
          2 0 18 20 -1.</_>
        <_>
          2 5 18 10 2.</_></rects>
      <tilted>0</tilted></_>
    <_>
      <rects>
        <_>
          2 3 2 2 -1.</_>
        <_>
          2 3 1 1 2.</_>
        <_>
          3 4 1 1 2.</_></rects>
      <tilted>0</tilted></_>
    <_>
      <rects>
        <_>
          2 12 6 2 -1.</_>
        <_>
          2 12 6 1 2.</_></rects>
      <tilted>1</tilted></_>
    <_>
      <rects>
        <_>
          2 13 2 4 -1.</_>
        <_>
          2 13 1 2 2.</_>
        <_>
          3 15 1 2 2.</_></rects>
      <tilted>0</tilted></_>
    <_>
      <rects>
        <_>
          2 15 2 2 -1.</_>
        <_>
          2 15 1 1 2.</_>
        <_>
          3 16 1 1 2.</_></rects>
      <tilted>0</tilted></_>
    <_>
      <rects>
        <_>
          2 17 8 2 -1.</_>
        <_>
          6 17 4 2 2.</_></rects>
      <tilted>0</tilted></_>
    <_>
      <rects>
        <_>
          3 0 2 1 -1.</_>
        <_>
          4 0 1 1 2.</_></rects>
      <tilted>0</tilted></_>
    <_>
      <rects>
        <_>
          3 0 4 1 -1.</_>
        <_>
          4 0 2 1 2.</_></rects>
      <tilted>0</tilted></_>
    <_>
      <rects>
        <_>
          3 0 3 3 -1.</_>
        <_>
          4 1 1 3 3.</_></rects>
      <tilted>1</tilted></_>
    <_>
      <rects>
        <_>
          3 0 4 1 -1.</_>
        <_>
          5 0 2 1 2.</_></rects>
      <tilted>0</tilted></_>
    <_>
      <rects>
        <_>
          3 0 12 2 -1.</_>
        <_>
          3 0 6 1 2.</_>
        <_>
          9 1 6 1 2.</_></rects>
      <tilted>0</tilted></_>
    <_>
      <rects>
        <_>
          3 1 2 4 -1.</_>
        <_>
          3 1 1 2 2.</_>
        <_>
          4 3 1 2 2.</_></rects>
      <tilted>0</tilted></_>
    <_>
      <rects>
        <_>
          3 1 4 4 -1.</_>
        <_>
          3 1 2 2 2.</_>
        <_>
          5 3 2 2 2.</_></rects>
      <tilted>0</tilted></_>
    <_>
      <rects>
        <_>
          3 2 2 2 -1.</_>
        <_>
          3 2 1 1 2.</_>
        <_>
          4 3 1 1 2.</_></rects>
      <tilted>0</tilted></_>
    <_>
      <rects>
        <_>
          3 2 3 3 -1.</_>
        <_>
          4 3 1 3 3.</_></rects>
      <tilted>1</tilted></_>
    <_>
      <rects>
        <_>
          3 2 4 2 -1.</_>
        <_>
          3 2 2 1 2.</_>
        <_>
          5 3 2 1 2.</_></rects>
      <tilted>0</tilted></_>
    <_>
      <rects>
        <_>
          3 5 12 10 -1.</_>
        <_>
          3 5 6 5 2.</_>
        <_>
          9 10 6 5 2.</_></rects>
      <tilted>0</tilted></_>
    <_>
      <rects>
        <_>
          3 6 3 3 -1.</_>
        <_>
          4 7 1 1 9.</_></rects>
      <tilted>0</tilted></_>
    <_>
      <rects>
        <_>
          3 8 4 1 -1.</_>
        <_>
          4 8 2 1 2.</_></rects>
      <tilted>0</tilted></_>
    <_>
      <rects>
        <_>
          3 8 12 6 -1.</_>
        <_>
          3 11 12 3 2.</_></rects>
      <tilted>0</tilted></_>
    <_>
      <rects>
        <_>
          3 9 3 3 -1.</_>
        <_>
          4 10 1 1 9.</_></rects>
      <tilted>0</tilted></_>
    <_>
      <rects>
        <_>
          3 9 6 2 -1.</_>
        <_>
          3 9 3 2 2.</_></rects>
      <tilted>1</tilted></_>
    <_>
      <rects>
        <_>
          3 10 3 3 -1.</_>
        <_>
          4 11 1 1 9.</_></rects>
      <tilted>0</tilted></_>
    <_>
      <rects>
        <_>
          3 11 3 3 -1.</_>
        <_>
          4 12 1 1 9.</_></rects>
      <tilted>0</tilted></_>
    <_>
      <rects>
        <_>
          3 11 4 3 -1.</_>
        <_>
          2 12 4 1 3.</_></rects>
      <tilted>1</tilted></_>
    <_>
      <rects>
        <_>
          3 11 6 3 -1.</_>
        <_>
          2 12 6 1 3.</_></rects>
      <tilted>1</tilted></_>
    <_>
      <rects>
        <_>
          3 12 9 8 -1.</_>
        <_>
          6 12 3 8 3.</_></rects>
      <tilted>0</tilted></_>
    <_>
      <rects>
        <_>
          3 13 4 2 -1.</_>
        <_>
          3 13 4 1 2.</_></rects>
      <tilted>1</tilted></_>
    <_>
      <rects>
        <_>
          3 13 4 3 -1.</_>
        <_>
          2 14 4 1 3.</_></rects>
      <tilted>1</tilted></_>
    <_>
      <rects>
        <_>
          3 14 3 2 -1.</_>
        <_>
          3 14 3 1 2.</_></rects>
      <tilted>1</tilted></_>
    <_>
      <rects>
        <_>
          3 16 13 4 -1.</_>
        <_>
          3 18 13 2 2.</_></rects>
      <tilted>0</tilted></_>
    <_>
      <rects>
        <_>
          4 0 2 1 -1.</_>
        <_>
          5 0 1 1 2.</_></rects>
      <tilted>0</tilted></_>
    <_>
      <rects>
        <_>
          4 0 1 3 -1.</_>
        <_>
          4 1 1 1 3.</_></rects>
      <tilted>0</tilted></_>
    <_>
      <rects>
        <_>
          4 0 3 3 -1.</_>
        <_>
          5 1 1 3 3.</_></rects>
      <tilted>1</tilted></_>
    <_>
      <rects>
        <_>
          4 0 8 1 -1.</_>
        <_>
          6 0 4 1 2.</_></rects>
      <tilted>0</tilted></_>
    <_>
      <rects>
        <_>
          4 0 4 2 -1.</_>
        <_>
          4 0 2 2 2.</_></rects>
      <tilted>1</tilted></_>
    <_>
      <rects>
        <_>
          4 0 10 4 -1.</_>
        <_>
          4 2 10 2 2.</_></rects>
      <tilted>0</tilted></_>
    <_>
      <rects>
        <_>
          4 1 2 4 -1.</_>
        <_>
          4 1 1 4 2.</_></rects>
      <tilted>1</tilted></_>
    <_>
      <rects>
        <_>
          4 1 4 2 -1.</_>
        <_>
          4 1 2 1 2.</_>
        <_>
          6 2 2 1 2.</_></rects>
      <tilted>0</tilted></_>
    <_>
      <rects>
        <_>
          4 2 3 4 -1.</_>
        <_>
          5 3 1 4 3.</_></rects>
      <tilted>1</tilted></_>
    <_>
      <rects>
        <_>
          4 5 8 3 -1.</_>
        <_>
          4 5 4 3 2.</_></rects>
      <tilted>1</tilted></_>
    <_>
      <rects>
        <_>
          4 7 3 6 -1.</_>
        <_>
          5 9 1 2 9.</_></rects>
      <tilted>0</tilted></_>
    <_>
      <rects>
        <_>
          4 8 1 2 -1.</_>
        <_>
          4 9 1 1 2.</_></rects>
      <tilted>0</tilted></_>
    <_>
      <rects>
        <_>
          4 8 3 3 -1.</_>
        <_>
          5 9 1 1 9.</_></rects>
      <tilted>0</tilted></_>
    <_>
      <rects>
        <_>
          4 9 9 4 -1.</_>
        <_>
          4 11 9 2 2.</_></rects>
      <tilted>0</tilted></_>
    <_>
      <rects>
        <_>
          4 11 6 3 -1.</_>
        <_>
          6 12 2 1 9.</_></rects>
      <tilted>0</tilted></_>
    <_>
      <rects>
        <_>
          4 12 3 1 -1.</_>
        <_>
          5 12 1 1 3.</_></rects>
      <tilted>0</tilted></_>
    <_>
      <rects>
        <_>
          4 13 3 3 -1.</_>
        <_>
          3 14 3 1 3.</_></rects>
      <tilted>1</tilted></_>
    <_>
      <rects>
        <_>
          4 17 1 3 -1.</_>
        <_>
          4 18 1 1 3.</_></rects>
      <tilted>0</tilted></_>
    <_>
      <rects>
        <_>
          4 18 8 2 -1.</_>
        <_>
          4 18 4 1 2.</_>
        <_>
          8 19 4 1 2.</_></rects>
      <tilted>0</tilted></_>
    <_>
      <rects>
        <_>
          5 0 1 3 -1.</_>
        <_>
          5 1 1 1 3.</_></rects>
      <tilted>0</tilted></_>
    <_>
      <rects>
        <_>
          5 0 3 4 -1.</_>
        <_>
          6 1 1 4 3.</_></rects>
      <tilted>1</tilted></_>
    <_>
      <rects>
        <_>
          5 0 3 5 -1.</_>
        <_>
          6 1 1 5 3.</_></rects>
      <tilted>1</tilted></_>
    <_>
      <rects>
        <_>
          5 0 4 4 -1.</_>
        <_>
          5 0 2 4 2.</_></rects>
      <tilted>1</tilted></_>
    <_>
      <rects>
        <_>
          5 0 13 2 -1.</_>
        <_>
          5 1 13 1 2.</_></rects>
      <tilted>0</tilted></_>
    <_>
      <rects>
        <_>
          5 1 3 4 -1.</_>
        <_>
          6 2 1 4 3.</_></rects>
      <tilted>1</tilted></_>
    <_>
      <rects>
        <_>
          5 1 2 5 -1.</_>
        <_>
          5 1 1 5 2.</_></rects>
      <tilted>1</tilted></_>
    <_>
      <rects>
        <_>
          5 1 3 5 -1.</_>
        <_>
          6 2 1 5 3.</_></rects>
      <tilted>1</tilted></_>
    <_>
      <rects>
        <_>
          5 1 3 4 -1.</_>
        <_>
          5 1 3 2 2.</_></rects>
      <tilted>1</tilted></_>
    <_>
      <rects>
        <_>
          5 1 10 12 -1.</_>
        <_>
          5 1 5 6 2.</_>
        <_>
          10 7 5 6 2.</_></rects>
      <tilted>0</tilted></_>
    <_>
      <rects>
        <_>
          5 5 6 3 -1.</_>
        <_>
          7 6 2 1 9.</_></rects>
      <tilted>0</tilted></_>
    <_>
      <rects>
        <_>
          5 5 8 13 -1.</_>
        <_>
          7 5 4 13 2.</_></rects>
      <tilted>0</tilted></_>
    <_>
      <rects>
        <_>
          5 6 3 3 -1.</_>
        <_>
          6 7 1 1 9.</_></rects>
      <tilted>0</tilted></_>
    <_>
      <rects>
        <_>
          5 8 9 9 -1.</_>
        <_>
          8 11 3 3 9.</_></rects>
      <tilted>0</tilted></_>
    <_>
      <rects>
        <_>
          5 10 6 3 -1.</_>
        <_>
          7 11 2 1 9.</_></rects>
      <tilted>0</tilted></_>
    <_>
      <rects>
        <_>
          5 10 10 8 -1.</_>
        <_>
          5 10 5 4 2.</_>
        <_>
          10 14 5 4 2.</_></rects>
      <tilted>0</tilted></_>
    <_>
      <rects>
        <_>
          5 11 3 3 -1.</_>
        <_>
          6 12 1 1 9.</_></rects>
      <tilted>0</tilted></_>
    <_>
      <rects>
        <_>
          5 12 4 4 -1.</_>
        <_>
          4 13 4 2 2.</_></rects>
      <tilted>1</tilted></_>
    <_>
      <rects>
        <_>
          5 13 3 4 -1.</_>
        <_>
          5 13 3 2 2.</_></rects>
      <tilted>1</tilted></_>
    <_>
      <rects>
        <_>
          5 17 4 3 -1.</_>
        <_>
          5 18 4 1 3.</_></rects>
      <tilted>0</tilted></_>
    <_>
      <rects>
        <_>
          5 17 10 3 -1.</_>
        <_>
          5 18 10 1 3.</_></rects>
      <tilted>0</tilted></_>
    <_>
      <rects>
        <_>
          5 18 8 2 -1.</_>
        <_>
          5 18 4 1 2.</_>
        <_>
          9 19 4 1 2.</_></rects>
      <tilted>0</tilted></_>
    <_>
      <rects>
        <_>
          5 18 14 2 -1.</_>
        <_>
          5 18 7 1 2.</_>
        <_>
          12 19 7 1 2.</_></rects>
      <tilted>0</tilted></_>
    <_>
      <rects>
        <_>
          6 0 2 5 -1.</_>
        <_>
          6 0 1 5 2.</_></rects>
      <tilted>1</tilted></_>
    <_>
      <rects>
        <_>
          6 0 2 6 -1.</_>
        <_>
          6 0 1 6 2.</_></rects>
      <tilted>1</tilted></_>
    <_>
      <rects>
        <_>
          6 0 10 2 -1.</_>
        <_>
          6 1 10 1 2.</_></rects>
      <tilted>0</tilted></_>
    <_>
      <rects>
        <_>
          6 0 11 4 -1.</_>
        <_>
          6 2 11 2 2.</_></rects>
      <tilted>0</tilted></_>
    <_>
      <rects>
        <_>
          6 0 14 4 -1.</_>
        <_>
          6 1 14 2 2.</_></rects>
      <tilted>0</tilted></_>
    <_>
      <rects>
        <_>
          6 4 4 5 -1.</_>
        <_>
          8 4 2 5 2.</_></rects>
      <tilted>0</tilted></_>
    <_>
      <rects>
        <_>
          6 4 6 6 -1.</_>
        <_>
          6 4 6 3 2.</_></rects>
      <tilted>1</tilted></_>
    <_>
      <rects>
        <_>
          6 6 3 3 -1.</_>
        <_>
          7 7 1 1 9.</_></rects>
      <tilted>0</tilted></_>
    <_>
      <rects>
        <_>
          6 7 6 3 -1.</_>
        <_>
          8 8 2 1 9.</_></rects>
      <tilted>0</tilted></_>
