<?xml version="1.0"?>
<opencv_storage>
<cascade>
  <stageType>BOOST</stageType>
  <featureType>HAAR</featureType>
  <height>20</height>
  <width>20</width>
  <stageParams>
    <boostType>GAB</boostType>
    <minHitRate>9.9900001287460327e-01</minHitRate>
    <maxFalseAlarm>5.0000000000000000e-01</maxFalseAlarm>
    <weightTrimRate>9.4999999999999996e-01</weightTrimRate>
    <maxDepth>1</maxDepth>
    <maxWeakCount>100</maxWeakCount></stageParams>
  <featureParams>
    <maxCatCount>0</maxCatCount>
    <featSize>1</featSize>
    <mode>ALL</mode></featureParams>
  <stageNum>20</stageNum>
  <stages>
    <!-- stage 0 -->
    <_>
      <maxWeakCount>10</maxWeakCount>
      <stageThreshold>-1.3807221651077271e+00</stageThreshold>
      <weakClassifiers>
        <_>
          <internalNodes>
            0 -1 208 4.1024446487426758e-02</internalNodes>
          <leafValues>
            -5.2478283643722534e-01 6.1690646409988403e-01</leafValues></_>
        <_>
          <internalNodes>
            0 -1 156 1.0648728907108307e-01</internalNodes>
          <leafValues>
            1.9635979831218719e-01 -8.2716429233551025e-01</leafValues></_>
        <_>
          <internalNodes>
            0 -1 183 -7.7807984780520201e-04</internalNodes>
          <leafValues>
            -6.2209153175354004e-01 2.0543618500232697e-01</leafValues></_>
        <_>
          <internalNodes>
            0 -1 107 1.3503631949424744e-01</internalNodes>
          <leafValues>
            1.6667321324348450e-01 -8.6762911081314087e-01</leafValues></_>
        <_>
          <internalNodes>
            0 -1 396 -2.2965504322201014e-03</internalNodes>
          <leafValues>
            6.8875050544738770e-01 -2.0932188630104065e-01</leafValues></_>
        <_>
          <internalNodes>
            0 -1 8 4.3552238494157791e-03</internalNodes>
          <leafValues>
            2.1170812845230103e-01 -6.0495275259017944e-01</leafValues></_>
        <_>
          <internalNodes>
            0 -1 98 -1.2649196386337280e-01</internalNodes>
          <leafValues>
            -9.2644971609115601e-01 1.4063005149364471e-01</leafValues></_>
        <_>
          <internalNodes>
            0 -1 321 5.9049134142696857e-03</internalNodes>
          <leafValues>
            -2.5432765483856201e-01 5.5043619871139526e-01</leafValues></_>
        <_>
          <internalNodes>
            0 -1 273 6.6206390038132668e-03</internalNodes>
          <leafValues>
            -2.1441419422626495e-01 5.3342676162719727e-01</leafValues></_>
        <_>
          <internalNodes>
            0 -1 405 -2.0296480506658554e-03</internalNodes>
          <leafValues>
            4.0110927820205688e-01 -2.8202214837074280e-01</leafValues></_></weakClassifiers></_>
    <!-- stage 1 -->
    <_>
      <maxWeakCount>10</maxWeakCount>
      <stageThreshold>-1.4434710741043091e+00</stageThreshold>
      <weakClassifiers>
        <_>
          <internalNodes>
            0 -1 231 2.2793464362621307e-02</internalNodes>
          <leafValues>
            -4.9869993329048157e-01 5.3926700353622437e-01</leafValues></_>
        <_>
          <internalNodes>
            0 -1 397 -1.9607869908213615e-03</internalNodes>
          <leafValues>
            7.8068244457244873e-01 -2.6943865418434143e-01</leafValues></_>
        <_>
          <internalNodes>
            0 -1 365 -3.0815883073955774e-03</internalNodes>
          <leafValues>
            6.9329017400741577e-01 -2.8520837426185608e-01</leafValues></_>
        <_>
          <internalNodes>
            0 -1 25 1.4623188972473145e-01</internalNodes>
          <leafValues>
            2.8482708334922791e-01 -7.9423731565475464e-01</leafValues></_>
        <_>
          <internalNodes>
            0 -1 196 -1.7831701552495360e-03</internalNodes>
          <leafValues>
            8.4957802295684814e-01 -2.2708210349082947e-01</leafValues></_>
        <_>
          <internalNodes>
            0 -1 196 1.1447852011770010e-03</internalNodes>
          <leafValues>
            -2.4378968775272369e-01 7.1206426620483398e-01</leafValues></_>
        <_>
          <internalNodes>
            0 -1 44 -7.8261606395244598e-03</internalNodes>
          <leafValues>
            6.4319139719009399e-01 -1.7570079863071442e-01</leafValues></_>
        <_>
          <internalNodes>
            0 -1 482 -8.5221957415342331e-03</internalNodes>
          <leafValues>
            5.1147902011871338e-01 -3.0886721611022949e-01</leafValues></_>
        <_>
          <internalNodes>
            0 -1 342 -4.1806409135460854e-03</internalNodes>
          <leafValues>
            6.1467850208282471e-01 -2.6870542764663696e-01</leafValues></_>
        <_>
          <internalNodes>
            0 -1 327 -1.7809245036914945e-03</internalNodes>
          <leafValues>
            8.0936622619628906e-01 -1.2424806505441666e-01</leafValues></_></weakClassifiers></_>
    <!-- stage 2 -->
    <_>
      <maxWeakCount>17</maxWeakCount>
      <stageThreshold>-1.6499432325363159e+00</stageThreshold>
      <weakClassifiers>
        <_>
          <internalNodes>
            0 -1 224 7.7645830810070038e-02</internalNodes>
          <leafValues>
            -4.3193593621253967e-01 6.0887950658798218e-01</leafValues></_>
        <_>
          <internalNodes>
            0 -1 11 6.5466188825666904e-03</internalNodes>
          <leafValues>
            2.3378463089466095e-01 -5.7026052474975586e-01</leafValues></_>
        <_>
          <internalNodes>
            0 -1 140 -1.7064012354239821e-03</internalNodes>
          <leafValues>
            6.1261200904846191e-01 -2.0995464920997620e-01</leafValues></_>
        <_>
          <internalNodes>
            0 -1 269 1.9298148108646274e-03</internalNodes>
          <leafValues>
            -1.7727987468242645e-01 6.2155306339263916e-01</leafValues></_>
        <_>
          <internalNodes>
            0 -1 378 5.2394894883036613e-03</internalNodes>
          <leafValues>
            -1.1788404732942581e-01 7.5084060430526733e-01</leafValues></_>
        <_>
          <internalNodes>
            0 -1 13 -3.7327796220779419e-01</internalNodes>
          <leafValues>
            -8.9061623811721802e-01 1.3241195678710938e-01</leafValues></_>
        <_>
          <internalNodes>
            0 -1 218 -4.5667481608688831e-03</internalNodes>
          <leafValues>
            4.1851276159286499e-01 -2.4141235649585724e-01</leafValues></_>
        <_>
          <internalNodes>
            0 -1 46 -4.4414317235350609e-03</internalNodes>
          <leafValues>
            6.4257633686065674e-01 -1.7389984428882599e-01</leafValues></_>
        <_>
          <internalNodes>
            0 -1 62 -5.0506861880421638e-03</internalNodes>
          <leafValues>
            -6.8179214000701904e-01 2.1628019213676453e-01</leafValues></_>
        <_>
          <internalNodes>
            0 -1 146 2.8331228531897068e-03</internalNodes>
          <leafValues>
            1.5035721659660339e-01 -5.6482714414596558e-01</leafValues></_>
        <_>
          <internalNodes>
            0 -1 30 2.1747095882892609e-01</internalNodes>
          <leafValues>
            1.2423937022686005e-01 -8.0260688066482544e-01</leafValues></_>
        <_>
          <internalNodes>
            0 -1 75 -1.0579746216535568e-02</internalNodes>
          <leafValues>
            3.5240435600280762e-01 -2.9091852903366089e-01</leafValues></_>
        <_>
          <internalNodes>
            0 -1 29 -9.5012843608856201e-02</internalNodes>
          <leafValues>
            -6.3407015800476074e-01 1.6537345945835114e-01</leafValues></_>
        <_>
          <internalNodes>
            0 -1 335 7.6151057146489620e-04</internalNodes>
          <leafValues>
            1.7420290410518646e-01 -5.6929326057434082e-01</leafValues></_>
        <_>
          <internalNodes>
            0 -1 82 -2.9149390757083893e-03</internalNodes>
          <leafValues>
            7.6828998327255249e-01 -1.5064397454261780e-01</leafValues></_>
        <_>
          <internalNodes>
            0 -1 84 -3.0206232331693172e-03</internalNodes>
          <leafValues>
            5.5856400728225708e-01 -1.6500411927700043e-01</leafValues></_>
        <_>
          <internalNodes>
            0 -1 21 9.3634404242038727e-02</internalNodes>
          <leafValues>
            1.3536854088306427e-01 -7.7398818731307983e-01</leafValues></_></weakClassifiers></_>
    <!-- stage 3 -->
    <_>
      <maxWeakCount>16</maxWeakCount>
      <stageThreshold>-1.3298803567886353e+00</stageThreshold>
      <weakClassifiers>
        <_>
          <internalNodes>
            0 -1 262 2.9659088701009750e-02</internalNodes>
          <leafValues>
            -3.7606453895568848e-01 5.9427207708358765e-01</leafValues></_>
        <_>
          <internalNodes>
            0 -1 270 5.4375335574150085e-02</internalNodes>
          <leafValues>
            -1.7030356824398041e-01 5.8505529165267944e-01</leafValues></_>
        <_>
          <internalNodes>
            0 -1 198 3.8206800818443298e-02</internalNodes>
          <leafValues>
            -2.6441109180450439e-01 4.0294876694679260e-01</leafValues></_>
        <_>
          <internalNodes>
            0 -1 22 4.1670390963554382e-01</internalNodes>
          <leafValues>
            1.9163776934146881e-01 -8.2884085178375244e-01</leafValues></_>
        <_>
          <internalNodes>
            0 -1 180 -6.2988977879285812e-04</internalNodes>
          <leafValues>
            -6.1891728639602661e-01 1.5753096342086792e-01</leafValues></_>
        <_>
          <internalNodes>
            0 -1 39 -4.0328437462449074e-03</internalNodes>
          <leafValues>
            7.8022557497024536e-01 -1.3500408828258514e-01</leafValues></_>
        <_>
          <internalNodes>
            0 -1 83 -2.5775176472961903e-03</internalNodes>
          <leafValues>
            7.0710158348083496e-01 -1.3858175277709961e-01</leafValues></_>
        <_>
          <internalNodes>
            0 -1 352 1.0353121906518936e-03</internalNodes>
          <leafValues>
            1.4003530144691467e-01 -7.6275777816772461e-01</leafValues></_>
        <_>
          <internalNodes>
            0 -1 435 4.5753721147775650e-02</internalNodes>
          <leafValues>
            1.0503443330526352e-01 -8.3036816120147705e-01</leafValues></_>
        <_>
          <internalNodes>
            0 -1 426 -2.4088881909847260e-03</internalNodes>
          <leafValues>
            5.7637947797775269e-01 -1.6964362561702728e-01</leafValues></_>
        <_>
          <internalNodes>
            0 -1 400 -3.3494934905320406e-03</internalNodes>
          <leafValues>
            5.7835084199905396e-01 -1.8656457960605621e-01</leafValues></_>
        <_>
          <internalNodes>
            0 -1 336 -2.9885624535381794e-03</internalNodes>
          <leafValues>
            -7.6668715476989746e-01 1.8364803493022919e-01</leafValues></_>
        <_>
          <internalNodes>
            0 -1 381 7.7854841947555542e-03</internalNodes>
          <leafValues>
            -1.9922569394111633e-01 6.9696128368377686e-01</leafValues></_>
        <_>
          <internalNodes>
            0 -1 401 -3.4502567723393440e-03</internalNodes>
          <leafValues>
            5.5014157295227051e-01 -1.3720382750034332e-01</leafValues></_>
        <_>
          <internalNodes>
            0 -1 281 3.6801123060286045e-03</internalNodes>
          <leafValues>
            1.0534188896417618e-01 -8.2345420122146606e-01</leafValues></_>
        <_>
          <internalNodes>
            0 -1 369 3.0607599765062332e-03</internalNodes>
          <leafValues>
            -1.6806322336196899e-01 6.4352810382843018e-01</leafValues></_></weakClassifiers></_>
    <!-- stage 4 -->
    <_>
      <maxWeakCount>10</maxWeakCount>
      <stageThreshold>-1.3565726280212402e+00</stageThreshold>
      <weakClassifiers>
        <_>
          <internalNodes>
            0 -1 320 -6.8518152693286538e-04</internalNodes>
          <leafValues>
            2.9281768202781677e-01 -5.6805557012557983e-01</leafValues></_>
        <_>
          <internalNodes>
            0 -1 187 -1.7387443222105503e-05</internalNodes>
          <leafValues>
            5.0769346952438354e-01 -3.3686521649360657e-01</leafValues></_>
        <_>
          <internalNodes>
            0 -1 226 1.4822103548794985e-03</internalNodes>
          <leafValues>
            -3.8017725944519043e-01 3.5422307252883911e-01</leafValues></_>
        <_>
          <internalNodes>
            0 -1 117 1.7634743926464580e-05</internalNodes>
          <leafValues>
            -3.5063934326171875e-01 3.6640068888664246e-01</leafValues></_>
        <_>
          <internalNodes>
            0 -1 414 1.7634743926464580e-05</internalNodes>
          <leafValues>
            -3.2168766856193542e-01 3.5802489519119263e-01</leafValues></_>
        <_>
          <internalNodes>
            0 -1 407 -2.2803659085184336e-03</internalNodes>
          <leafValues>
            5.3239977359771729e-01 -1.8154311180114746e-01</leafValues></_>
        <_>
          <internalNodes>
            0 -1 408 -1.3154752086848021e-03</internalNodes>
          <leafValues>
            5.3880047798156738e-01 -2.0380461215972900e-01</leafValues></_>
        <_>
          <internalNodes>
            0 -1 192 -8.3894893527030945e-02</internalNodes>
          <leafValues>
            -7.7465236186981201e-01 1.6609944403171539e-01</leafValues></_>
        <_>
          <internalNodes>
            0 -1 229 -7.0708841085433960e-02</internalNodes>
          <leafValues>
            7.3151016235351562e-01 -1.7063556611537933e-01</leafValues></_>
        <_>
          <internalNodes>
            0 -1 481 -6.1079347506165504e-04</internalNodes>
          <leafValues>
            3.5357472300529480e-01 -2.9966646432876587e-01</leafValues></_></weakClassifiers></_>
    <!-- stage 5 -->
    <_>
      <maxWeakCount>20</maxWeakCount>
      <stageThreshold>-1.5109914541244507e+00</stageThreshold>
      <weakClassifiers>
        <_>
          <internalNodes>
            0 -1 420 3.4906554967164993e-02</internalNodes>
          <leafValues>
            -4.2038217186927795e-01 3.8059070706367493e-01</leafValues></_>
        <_>
          <internalNodes>
            0 -1 378 4.6999566256999969e-03</internalNodes>
          <leafValues>
            -1.6119349002838135e-01 6.1583042144775391e-01</leafValues></_>
        <_>
          <internalNodes>
            0 -1 407 4.0340293198823929e-03</internalNodes>
          <leafValues>
            -1.6570569574832916e-01 6.0503900051116943e-01</leafValues></_>
        <_>
          <internalNodes>
            0 -1 93 4.2431326583027840e-03</internalNodes>
          <leafValues>
            1.9973111152648926e-01 -5.3976202011108398e-01</leafValues></_>
        <_>
          <internalNodes>
            0 -1 60 -9.8211755976080894e-03</internalNodes>
          <leafValues>
            -8.2524377107620239e-01 1.2531363964080811e-01</leafValues></_>
        <_>
          <internalNodes>
            0 -1 467 -5.3714253008365631e-03</internalNodes>
          <leafValues>
            7.6461410522460938e-01 -1.5075473487377167e-01</leafValues></_>
        <_>
          <internalNodes>
            0 -1 216 1.1914420872926712e-01</internalNodes>
          <leafValues>
            -1.3199469447135925e-01 5.8035916090011597e-01</leafValues></_>
        <_>
          <internalNodes>
            0 -1 41 -2.4990553501993418e-03</internalNodes>
          <leafValues>
            5.3319859504699707e-01 -1.4433608949184418e-01</leafValues></_>
        <_>
          <internalNodes>
            0 -1 41 3.0192211270332336e-03</internalNodes>
          <leafValues>
            -1.2841297686100006e-01 5.8315575122833252e-01</leafValues></_>
        <_>
          <internalNodes>
            0 -1 53 9.2252029571682215e-04</internalNodes>
          <leafValues>
            1.3991719484329224e-01 -5.9623563289642334e-01</leafValues></_>
        <_>
          <internalNodes>
            0 -1 5 2.5465304497629404e-03</internalNodes>
          <leafValues>
            1.4162139594554901e-01 -5.6232184171676636e-01</leafValues></_>
        <_>
          <internalNodes>
            0 -1 173 -3.4518742468208075e-03</internalNodes>
          <leafValues>
            2.5931131839752197e-01 -3.0369472503662109e-01</leafValues></_>
        <_>
          <internalNodes>
            0 -1 53 -8.8644679635763168e-04</internalNodes>
          <leafValues>
            -4.7527852654457092e-01 1.6317568719387054e-01</leafValues></_>
        <_>
          <internalNodes>
            0 -1 396 -2.4635060690343380e-03</internalNodes>
          <leafValues>
            5.0490379333496094e-01 -1.6585665941238403e-01</leafValues></_>
        <_>
          <internalNodes>
            0 -1 325 -4.0021501481533051e-02</internalNodes>
          <leafValues>
            3.9299294352531433e-01 -1.9595737755298615e-01</leafValues></_>
        <_>
          <internalNodes>
            0 -1 319 -3.9516985416412354e-03</internalNodes>
          <leafValues>
            5.4460442066192627e-01 -1.6238367557525635e-01</leafValues></_>
        <_>
          <internalNodes>
            0 -1 48 -1.9116012845188379e-03</internalNodes>
          <leafValues>
            4.4676917791366577e-01 -1.7194946110248566e-01</leafValues></_>
        <_>
          <internalNodes>
            0 -1 233 -2.0951648184563965e-04</internalNodes>
          <leafValues>
            -5.2178311347961426e-01 1.5392842888832092e-01</leafValues></_>
        <_>
          <internalNodes>
            0 -1 76 2.1655145101249218e-03</internalNodes>
          <leafValues>
            -2.4160365760326385e-01 3.3163368701934814e-01</leafValues></_>
        <_>
          <internalNodes>
            0 -1 96 -9.0667413314804435e-04</internalNodes>
          <leafValues>
            -6.1356323957443237e-01 1.2815824151039124e-01</leafValues></_></weakClassifiers></_>
    <!-- stage 6 -->
    <_>
      <maxWeakCount>17</maxWeakCount>
      <stageThreshold>-1.1902236938476562e+00</stageThreshold>
      <weakClassifiers>
        <_>
          <internalNodes>
            0 -1 356 -1.5692858025431633e-02</internalNodes>
          <leafValues>
            3.5832607746124268e-01 -3.9125910401344299e-01</leafValues></_>
        <_>
          <internalNodes>
            0 -1 425 3.3264502882957458e-02</internalNodes>
          <leafValues>
            9.2396177351474762e-02 -8.9110147953033447e-01</leafValues></_>
        <_>
          <internalNodes>
            0 -1 353 3.0343800317496061e-03</internalNodes>
          <leafValues>
            1.3084702193737030e-01 -7.1697354316711426e-01</leafValues></_>
        <_>
          <internalNodes>
            0 -1 390 -2.0955054089426994e-02</internalNodes>
          <leafValues>
            -7.3777621984481812e-01 7.4865773320198059e-02</leafValues></_>
        <_>
          <internalNodes>
            0 -1 404 1.5696918591856956e-02</internalNodes>
          <leafValues>
            -1.3642035424709320e-01 5.7543498277664185e-01</leafValues></_>
        <_>
          <internalNodes>
            0 -1 15 1.0041345655918121e-01</internalNodes>
          <leafValues>
            -1.4388225972652435e-01 8.9630460739135742e-01</leafValues></_>
        <_>
          <internalNodes>
            0 -1 491 -9.2317303642630577e-04</internalNodes>
          <leafValues>
            -4.4552949070930481e-01 2.3188674449920654e-01</leafValues></_>
        <_>
          <internalNodes>
            0 -1 297 -4.6522901393473148e-03</internalNodes>
          <leafValues>
            5.0518202781677246e-01 -1.8338589370250702e-01</leafValues></_>
        <_>
          <internalNodes>
            0 -1 279 5.7887053117156029e-04</internalNodes>
          <leafValues>
            1.5677060186862946e-01 -6.8529152870178223e-01</leafValues></_>
        <_>
          <internalNodes>
            0 -1 72 -4.5614693313837051e-02</internalNodes>
          <leafValues>
            5.9920054674148560e-01 -1.6070461273193359e-01</leafValues></_>
        <_>
          <internalNodes>
            0 -1 129 3.7836268544197083e-02</internalNodes>
          <leafValues>
            -1.2934210896492004e-01 5.9984666109085083e-01</leafValues></_>
        <_>
          <internalNodes>
            0 -1 43 -2.4600508622825146e-03</internalNodes>
          <leafValues>
            5.4749226570129395e-01 -1.3682308793067932e-01</leafValues></_>
        <_>
          <internalNodes>
            0 -1 35 -3.9526959881186485e-03</internalNodes>
          <leafValues>
            4.6053674817085266e-01 -1.5019284188747406e-01</leafValues></_>
        <_>
          <internalNodes>
            0 -1 119 2.1016759274061769e-04</internalNodes>
          <leafValues>
            1.7264699935913086e-01 -4.7194066643714905e-01</leafValues></_>
        <_>
          <internalNodes>
            0 -1 10 -1.9650299847126007e-01</internalNodes>
          <leafValues>
            -9.7808182239532471e-01 4.4199135154485703e-02</leafValues></_>
        <_>
          <internalNodes>
            0 -1 38 5.1507145166397095e-02</internalNodes>
          <leafValues>
            8.8469609618186951e-02 -6.4560425281524658e-01</leafValues></_>
        <_>
          <internalNodes>
            0 -1 209 -1.5004682540893555e-01</internalNodes>
          <leafValues>
            -7.5273585319519043e-01 9.7525060176849365e-02</leafValues></_></weakClassifiers></_>
    <!-- stage 7 -->
    <_>
      <maxWeakCount>21</maxWeakCount>
      <stageThreshold>-1.3533513545989990e+00</stageThreshold>
      <weakClassifiers>
        <_>
          <internalNodes>
            0 -1 303 7.7124508097767830e-03</internalNodes>
          <leafValues>
            -2.9237288236618042e-01 4.9224260449409485e-01</leafValues></_>
        <_>
          <internalNodes>
            0 -1 377 6.4854612573981285e-03</internalNodes>
          <leafValues>
            -1.6064353287220001e-01 5.5233716964721680e-01</leafValues></_>
        <_>
          <internalNodes>
            0 -1 403 5.2842525765299797e-03</internalNodes>
          <leafValues>
            -1.3242107629776001e-01 7.2898375988006592e-01</leafValues></_>
        <_>
          <internalNodes>
            0 -1 233 2.0616264373529702e-04</internalNodes>
          <leafValues>
            2.0450054109096527e-01 -4.0259304642677307e-01</leafValues></_>
        <_>
          <internalNodes>
            0 -1 289 -3.5830764099955559e-03</internalNodes>
          <leafValues>
            5.0656920671463013e-01 -1.4961014688014984e-01</leafValues></_>
        <_>
          <internalNodes>
            0 -1 287 -3.3824953716248274e-03</internalNodes>
          <leafValues>
            3.2284978032112122e-01 -2.3678225278854370e-01</leafValues></_>
        <_>
          <internalNodes>
            0 -1 233 -1.7455985653214157e-04</internalNodes>
          <leafValues>
            -4.6071663498878479e-01 1.9054514169692993e-01</leafValues></_>
        <_>
          <internalNodes>
            0 -1 267 -2.4956641718745232e-03</internalNodes>
          <leafValues>
            5.1730591058731079e-01 -1.9227550923824310e-01</leafValues></_>
        <_>
          <internalNodes>
            0 -1 384 -6.8664306309074163e-04</internalNodes>
          <leafValues>
            -4.8461666703224182e-01 1.8809464573860168e-01</leafValues></_>
        <_>
          <internalNodes>
            0 -1 223 -2.4263866362161934e-04</internalNodes>
          <leafValues>
            -5.0036883354187012e-01 1.3158376514911652e-01</leafValues></_>
        <_>
          <internalNodes>
            0 -1 82 -2.7443279977887869e-03</internalNodes>
          <leafValues>
            5.9191447496414185e-01 -1.0621077567338943e-01</leafValues></_>
        <_>
          <internalNodes>
            0 -1 340 2.6510478928685188e-03</internalNodes>
          <leafValues>
            -1.6734461486339569e-01 4.4152128696441650e-01</leafValues></_>
        <_>
          <internalNodes>
            0 -1 338 -4.4508170685730875e-04</internalNodes>
          <leafValues>
            -4.7567346692085266e-01 1.6562950611114502e-01</leafValues></_>
        <_>
          <internalNodes>
            0 -1 228 7.0913217496126890e-04</internalNodes>
          <leafValues>
            2.1337476372718811e-01 -4.2534914612770081e-01</leafValues></_>
        <_>
          <internalNodes>
            0 -1 428 4.6522058546543121e-03</internalNodes>
          <leafValues>
            -1.4409218728542328e-01 6.1148500442504883e-01</leafValues></_>
        <_>
          <internalNodes>
            0 -1 316 -1.6581378877162933e-02</internalNodes>
          <leafValues>
            3.3839285373687744e-01 -2.0625297725200653e-01</leafValues></_>
        <_>
          <internalNodes>
            0 -1 426 -2.2060198243707418e-03</internalNodes>
          <leafValues>
            5.0494468212127686e-01 -1.5366485714912415e-01</leafValues></_>
        <_>
          <internalNodes>
            0 -1 238 -1.1626885971054435e-03</internalNodes>
          <leafValues>
            1.9560541212558746e-01 -3.7489151954650879e-01</leafValues></_>
        <_>
          <internalNodes>
            0 -1 83 -3.2967391889542341e-03</internalNodes>
          <leafValues>
            6.1188983917236328e-01 -1.2714459002017975e-01</leafValues></_>
        <_>
          <internalNodes>
            0 -1 95 3.9481092244386673e-03</internalNodes>
          <leafValues>
            1.4322951436042786e-01 -6.3540345430374146e-01</leafValues></_>
        <_>
          <internalNodes>
            0 -1 253 1.7144247889518738e-02</internalNodes>
          <leafValues>
            -1.1884522438049316e-01 8.2288473844528198e-01</leafValues></_></weakClassifiers></_>
    <!-- stage 8 -->
    <_>
      <maxWeakCount>29</maxWeakCount>
      <stageThreshold>-1.4238988161087036e+00</stageThreshold>
      <weakClassifiers>
        <_>
          <internalNodes>
            0 -1 147 1.7118443548679352e-01</internalNodes>
          <leafValues>
            -4.0715882182121277e-01 3.0210772156715393e-01</leafValues></_>
        <_>
          <internalNodes>
            0 -1 343 -6.7874848842620850e-02</internalNodes>
          <leafValues>
            -7.9603248834609985e-01 7.9480476677417755e-02</leafValues></_>
        <_>
          <internalNodes>
            0 -1 254 -1.1788550764322281e-02</internalNodes>
          <leafValues>
            -9.4211363792419434e-01 9.0449579060077667e-02</leafValues></_>
        <_>
          <internalNodes>
            0 -1 94 5.1270745461806655e-04</internalNodes>
          <leafValues>
            -2.6998865604400635e-01 2.5041854381561279e-01</leafValues></_>
        <_>
          <internalNodes>
            0 -1 496 3.4926891326904297e-02</internalNodes>
          <leafValues>
            -1.3607205450534821e-01 5.3977483510971069e-01</leafValues></_>
        <_>
          <internalNodes>
            0 -1 484 2.7935812249779701e-03</internalNodes>
          <leafValues>
            -2.5719743967056274e-01 2.8784704208374023e-01</leafValues></_>
        <_>
          <internalNodes>
            0 -1 16 -5.4621404409408569e-01</internalNodes>
          <leafValues>
            7.6154804229736328e-01 -7.0768639445304871e-02</leafValues></_>
        <_>
          <internalNodes>
            0 -1 97 -1.1058844625949860e-02</internalNodes>
          <leafValues>
            3.3197671175003052e-01 -2.2199146449565887e-01</leafValues></_>
        <_>
          <internalNodes>
            0 -1 269 1.7888974398374557e-03</internalNodes>
          <leafValues>
            -1.6303728520870209e-01 3.9088043570518494e-01</leafValues></_>
        <_>
          <internalNodes>
            0 -1 386 3.1599064823240042e-03</internalNodes>
          <leafValues>
            1.2798781692981720e-01 -7.2218328714370728e-01</leafValues></_>
        <_>
          <internalNodes>
            0 -1 161 -3.3555462956428528e-02</internalNodes>
          <leafValues>
            4.2888402938842773e-01 -1.8503761291503906e-01</leafValues></_>
        <_>
          <internalNodes>
            0 -1 363 -3.2837457954883575e-02</internalNodes>
          <leafValues>
            -6.3721418380737305e-01 1.1597580462694168e-01</leafValues></_>
        <_>
          <internalNodes>
            0 -1 301 5.6832760572433472e-02</internalNodes>
          <leafValues>
            -1.2514439225196838e-01 5.2008193731307983e-01</leafValues></_>
        <_>
          <internalNodes>
            0 -1 199 -1.1103207245469093e-02</internalNodes>
          <leafValues>
            -7.9844206571578979e-01 6.9065593183040619e-02</leafValues></_>
        <_>
          <internalNodes>
            0 -1 164 2.3814989253878593e-03</internalNodes>
          <leafValues>
            -1.3620948791503906e-01 4.7690305113792419e-01</leafValues></_>
        <_>
          <internalNodes>
            0 -1 85 5.0717932172119617e-03</internalNodes>
          <leafValues>
            -1.8535730242729187e-01 3.2156330347061157e-01</leafValues></_>
        <_>
          <internalNodes>
            0 -1 472 5.4562254808843136e-04</internalNodes>
          <leafValues>
            1.1909997463226318e-01 -5.6936365365982056e-01</leafValues></_>
        <_>
          <internalNodes>
            0 -1 162 -3.7125847302377224e-03</internalNodes>
          <leafValues>
            4.5823800563812256e-01 -1.4638952910900116e-01</leafValues></_>
        <_>
          <internalNodes>
            0 -1 110 -8.9545976370573044e-03</internalNodes>
          <leafValues>
            2.5178742408752441e-01 -2.4125193059444427e-01</leafValues></_>
        <_>
          <internalNodes>
            0 -1 364 -3.5769934765994549e-03</internalNodes>
          <leafValues>
            5.7047432661056519e-01 -1.0093544423580170e-01</leafValues></_>
        <_>
          <internalNodes>
            0 -1 73 2.5175563991069794e-02</internalNodes>
          <leafValues>
            -9.8770663142204285e-02 5.1918786764144897e-01</leafValues></_>
        <_>
          <internalNodes>
            0 -1 124 -1.6119057312607765e-02</internalNodes>
          <leafValues>
            3.6071687936782837e-01 -2.1046413481235504e-01</leafValues></_>
        <_>
          <internalNodes>
            0 -1 159 3.6761006340384483e-03</internalNodes>
          <leafValues>
            -1.2999330461025238e-01 4.5518308877944946e-01</leafValues></_>
        <_>
          <internalNodes>
            0 -1 310 -4.1720103472471237e-03</internalNodes>
          <leafValues>
            -6.2172037363052368e-01 1.0592399537563324e-01</leafValues></_>
        <_>
          <internalNodes>
            0 -1 101 -1.5388777479529381e-02</internalNodes>
          <leafValues>
            4.8198285698890686e-01 -1.3192917406558990e-01</leafValues></_>
        <_>
          <internalNodes>
            0 -1 471 6.6824108362197876e-03</internalNodes>
          <leafValues>
            -1.6954852640628815e-01 3.5444915294647217e-01</leafValues></_>
        <_>
          <internalNodes>
            0 -1 440 1.5859205741435289e-03</internalNodes>
          <leafValues>
            -1.3324984908103943e-01 4.1296547651290894e-01</leafValues></_>
        <_>
          <internalNodes>
            0 -1 222 -3.5592541098594666e-03</internalNodes>
          <leafValues>
            -4.9929988384246826e-01 1.2218137085437775e-01</leafValues></_>
        <_>
          <internalNodes>
            0 -1 195 -3.3502504229545593e-03</internalNodes>
          <leafValues>
            3.9932695031166077e-01 -1.6058602929115295e-01</leafValues></_></weakClassifiers></_>
    <!-- stage 9 -->
    <_>
      <maxWeakCount>31</maxWeakCount>
      <stageThreshold>-1.5351598262786865e+00</stageThreshold>
      <weakClassifiers>
        <_>
          <internalNodes>
            0 -1 87 2.0075062289834023e-02</internalNodes>
          <leafValues>
            -3.2521086931228638e-01 3.7754011154174805e-01</leafValues></_>
        <_>
          <internalNodes>
            0 -1 86 -7.9183503985404968e-03</internalNodes>
          <leafValues>
            4.7742095589637756e-01 -1.3354840874671936e-01</leafValues></_>
        <_>
          <internalNodes>
            0 -1 151 1.4061725139617920e-01</internalNodes>
          <leafValues>
            -1.8039487302303314e-01 3.3829584717750549e-01</leafValues></_>
        <_>
          <internalNodes>
            0 -1 244 5.0636883825063705e-02</internalNodes>
          <leafValues>
            -1.2343994528055191e-01 5.5246067047119141e-01</leafValues></_>
        <_>
          <internalNodes>
            0 -1 122 -1.6873169690370560e-02</internalNodes>
          <leafValues>
            7.0733636617660522e-01 -6.3316777348518372e-02</leafValues></_>
        <_>
          <internalNodes>
            0 -1 449 3.1077254097908735e-03</internalNodes>
          <leafValues>
            -2.3761373758316040e-01 2.4057477712631226e-01</leafValues></_>
        <_>
          <internalNodes>
            0 -1 407 -5.0202519632875919e-03</internalNodes>
          <leafValues>
            4.9954253435134888e-01 -1.0379884392023087e-01</leafValues></_>
        <_>
          <internalNodes>
            0 -1 495 1.0384321212768555e-03</internalNodes>
          <leafValues>
            1.1208105087280273e-01 -5.1455563306808472e-01</leafValues></_>
        <_>
          <internalNodes>
            0 -1 67 -5.5090915411710739e-03</internalNodes>
          <leafValues>
            3.3079642057418823e-01 -1.6834115982055664e-01</leafValues></_>
        <_>
          <internalNodes>
            0 -1 6 -8.9098494499921799e-03</internalNodes>
          <leafValues>
            -6.4352798461914062e-01 9.8200380802154541e-02</leafValues></_>
        <_>
          <internalNodes>
            0 -1 127 3.7497028708457947e-02</internalNodes>
          <leafValues>
            -9.6402019262313843e-02 5.8178812265396118e-01</leafValues></_>
        <_>
          <internalNodes>
            0 -1 105 -1.7203085124492645e-02</internalNodes>
          <leafValues>
            3.7088847160339355e-01 -1.6614282131195068e-01</leafValues></_>
        <_>
          <internalNodes>
            0 -1 503 1.9945977255702019e-03</internalNodes>
          <leafValues>
            8.0549038946628571e-02 -6.9351238012313843e-01</leafValues></_>
        <_>
          <internalNodes>
            0 -1 454 -2.0389989018440247e-02</internalNodes>
          <leafValues>
            6.1032861471176147e-01 -9.8043955862522125e-02</leafValues></_>
        <_>
          <internalNodes>
            0 -1 83 3.0718068592250347e-03</internalNodes>
          <leafValues>
            -1.0460441559553146e-01 4.8180007934570312e-01</leafValues></_>
        <_>
          <internalNodes>
            0 -1 332 -1.5478781424462795e-03</internalNodes>
          <leafValues>
            -6.3784772157669067e-01 9.0234912931919098e-02</leafValues></_>
        <_>
          <internalNodes>
            0 -1 443 2.1526089767576195e-05</internalNodes>
          <leafValues>
            -2.9999548196792603e-01 2.0020717382431030e-01</leafValues></_>
        <_>
          <internalNodes>
            0 -1 239 5.8609712868928909e-03</internalNodes>
          <leafValues>
            -1.1672691255807877e-01 4.6184471249580383e-01</leafValues></_>
        <_>
          <internalNodes>
            0 -1 247 -1.6238834941759706e-03</internalNodes>
          <leafValues>
            2.6665979623794556e-01 -2.0571166276931763e-01</leafValues></_>
        <_>
          <internalNodes>
            0 -1 480 4.6114076394587755e-04</internalNodes>
          <leafValues>
            1.3510060310363770e-01 -4.1974604129791260e-01</leafValues></_>
        <_>
          <internalNodes>
            0 -1 357 -8.6726620793342590e-03</internalNodes>
          <leafValues>
            2.9790538549423218e-01 -1.9874802231788635e-01</leafValues></_>
        <_>
          <internalNodes>
            0 -1 355 -4.9082818441092968e-04</internalNodes>
          <leafValues>
            -5.3066420555114746e-01 1.2104500085115433e-01</leafValues></_>
        <_>
          <internalNodes>
            0 -1 82 4.1059823706746101e-03</internalNodes>
          <leafValues>
            -1.0761013627052307e-01 6.2013071775436401e-01</leafValues></_>
        <_>
          <internalNodes>
            0 -1 496 -2.9550742357969284e-02</internalNodes>
          <leafValues>
            4.6305650472640991e-01 -1.0877699404954910e-01</leafValues></_>
        <_>
          <internalNodes>
            0 -1 451 4.3680965900421143e-03</internalNodes>
          <leafValues>
            -1.0752651840448380e-01 4.9541574716567993e-01</leafValues></_>
        <_>
          <internalNodes>
            0 -1 432 1.3369123917073011e-03</internalNodes>
          <leafValues>
            8.9599087834358215e-02 -6.6338330507278442e-01</leafValues></_>
        <_>
          <internalNodes>
            0 -1 463 -2.8363061137497425e-03</internalNodes>
          <leafValues>
            4.8819673061370850e-01 -1.2210676819086075e-01</leafValues></_>
        <_>
          <internalNodes>
            0 -1 375 -2.3591097444295883e-02</internalNodes>
          <leafValues>
            -7.8976005315780640e-01 7.8450441360473633e-02</leafValues></_>
        <_>
          <internalNodes>
            0 -1 137 4.6537198126316071e-02</internalNodes>
          <leafValues>
            7.3378846049308777e-02 -6.6298323869705200e-01</leafValues></_>
        <_>
          <internalNodes>
            0 -1 7 1.1095887748524547e-04</internalNodes>
          <leafValues>
            -2.2629174590110779e-01 2.3883925378322601e-01</leafValues></_>
        <_>
          <internalNodes>
            0 -1 407 5.1835589110851288e-03</internalNodes>
          <leafValues>
            -9.7352415323257446e-02 5.7302761077880859e-01</leafValues></_></weakClassifiers></_>
    <!-- stage 10 -->
    <_>
      <maxWeakCount>35</maxWeakCount>
      <stageThreshold>-1.3736525774002075e+00</stageThreshold>
      <weakClassifiers>
        <_>
          <internalNodes>
            0 -1 241 6.1330951750278473e-02</internalNodes>
          <leafValues>
            -3.1809872388839722e-01 4.0295118093490601e-01</leafValues></_>
        <_>
          <internalNodes>
            0 -1 206 5.5994037538766861e-02</internalNodes>
          <leafValues>
            -2.1591201424598694e-01 2.8946056962013245e-01</leafValues></_>
        <_>
          <internalNodes>
            0 -1 14 8.6634777486324310e-02</internalNodes>
          <leafValues>
            -7.2684779763221741e-02 8.1828367710113525e-01</leafValues></_>
        <_>
          <internalNodes>
            0 -1 264 3.9217271842062473e-04</internalNodes>
          <leafValues>
            1.3663262128829956e-01 -4.2132216691970825e-01</leafValues></_>
        <_>
          <internalNodes>
            0 -1 264 -2.4751527234911919e-04</internalNodes>
          <leafValues>
            -4.4938844442367554e-01 2.5918254256248474e-01</leafValues></_>
        <_>
          <internalNodes>
            0 -1 364 2.4767143186181784e-03</internalNodes>
          <leafValues>
            -1.7813597619533539e-01 4.1557615995407104e-01</leafValues></_>
        <_>
          <internalNodes>
            0 -1 368 -2.4617002345621586e-03</internalNodes>
          <leafValues>
            3.6736708879470825e-01 -1.7649601399898529e-01</leafValues></_>
        <_>
          <internalNodes>
            0 -1 243 -3.2931968569755554e-02</internalNodes>
          <leafValues>
            3.2622885704040527e-01 -1.5443582832813263e-01</leafValues></_>
        <_>
          <internalNodes>
            0 -1 18 -4.0834071114659309e-03</internalNodes>
          <leafValues>
            -7.0349299907684326e-01 9.3719631433486938e-02</leafValues></_>
        <_>
          <internalNodes>
            0 -1 398 -2.5933105498552322e-03</internalNodes>
          <leafValues>
            2.4017438292503357e-01 -2.3216471076011658e-01</leafValues></_>
        <_>
          <internalNodes>
            0 -1 2 4.3909372761845589e-03</internalNodes>
          <leafValues>
            1.0207889974117279e-01 -4.6051463484764099e-01</leafValues></_>
        <_>
          <internalNodes>
            0 -1 394 3.7669122684746981e-03</internalNodes>
          <leafValues>
            -1.2138649076223373e-01 4.3130812048912048e-01</leafValues></_>
        <_>
          <internalNodes>
            0 -1 170 -3.4853336401283741e-03</internalNodes>
          <leafValues>
            4.0181466937065125e-01 -1.2973967194557190e-01</leafValues></_>
        <_>
          <internalNodes>
            0 -1 139 -1.3751047663390636e-03</internalNodes>
          <leafValues>
            3.9945781230926514e-01 -1.3211883604526520e-01</leafValues></_>
        <_>
          <internalNodes>
            0 -1 138 -2.6750275865197182e-03</internalNodes>
          <leafValues>
            3.5157132148742676e-01 -1.5625315904617310e-01</leafValues></_>
        <_>
          <internalNodes>
            0 -1 154 4.2172424495220184e-02</internalNodes>
          <leafValues>
            -1.5478765964508057e-01 3.6057302355766296e-01</leafValues></_>
        <_>
          <internalNodes>
            0 -1 207 2.1243892842903733e-04</internalNodes>
          <leafValues>
            -2.3278255760669708e-01 2.4053955078125000e-01</leafValues></_>
        <_>
          <internalNodes>
            0 -1 479 5.2416906692087650e-04</internalNodes>
          <leafValues>
            1.2822027504444122e-01 -3.9575543999671936e-01</leafValues></_>
        <_>
          <internalNodes>
            0 -1 28 -1.7976980656385422e-02</internalNodes>
          <leafValues>
            4.0129995346069336e-01 -1.2574069201946259e-01</leafValues></_>
        <_>
          <internalNodes>
            0 -1 211 -6.7017711699008942e-02</internalNodes>
          <leafValues>
            -6.8888163566589355e-01 8.0244898796081543e-02</leafValues></_>
        <_>
          <internalNodes>
            0 -1 153 -4.9787792377173901e-03</internalNodes>
          <leafValues>
            2.8108960390090942e-01 -1.9785982370376587e-01</leafValues></_>
        <_>
          <internalNodes>
            0 -1 282 3.1844102777540684e-03</internalNodes>
          <leafValues>
            1.0471938550472260e-01 -5.1146662235260010e-01</leafValues></_>
        <_>
          <internalNodes>
            0 -1 131 4.5701172202825546e-03</internalNodes>
          <leafValues>
            -1.1726339161396027e-01 4.7024986147880554e-01</leafValues></_>
        <_>
          <internalNodes>
            0 -1 248 -1.4060607645660639e-03</internalNodes>
          <leafValues>
            -5.7767117023468018e-01 1.0303560644388199e-01</leafValues></_>
        <_>
          <internalNodes>
            0 -1 136 -3.9053712971508503e-03</internalNodes>
          <leafValues>
            3.3041566610336304e-01 -1.5499576926231384e-01</leafValues></_>
        <_>
          <internalNodes>
            0 -1 59 -2.7099885046482086e-03</internalNodes>
          <leafValues>
            -8.0346733331680298e-01 7.3177389800548553e-02</leafValues></_>
        <_>
          <internalNodes>
            0 -1 434 -3.6572157114278525e-05</internalNodes>
          <leafValues>
            2.1613505482673645e-01 -2.2093823552131653e-01</leafValues></_>
        <_>
          <internalNodes>
            0 -1 106 3.3935718238353729e-02</internalNodes>
          <leafValues>
            -1.1837254464626312e-01 4.6790295839309692e-01</leafValues></_>
        <_>
          <internalNodes>
            0 -1 473 -1.2138107558712363e-03</internalNodes>
          <leafValues>
            -5.5058014392852783e-01 1.0345776379108429e-01</leafValues></_>
        <_>
          <internalNodes>
            0 -1 163 -1.8444601446390152e-03</internalNodes>
          <leafValues>
            3.7375229597091675e-01 -1.4103527367115021e-01</leafValues></_>
        <_>
          <internalNodes>
            0 -1 202 -3.0107498168945312e-02</internalNodes>
          <leafValues>
            -7.5862228870391846e-01 6.7609243094921112e-02</leafValues></_>
        <_>
          <internalNodes>
            0 -1 468 -1.6983194276690483e-02</internalNodes>
          <leafValues>
            5.0122183561325073e-01 -1.1380853503942490e-01</leafValues></_>
        <_>
          <internalNodes>
            0 -1 54 -9.2811053618788719e-03</internalNodes>
          <leafValues>
            -5.3415888547897339e-01 9.7730748355388641e-02</leafValues></_>
        <_>
          <internalNodes>
            0 -1 49 -2.0349691621959209e-03</internalNodes>
          <leafValues>
            3.5825094580650330e-01 -1.4649531245231628e-01</leafValues></_>
        <_>
          <internalNodes>
            0 -1 26 -4.0596630424261093e-03</internalNodes>
          <leafValues>
            5.4198503494262695e-01 -8.7934017181396484e-02</leafValues></_></weakClassifiers></_>
    <!-- stage 11 -->
    <_>
      <maxWeakCount>31</maxWeakCount>
      <stageThreshold>-1.3583191633224487e+00</stageThreshold>
      <weakClassifiers>
        <_>
          <internalNodes>
            0 -1 157 1.0492449998855591e-01</internalNodes>
          <leafValues>
            -3.3808553218841553e-01 2.9230770468711853e-01</leafValues></_>
        <_>
          <internalNodes>
            0 -1 81 2.5716964155435562e-02</internalNodes>
          <leafValues>
            7.4055917561054230e-02 -6.8672400712966919e-01</leafValues></_>
        <_>
          <internalNodes>
            0 -1 406 5.0210459157824516e-03</internalNodes>
          <leafValues>
            -1.1084064841270447e-01 3.8297599554061890e-01</leafValues></_>
        <_>
          <internalNodes>
            0 -1 248 1.0914332233369350e-03</internalNodes>
          <leafValues>
            6.5301321446895599e-02 -5.7719910144805908e-01</leafValues></_>
        <_>
          <internalNodes>
            0 -1 80 -4.3785236775875092e-02</internalNodes>
          <leafValues>
            -7.6941305398941040e-01 8.5287593305110931e-02</leafValues></_>
        <_>
          <internalNodes>
            0 -1 280 -6.8026856752112508e-04</internalNodes>
          <leafValues>
            -4.8532345890998840e-01 7.5844466686248779e-02</leafValues></_>
        <_>
          <internalNodes>
            0 -1 427 -5.7402909733355045e-03</internalNodes>
          <leafValues>
            4.0819045901298523e-01 -1.3022910058498383e-01</leafValues></_>
        <_>
          <internalNodes>
            0 -1 176 1.3908577784604859e-05</internalNodes>
          <leafValues>
            -2.3577621579170227e-01 2.0663784444332123e-01</leafValues></_>
        <_>
          <internalNodes>
            0 -1 200 2.0448239520192146e-03</internalNodes>
          <leafValues>
            7.6973564922809601e-02 -5.0861692428588867e-01</leafValues></_>
        <_>
          <internalNodes>
            0 -1 160 -6.6722124814987183e-02</internalNodes>
          <leafValues>
            -5.1544511318206787e-01 9.6907496452331543e-02</leafValues></_>
        <_>
          <internalNodes>
            0 -1 259 -7.5383976101875305e-02</internalNodes>
          <leafValues>
            6.1126947402954102e-01 -1.1270119994878769e-01</leafValues></_>
        <_>
          <internalNodes>
            0 -1 257 -7.3254848830401897e-03</internalNodes>
          <leafValues>
            2.5384217500686646e-01 -2.2204717993736267e-01</leafValues></_>
        <_>
          <internalNodes>
            0 -1 438 -2.2901417687535286e-03</internalNodes>
          <leafValues>
            4.1719928383827209e-01 -1.5005043148994446e-01</leafValues></_>
        <_>
          <internalNodes>
            0 -1 439 -3.3747884444892406e-03</internalNodes>
          <leafValues>
            5.3002470731735229e-01 -8.7469168007373810e-02</leafValues></_>
        <_>
          <internalNodes>
            0 -1 370 -5.4318819195032120e-02</internalNodes>
          <leafValues>
            -8.1377965211868286e-01 7.6300241053104401e-02</leafValues></_>
        <_>
          <internalNodes>
            0 -1 462 1.9062027335166931e-02</internalNodes>
          <leafValues>
            7.3681570589542389e-02 -5.8759200572967529e-01</leafValues></_>
        <_>
          <internalNodes>
            0 -1 448 -1.6960198991000652e-04</internalNodes>
          <leafValues>
            -3.7090510129928589e-01 1.2457910925149918e-01</leafValues></_>
        <_>
          <internalNodes>
            0 -1 271 7.5186327099800110e-02</internalNodes>
          <leafValues>
            -1.1836937069892883e-01 4.7373816370964050e-01</leafValues></_>
        <_>
          <internalNodes>
            0 -1 330 -4.8144339234568179e-04</internalNodes>
          <leafValues>
            2.4349080026149750e-01 -2.1775414049625397e-01</leafValues></_>
        <_>
          <internalNodes>
            0 -1 50 7.6366467401385307e-03</internalNodes>
          <leafValues>
            8.8473305106163025e-02 -5.6901788711547852e-01</leafValues></_>
        <_>
          <internalNodes>
            0 -1 451 4.4605378061532974e-03</internalNodes>
          <leafValues>
            -1.2458325922489166e-01 4.3888029456138611e-01</leafValues></_>
        <_>
          <internalNodes>
            0 -1 172 -1.5582873020321131e-03</internalNodes>
          <leafValues>
            3.1122374534606934e-01 -1.5362370014190674e-01</leafValues></_>
        <_>
          <internalNodes>
            0 -1 504 -2.3187464103102684e-03</internalNodes>
          <leafValues>
            -5.6466490030288696e-01 9.1581583023071289e-02</leafValues></_>
        <_>
          <internalNodes>
            0 -1 111 -2.8033629059791565e-03</internalNodes>
          <leafValues>
            3.1819397211074829e-01 -1.8981404602527618e-01</leafValues></_>
        <_>
          <internalNodes>
            0 -1 65 -3.1713017961010337e-05</internalNodes>
          <leafValues>
            2.3765569925308228e-01 -2.0090712606906891e-01</leafValues></_>
        <_>
          <internalNodes>
            0 -1 193 -1.1896759679075330e-04</internalNodes>
          <leafValues>
            -3.3979299664497375e-01 1.4891387522220612e-01</leafValues></_>
        <_>
          <internalNodes>
            0 -1 74 4.4656274840235710e-03</internalNodes>
          <leafValues>
            -8.8355235755443573e-02 6.4976233243942261e-01</leafValues></_>
        <_>
          <internalNodes>
            0 -1 217 -6.3986098393797874e-03</internalNodes>
          <leafValues>
            3.5509029030799866e-01 -1.2948958575725555e-01</leafValues></_>
        <_>
          <internalNodes>
            0 -1 275 8.0167278647422791e-03</internalNodes>
          <leafValues>
            -1.2362952530384064e-01 4.2035204172134399e-01</leafValues></_>
        <_>
          <internalNodes>
            0 -1 108 1.6941367089748383e-01</internalNodes>
          <leafValues>
            6.8272717297077179e-02 -8.2238382101058960e-01</leafValues></_>
        <_>
          <internalNodes>
            0 -1 450 -2.9585222364403307e-04</internalNodes>
          <leafValues>
            -3.7947353720664978e-01 1.1647457629442215e-01</leafValues></_></weakClassifiers></_>
    <!-- stage 12 -->
    <_>
      <maxWeakCount>29</maxWeakCount>
      <stageThreshold>-1.2191389799118042e+00</stageThreshold>
      <weakClassifiers>
        <_>
          <internalNodes>
            0 -1 496 2.5411261245608330e-02</internalNodes>
          <leafValues>
            -2.9111617803573608e-01 3.4096109867095947e-01</leafValues></_>
        <_>
          <internalNodes>
            0 -1 291 -6.7074269056320190e-02</internalNodes>
          <leafValues>
            3.9618247747421265e-01 -1.4908948540687561e-01</leafValues></_>
        <_>
          <internalNodes>
            0 -1 295 -1.5091009438037872e-01</internalNodes>
          <leafValues>
            -6.6683077812194824e-01 4.9580957740545273e-02</leafValues></_>
        <_>
          <internalNodes>
            0 -1 72 4.2280659079551697e-02</internalNodes>
          <leafValues>
            -6.3623115420341492e-02 5.1867240667343140e-01</leafValues></_>
        <_>
          <internalNodes>
            0 -1 66 -1.0192020999966189e-04</internalNodes>
          <leafValues>
            2.4145746231079102e-01 -2.1903902292251587e-01</leafValues></_>
        <_>
          <internalNodes>
            0 -1 0 2.2061550989747047e-03</internalNodes>
          <leafValues>
            6.4743243157863617e-02 -7.3275291919708252e-01</leafValues></_>
        <_>
          <internalNodes>
            0 -1 486 6.4951526001095772e-03</internalNodes>
          <leafValues>
            -1.1269577592611313e-01 4.7757863998413086e-01</leafValues></_>
        <_>
          <internalNodes>
            0 -1 485 3.7561655044555664e-03</internalNodes>
          <leafValues>
            -7.8439965844154358e-02 5.6866264343261719e-01</leafValues></_>
        <_>
          <internalNodes>
            0 -1 126 1.2279419228434563e-02</internalNodes>
          <leafValues>
            -8.4767237305641174e-02 4.7653567790985107e-01</leafValues></_>
        <_>
          <internalNodes>
            0 -1 501 -4.6377797843888402e-04</internalNodes>
          <leafValues>
            -3.4856078028678894e-01 1.3986505568027496e-01</leafValues></_>
        <_>
          <internalNodes>
            0 -1 230 1.4078206731937826e-05</internalNodes>
          <leafValues>
            -2.1865710616111755e-01 2.3408198356628418e-01</leafValues></_>
        <_>
          <internalNodes>
            0 -1 493 -3.8099322409834713e-05</internalNodes>
          <leafValues>
            -3.2484441995620728e-01 1.6908466815948486e-01</leafValues></_>
        <_>
          <internalNodes>
            0 -1 88 1.3395451009273529e-02</internalNodes>
          <leafValues>
            -1.9983176887035370e-01 2.6790967583656311e-01</leafValues></_>
        <_>
          <internalNodes>
            0 -1 460 -8.6748693138360977e-04</internalNodes>
          <leafValues>
            -5.3039962053298950e-01 9.3580938875675201e-02</leafValues></_>
        <_>
          <internalNodes>
            0 -1 497 5.2065253257751465e-03</internalNodes>
          <leafValues>
            -1.4151644706726074e-01 3.5219141840934753e-01</leafValues></_>
        <_>
          <internalNodes>
            0 -1 313 4.2735878378152847e-03</internalNodes>
          <leafValues>
            7.8739605844020844e-02 -6.3160866498947144e-01</leafValues></_>
        <_>
          <internalNodes>
            0 -1 487 -1.4794520102441311e-03</internalNodes>
          <leafValues>
            3.8206949830055237e-01 -1.3232764601707458e-01</leafValues></_>
        <_>
          <internalNodes>
            0 -1 339 1.8277060007676482e-04</internalNodes>
          <leafValues>
            -2.3723737895488739e-01 2.1005579829216003e-01</leafValues></_>
        <_>
          <internalNodes>
            0 -1 460 1.8193463620264083e-04</internalNodes>
          <leafValues>
            1.5180525183677673e-01 -3.5329434275627136e-01</leafValues></_>
        <_>
          <internalNodes>
            0 -1 63 7.7369855716824532e-03</internalNodes>
          <leafValues>
            -2.9763194918632507e-01 1.7729941010475159e-01</leafValues></_>
        <_>
          <internalNodes>
            0 -1 237 -1.3584888074547052e-04</internalNodes>
          <leafValues>
            -2.7834165096282959e-01 1.8652860820293427e-01</leafValues></_>
        <_>
          <internalNodes>
            0 -1 61 8.2632213830947876e-02</internalNodes>
          <leafValues>
            5.8074675500392914e-02 -9.1105377674102783e-01</leafValues></_>
        <_>
          <internalNodes>
            0 -1 68 6.7049739882349968e-03</internalNodes>
          <leafValues>
            -1.6455286741256714e-01 3.0336847901344299e-01</leafValues></_>
        <_>
          <internalNodes>
            0 -1 179 -1.8589053070172668e-04</internalNodes>
          <leafValues>
            -4.6786251664161682e-01 1.0919275879859924e-01</leafValues></_>
        <_>
          <internalNodes>
            0 -1 391 3.0591455288231373e-03</internalNodes>
          <leafValues>
            -1.0478892177343369e-01 5.3414523601531982e-01</leafValues></_>
        <_>
          <internalNodes>
            0 -1 502 9.9740745499730110e-03</internalNodes>
          <leafValues>
            -1.2159578502178192e-01 3.8683998584747314e-01</leafValues></_>
        <_>
          <internalNodes>
            0 -1 99 1.1111281812191010e-01</internalNodes>
          <leafValues>
            -1.5773622691631317e-01 3.1868419051170349e-01</leafValues></_>
        <_>
          <internalNodes>
            0 -1 33 2.7927486225962639e-03</internalNodes>
          <leafValues>
            -1.8028219044208527e-01 2.9368123412132263e-01</leafValues></_>
        <_>
          <internalNodes>
            0 -1 36 -4.9080280587077141e-03</internalNodes>
          <leafValues>
            3.0320027470588684e-01 -1.7093706130981445e-01</leafValues></_></weakClassifiers></_>
    <!-- stage 13 -->
    <_>
      <maxWeakCount>38</maxWeakCount>
      <stageThreshold>-1.3790709972381592e+00</stageThreshold>
      <weakClassifiers>
        <_>
          <internalNodes>
            0 -1 114 -4.5884954743087292e-03</internalNodes>
          <leafValues>
            1.7859725654125214e-01 -3.4875443577766418e-01</leafValues></_>
        <_>
          <internalNodes>
            0 -1 325 -4.0185574442148209e-02</internalNodes>
          <leafValues>
            2.7737414836883545e-01 -2.0281115174293518e-01</leafValues></_>
        <_>
          <internalNodes>
            0 -1 121 5.3715603426098824e-03</internalNodes>
          <leafValues>
            -2.2456431388854980e-01 2.1541388332843781e-01</leafValues></_>
        <_>
          <internalNodes>
            0 -1 116 3.4544387744972482e-05</internalNodes>
          <leafValues>
            -2.1302840113639832e-01 2.1877181529998779e-01</leafValues></_>
        <_>
          <internalNodes>
            0 -1 3 4.2415363714098930e-03</internalNodes>
          <leafValues>
            1.0699924826622009e-01 -7.7790373563766479e-01</leafValues></_>
        <_>
          <internalNodes>
            0 -1 152 -4.2500392737565562e-05</internalNodes>
          <leafValues>
            1.4553068578243256e-01 -2.9864236712455750e-01</leafValues></_>
        <_>
          <internalNodes>
            0 -1 233 4.3748185271397233e-04</internalNodes>
          <leafValues>
            1.7049658298492432e-01 -3.3663707971572876e-01</leafValues></_>
        <_>
          <internalNodes>
            0 -1 191 4.5957695692777634e-03</internalNodes>
          <leafValues>
            -2.4465993046760559e-01 2.3086370527744293e-01</leafValues></_>
        <_>
          <internalNodes>
            0 -1 439 2.7499650605022907e-03</internalNodes>
          <leafValues>
            -1.5067228674888611e-01 3.7762770056724548e-01</leafValues></_>
        <_>
          <internalNodes>
            0 -1 235 -6.3335675804410130e-05</internalNodes>
          <leafValues>
            -3.2452046871185303e-01 1.7028862237930298e-01</leafValues></_>
        <_>
          <internalNodes>
            0 -1 188 1.0506505146622658e-02</internalNodes>
          <leafValues>
            -1.0212450474500656e-01 4.2223030328750610e-01</leafValues></_>
        <_>
          <internalNodes>
            0 -1 458 5.1894673379138112e-04</internalNodes>
          <leafValues>
            1.2396467477083206e-01 -3.5911837220191956e-01</leafValues></_>
        <_>
          <internalNodes>
            0 -1 4 3.2557378290221095e-04</internalNodes>
          <leafValues>
            -1.8326388299465179e-01 2.5681662559509277e-01</leafValues></_>
        <_>
          <internalNodes>
            0 -1 464 4.5327441766858101e-03</internalNodes>
          <leafValues>
            -1.2079016864299774e-01 4.3976956605911255e-01</leafValues></_>
        <_>
          <internalNodes>
            0 -1 278 -1.8020602510659955e-05</internalNodes>
          <leafValues>
            2.0991972088813782e-01 -2.3333419859409332e-01</leafValues></_>
        <_>
          <internalNodes>
            0 -1 249 -1.3778094202280045e-02</internalNodes>
          <leafValues>
            -9.4677346944808960e-01 6.5515533089637756e-02</leafValues></_>
        <_>
          <internalNodes>
            0 -1 168 -7.0553775876760483e-03</internalNodes>
          <leafValues>
            2.5909182429313660e-01 -1.9590847194194794e-01</leafValues></_>
        <_>
          <internalNodes>
            0 -1 167 2.1127040963619947e-03</internalNodes>
          <leafValues>
            -1.2699769437313080e-01 4.2379322648048401e-01</leafValues></_>
        <_>
          <internalNodes>
            0 -1 19 1.0953147895634174e-02</internalNodes>
          <leafValues>
            6.8192407488822937e-02 -8.7328839302062988e-01</leafValues></_>
        <_>
          <internalNodes>
            0 -1 135 -6.8265669979155064e-03</internalNodes>
          <leafValues>
            2.6870396733283997e-01 -1.8821345269680023e-01</leafValues></_>
        <_>
          <internalNodes>
            0 -1 359 -4.4389236718416214e-03</internalNodes>
          <leafValues>
            4.3691718578338623e-01 -1.1520853638648987e-01</leafValues></_>
        <_>
          <internalNodes>
            0 -1 182 3.8768877275288105e-03</internalNodes>
          <leafValues>
            5.7677831500768661e-02 -8.7487047910690308e-01</leafValues></_>
        <_>
          <internalNodes>
            0 -1 429 -3.4887851215898991e-03</internalNodes>
          <leafValues>
            3.8575035333633423e-01 -1.2916745245456696e-01</leafValues></_>
        <_>
          <internalNodes>
            0 -1 103 6.4287814311683178e-03</internalNodes>
          <leafValues>
            -1.0948821157217026e-01 4.1655331850051880e-01</leafValues></_>
        <_>
          <internalNodes>
            0 -1 433 1.2891963124275208e-03</internalNodes>
          <leafValues>
            9.3775682151317596e-02 -5.3160643577575684e-01</leafValues></_>
        <_>
          <internalNodes>
            0 -1 367 -4.9235902726650238e-02</internalNodes>
          <leafValues>
            -7.0622116327285767e-01 5.5913079530000687e-02</leafValues></_>
        <_>
          <internalNodes>
            0 -1 453 1.0502731893211603e-03</internalNodes>
          <leafValues>
            -1.5954144299030304e-01 2.7144330739974976e-01</leafValues></_>
        <_>
          <internalNodes>
            0 -1 197 1.5519195795059204e-01</internalNodes>
          <leafValues>
            -8.6274430155754089e-02 5.7085013389587402e-01</leafValues></_>
        <_>
          <internalNodes>
            0 -1 260 3.7630721926689148e-02</internalNodes>
          <leafValues>
            -1.4775106310844421e-01 2.8424060344696045e-01</leafValues></_>
        <_>
          <internalNodes>
            0 -1 292 4.1986249387264252e-02</internalNodes>
          <leafValues>
            -9.1392360627651215e-02 5.7799243927001953e-01</leafValues></_>
        <_>
          <internalNodes>
            0 -1 446 2.2517987526953220e-03</internalNodes>
          <leafValues>
            -1.5545916557312012e-01 2.9815921187400818e-01</leafValues></_>
        <_>
          <internalNodes>
            0 -1 460 -8.0955261364579201e-04</internalNodes>
          <leafValues>
            -5.8109629154205322e-01 9.6984542906284332e-02</leafValues></_>
        <_>
          <internalNodes>
            0 -1 70 -1.7362066500936635e-05</internalNodes>
          <leafValues>
            2.2094686329364777e-01 -2.2311133146286011e-01</leafValues></_>
        <_>
          <internalNodes>
            0 -1 171 4.8228939995169640e-03</internalNodes>
          <leafValues>
            -1.1400134116411209e-01 4.0359881520271301e-01</leafValues></_>
        <_>
          <internalNodes>
            0 -1 376 5.9979865327477455e-03</internalNodes>
          <leafValues>
            -9.1878078877925873e-02 4.9211168289184570e-01</leafValues></_>
        <_>
          <internalNodes>
            0 -1 201 -1.8722551176324487e-03</internalNodes>
          <leafValues>
            2.9280334711074829e-01 -1.4549748599529266e-01</leafValues></_>
        <_>
          <internalNodes>
            0 -1 500 3.4114142181351781e-04</internalNodes>
          <leafValues>
            1.3561701774597168e-01 -3.4044679999351501e-01</leafValues></_>
        <_>
          <internalNodes>
            0 -1 322 2.7924799360334873e-03</internalNodes>
          <leafValues>
            -1.4705587923526764e-01 3.3594965934753418e-01</leafValues></_></weakClassifiers></_>
    <!-- stage 14 -->
    <_>
      <maxWeakCount>36</maxWeakCount>
      <stageThreshold>-1.2139496803283691e+00</stageThreshold>
      <weakClassifiers>
        <_>
          <internalNodes>
            0 -1 185 6.1751253902912140e-02</internalNodes>
          <leafValues>
            -3.5573580861091614e-01 2.0327624678611755e-01</leafValues></_>
        <_>
          <internalNodes>
            0 -1 265 -2.5749899214133620e-04</internalNodes>
          <leafValues>
            -3.5309654474258423e-01 1.3007092475891113e-01</leafValues></_>
        <_>
          <internalNodes>
            0 -1 265 1.4511606423184276e-04</internalNodes>
          <leafValues>
            1.8812060356140137e-01 -3.7227463722229004e-01</leafValues></_>
        <_>
          <internalNodes>
            0 -1 155 5.4715782403945923e-02</internalNodes>
          <leafValues>
            -8.5041433572769165e-02 5.3694397211074829e-01</leafValues></_>
        <_>
          <internalNodes>
            0 -1 37 -2.1866546012461185e-03</internalNodes>
          <leafValues>
            1.5832136571407318e-01 -2.5203442573547363e-01</leafValues></_>
        <_>
          <internalNodes>
            0 -1 360 -4.0209474973380566e-03</internalNodes>
          <leafValues>
            4.4518822431564331e-01 -7.2577729821205139e-02</leafValues></_>
        <_>
          <internalNodes>
            0 -1 312 -1.7382502555847168e-03</internalNodes>
          <leafValues>
            2.0995631814002991e-01 -1.9874355196952820e-01</leafValues></_>
        <_>
          <internalNodes>
            0 -1 465 2.1220711059868336e-03</internalNodes>
          <leafValues>
            -1.1608669161796570e-01 4.0699952840805054e-01</leafValues></_>
        <_>
          <internalNodes>
            0 -1 118 3.0693784356117249e-03</internalNodes>
          <leafValues>
            7.9206876456737518e-02 -6.7247438430786133e-01</leafValues></_>
        <_>
          <internalNodes>
            0 -1 117 3.2484833354828879e-05</internalNodes>
          <leafValues>
            -2.3979052901268005e-01 2.0023410022258759e-01</leafValues></_>
        <_>
          <internalNodes>
            0 -1 409 -6.1342152766883373e-03</internalNodes>
          <leafValues>
            5.0374829769134521e-01 -9.9206894636154175e-02</leafValues></_>
        <_>
          <internalNodes>
            0 -1 334 -3.0014286749064922e-03</internalNodes>
          <leafValues>
            -9.5591080188751221e-01 4.6580996364355087e-02</leafValues></_>
        <_>
          <internalNodes>
            0 -1 461 5.5373474955558777e-02</internalNodes>
          <leafValues>
            4.8165541142225266e-02 -6.4817959070205688e-01</leafValues></_>
        <_>
          <internalNodes>
            0 -1 56 -3.4398338757455349e-03</internalNodes>
          <leafValues>
            -6.5717315673828125e-01 5.4465457797050476e-02</leafValues></_>
        <_>
          <internalNodes>
            0 -1 1 -6.3749300315976143e-03</internalNodes>
          <leafValues>
            -9.2375409603118896e-01 4.0193777531385422e-02</leafValues></_>
        <_>
          <internalNodes>
            0 -1 466 -3.1980297062546015e-03</internalNodes>
          <leafValues>
            3.9847174286842346e-01 -1.1229611933231354e-01</leafValues></_>
        <_>
          <internalNodes>
            0 -1 483 -6.7731982562690973e-04</internalNodes>
          <leafValues>
            1.9916367530822754e-01 -2.4308572709560394e-01</leafValues></_>
        <_>
          <internalNodes>
            0 -1 132 -2.8157982975244522e-02</internalNodes>
          <leafValues>
            -8.3014488220214844e-01 5.7492770254611969e-02</leafValues></_>
        <_>
          <internalNodes>
            0 -1 389 -1.2526919599622488e-03</internalNodes>
          <leafValues>
            3.2007223367691040e-01 -1.3651949167251587e-01</leafValues></_>
        <_>
          <internalNodes>
            0 -1 334 2.0916676148772240e-03</internalNodes>
          <leafValues>
            6.9256290793418884e-02 -7.4554538726806641e-01</leafValues></_>
        <_>
          <internalNodes>
            0 -1 263 -9.3975327908992767e-03</internalNodes>
          <leafValues>
            3.6859920620918274e-01 -1.2644380331039429e-01</leafValues></_>
        <_>
          <internalNodes>
            0 -1 318 -5.0662411376833916e-03</internalNodes>
          <leafValues>
            4.2136022448539734e-01 -1.1276379972696304e-01</leafValues></_>
        <_>
          <internalNodes>
            0 -1 266 -2.7663600631058216e-03</internalNodes>
          <leafValues>
            3.0741637945175171e-01 -1.2392932921648026e-01</leafValues></_>
        <_>
          <internalNodes>
            0 -1 240 3.6293962039053440e-03</internalNodes>
          <leafValues>
            -9.5943905413150787e-02 4.2657795548439026e-01</leafValues></_>
        <_>
          <internalNodes>
            0 -1 177 -1.8058512068819255e-05</internalNodes>
          <leafValues>
            1.9025339186191559e-01 -2.2454231977462769e-01</leafValues></_>
        <_>
          <internalNodes>
            0 -1 245 -1.2663146480917931e-04</internalNodes>
          <leafValues>
            -3.6506181955337524e-01 1.3197016716003418e-01</leafValues></_>
        <_>
          <internalNodes>
            0 -1 276 -3.7300957046682015e-05</internalNodes>
          <leafValues>
            2.5357666611671448e-01 -1.9768996536731720e-01</leafValues></_>
        <_>
          <internalNodes>
            0 -1 40 1.8539397418498993e-01</internalNodes>
          <leafValues>
            -1.5149363875389099e-01 3.2686376571655273e-01</leafValues></_>
        <_>
          <internalNodes>
            0 -1 474 1.4054614119231701e-02</internalNodes>
          <leafValues>
            -1.2208323925733566e-01 3.4863960742950439e-01</leafValues></_>
        <_>
          <internalNodes>
            0 -1 339 2.1944745094515383e-04</internalNodes>
          <leafValues>
            -2.3941850662231445e-01 2.0157277584075928e-01</leafValues></_>
        <_>
          <internalNodes>
            0 -1 39 -1.8249808344990015e-03</internalNodes>
          <leafValues>
            3.2946515083312988e-01 -1.2631681561470032e-01</leafValues></_>
        <_>
          <internalNodes>
            0 -1 89 -9.1338064521551132e-03</internalNodes>
          <leafValues>
            6.7198753356933594e-01 -5.6099556386470795e-02</leafValues></_>
        <_>
          <internalNodes>
            0 -1 352 1.0977004421874881e-03</internalNodes>
          <leafValues>
            6.2661916017532349e-02 -7.7364003658294678e-01</leafValues></_>
        <_>
          <internalNodes>
            0 -1 299 -8.5427358746528625e-02</internalNodes>
          <leafValues>
            -8.3676594495773315e-01 3.8404427468776703e-02</leafValues></_>
        <_>
          <internalNodes>
            0 -1 308 1.1967709288001060e-03</internalNodes>
          <leafValues>
            6.1274584382772446e-02 -5.3672689199447632e-01</leafValues></_>
        <_>
          <internalNodes>
            0 -1 47 -3.9365631528198719e-03</internalNodes>
          <leafValues>
            2.5731319189071655e-01 -1.5112034976482391e-01</leafValues></_></weakClassifiers></_>
    <!-- stage 15 -->
    <_>
      <maxWeakCount>44</maxWeakCount>
      <stageThreshold>-1.4435575008392334e+00</stageThreshold>
      <weakClassifiers>
        <_>
          <internalNodes>
            0 -1 270 3.3661946654319763e-02</internalNodes>
          <leafValues>
            -3.3676385879516602e-01 1.8787878751754761e-01</leafValues></_>
        <_>
          <internalNodes>
            0 -1 265 -2.6026761042885482e-04</internalNodes>
          <leafValues>
            -3.7254080176353455e-01 1.3435265421867371e-01</leafValues></_>
        <_>
          <internalNodes>
            0 -1 265 1.5530202654190361e-04</internalNodes>
          <leafValues>
            1.5533903241157532e-01 -3.4288939833641052e-01</leafValues></_>
        <_>
          <internalNodes>
            0 -1 362 -3.7712402641773224e-02</internalNodes>
          <leafValues>
            -7.4129372835159302e-01 5.0366532057523727e-02</leafValues></_>
        <_>
          <internalNodes>
            0 -1 423 4.3815257959067822e-03</internalNodes>
          <leafValues>
            -1.3648153841495514e-01 2.8462576866149902e-01</leafValues></_>
        <_>
          <internalNodes>
            0 -1 476 6.8433843553066254e-02</internalNodes>
          <leafValues>
            -1.0017365962266922e-01 4.0140974521636963e-01</leafValues></_>
        <_>
          <internalNodes>
            0 -1 205 -1.8166817608289421e-04</internalNodes>
          <leafValues>
            2.3673337697982788e-01 -2.3220670223236084e-01</leafValues></_>
        <_>
          <internalNodes>
            0 -1 457 6.0679499059915543e-02</internalNodes>
          <leafValues>
            -9.6873119473457336e-02 4.9912405014038086e-01</leafValues></_>
        <_>
          <internalNodes>
            0 -1 92 1.8293027096660808e-05</internalNodes>
          <leafValues>
            -1.7352220416069031e-01 2.5783765316009521e-01</leafValues></_>
        <_>
          <internalNodes>
            0 -1 415 3.6260805791243911e-04</internalNodes>
          <leafValues>
            -2.3427626490592957e-01 1.9383452832698822e-01</leafValues></_>
        <_>
          <internalNodes>
            0 -1 71 4.3474279344081879e-02</internalNodes>
          <leafValues>
            -1.1190783977508545e-01 3.5778602957725525e-01</leafValues></_>
        <_>
          <internalNodes>
            0 -1 112 4.8248871462419629e-04</internalNodes>
          <leafValues>
            -2.4884322285652161e-01 1.7261740565299988e-01</leafValues></_>
        <_>
          <internalNodes>
            0 -1 308 -1.9163999240845442e-03</internalNodes>
          <leafValues>
            -8.0268114805221558e-01 7.2314128279685974e-02</leafValues></_>
        <_>
          <internalNodes>
            0 -1 344 -2.1720291115343571e-03</internalNodes>
          <leafValues>
            3.4180739521980286e-01 -1.2415312230587006e-01</leafValues></_>
        <_>
          <internalNodes>
            0 -1 311 -3.6253822036087513e-03</internalNodes>
          <leafValues>
            -4.5224702358245850e-01 8.8148884475231171e-02</leafValues></_>
        <_>
          <internalNodes>
            0 -1 42 3.4101961646229029e-03</internalNodes>
          <leafValues>
            -8.9421331882476807e-02 4.4145697355270386e-01</leafValues></_>
        <_>
          <internalNodes>
            0 -1 42 -3.6113685928285122e-03</internalNodes>
          <leafValues>
            4.8948943614959717e-01 -1.0120424628257751e-01</leafValues></_>
        <_>
          <internalNodes>
            0 -1 23 -1.7499789464636706e-05</internalNodes>
          <leafValues>
            2.1179954707622528e-01 -1.9105984270572662e-01</leafValues></_>
        <_>
          <internalNodes>
            0 -1 189 -2.0585872698575258e-04</internalNodes>
          <leafValues>
            -3.4756240248680115e-01 1.2268895655870438e-01</leafValues></_>
        <_>
          <internalNodes>
            0 -1 314 -1.1509571969509125e-01</internalNodes>
          <leafValues>
            -8.7110692262649536e-01 3.5389453172683716e-02</leafValues></_>
        <_>
          <internalNodes>
            0 -1 17 3.5571213811635971e-03</internalNodes>
          <leafValues>
            6.0015693306922913e-02 -6.1219799518585205e-01</leafValues></_>
        <_>
          <internalNodes>
            0 -1 181 6.6403280943632126e-03</internalNodes>
          <leafValues>
            -1.2361858785152435e-01 3.3555519580841064e-01</leafValues></_>
        <_>
          <internalNodes>
            0 -1 304 1.3894361909478903e-03</internalNodes>
          <leafValues>
            8.6806856095790863e-02 -4.9865531921386719e-01</leafValues></_>
        <_>
          <internalNodes>
            0 -1 12 -1.4895421918481588e-03</internalNodes>
          <leafValues>
            2.3580314218997955e-01 -1.8205954134464264e-01</leafValues></_>
        <_>
          <internalNodes>
            0 -1 358 -1.9042987332795747e-05</internalNodes>
          <leafValues>
            1.9532449543476105e-01 -2.1247370541095734e-01</leafValues></_>
        <_>
          <internalNodes>
            0 -1 470 5.4431012831628323e-03</internalNodes>
          <leafValues>
            -5.9081792831420898e-02 6.1247992515563965e-01</leafValues></_>
        <_>
          <internalNodes>
            0 -1 286 -2.9162582941353321e-03</internalNodes>
          <leafValues>
            2.4141179025173187e-01 -1.7108850181102753e-01</leafValues></_>
        <_>
          <internalNodes>
            0 -1 233 7.8083598054945469e-05</internalNodes>
          <leafValues>
            1.7546360194683075e-01 -2.5483629107475281e-01</leafValues></_>
        <_>
          <internalNodes>
            0 -1 233 -5.9207808226346970e-04</internalNodes>
          <leafValues>
            -5.3950035572052002e-01 8.4955610334873199e-02</leafValues></_>
        <_>
          <internalNodes>
            0 -1 298 3.3764708787202835e-03</internalNodes>
          <leafValues>
            -1.1085754632949829e-01 4.4580712914466858e-01</leafValues></_>
        <_>
          <internalNodes>
            0 -1 326 -1.1928793974220753e-03</internalNodes>
          <leafValues>
            3.0327224731445312e-01 -1.2386479228734970e-01</leafValues></_>
        <_>
          <internalNodes>
            0 -1 91 1.2248346582055092e-02</internalNodes>
          <leafValues>
            6.1771836131811142e-02 -6.1703991889953613e-01</leafValues></_>
        <_>
          <internalNodes>
            0 -1 323 -3.5195224918425083e-03</internalNodes>
          <leafValues>
            3.1924715638160706e-01 -1.2290240079164505e-01</leafValues></_>
        <_>
          <internalNodes>
            0 -1 256 1.0883547365665436e-03</internalNodes>
          <leafValues>
            -1.5433003008365631e-01 2.4522013962268829e-01</leafValues></_>
        <_>
          <internalNodes>
            0 -1 284 -1.3083405792713165e-04</internalNodes>
          <leafValues>
            -2.6710873842239380e-01 1.7733377218246460e-01</leafValues></_>
        <_>
          <internalNodes>
            0 -1 329 1.0517665650695562e-03</internalNodes>
          <leafValues>
            -1.7713500559329987e-01 2.4464684724807739e-01</leafValues></_>
        <_>
          <internalNodes>
            0 -1 333 -3.0179455643519759e-04</internalNodes>
          <leafValues>
            -3.9240783452987671e-01 1.1539502441883087e-01</leafValues></_>
        <_>
          <internalNodes>
            0 -1 437 -1.0749203152954578e-02</internalNodes>
          <leafValues>
            -5.3111648559570312e-01 7.6522432267665863e-02</leafValues></_>
        <_>
          <internalNodes>
            0 -1 469 6.7280521616339684e-03</internalNodes>
          <leafValues>
            -6.7022882401943207e-02 6.3744670152664185e-01</leafValues></_>
        <_>
          <internalNodes>
            0 -1 69 3.4255070204380900e-05</internalNodes>
          <leafValues>
            -1.9293014705181122e-01 2.1163010597229004e-01</leafValues></_>
        <_>
          <internalNodes>
            0 -1 274 2.8833601390942931e-04</internalNodes>
          <leafValues>
            1.6473671793937683e-01 -2.8307229280471802e-01</leafValues></_>
        <_>
          <internalNodes>
            0 -1 113 -2.4537891149520874e-02</internalNodes>
          <leafValues>
            3.4290477633476257e-01 -1.3282431662082672e-01</leafValues></_>
        <_>
          <internalNodes>
            0 -1 374 -3.9466951042413712e-02</internalNodes>
          <leafValues>
            -8.8087809085845947e-01 4.7145411372184753e-02</leafValues></_>
        <_>
          <internalNodes>
            0 -1 250 5.4296746384352446e-04</internalNodes>
          <leafValues>
            8.9368231594562531e-02 -4.1110119223594666e-01</leafValues></_></weakClassifiers></_>
    <!-- stage 16 -->
    <_>
      <maxWeakCount>44</maxWeakCount>
      <stageThreshold>-1.2188615798950195e+00</stageThreshold>
      <weakClassifiers>
        <_>
          <internalNodes>
            0 -1 399 3.0865347012877464e-02</internalNodes>
          <leafValues>
            -3.1796753406524658e-01 2.2931034862995148e-01</leafValues></_>
        <_>
          <internalNodes>
            0 -1 27 5.0982129760086536e-03</internalNodes>
          <leafValues>
            -1.0467650741338730e-01 5.0539404153823853e-01</leafValues></_>
        <_>
          <internalNodes>
            0 -1 351 -4.5009991154074669e-03</internalNodes>
          <leafValues>
            -5.4545104503631592e-01 4.9467351287603378e-02</leafValues></_>
        <_>
          <internalNodes>
            0 -1 361 -3.4954044967889786e-02</internalNodes>
          <leafValues>
            -5.4943567514419556e-01 1.2766474485397339e-01</leafValues></_>
        <_>
          <internalNodes>
            0 -1 425 -3.5840634256601334e-02</internalNodes>
          <leafValues>
            -7.7388060092926025e-01 1.4844139106571674e-02</leafValues></_>
        <_>
          <internalNodes>
            0 -1 236 3.5876824404112995e-04</internalNodes>
          <leafValues>
            1.1061714589595795e-01 -3.2362022995948792e-01</leafValues></_>
        <_>
          <internalNodes>
            0 -1 236 -6.1640726926270872e-05</internalNodes>
          <leafValues>
            -2.9221960902214050e-01 1.4621740579605103e-01</leafValues></_>
        <_>
          <internalNodes>
            0 -1 489 3.7481082836166024e-04</internalNodes>
          <leafValues>
            -1.9025583565235138e-01 2.0778962969779968e-01</leafValues></_>
        <_>
          <internalNodes>
            0 -1 186 -6.2607713043689728e-03</internalNodes>
          <leafValues>
            2.0545113086700439e-01 -1.7602838575839996e-01</leafValues></_>
        <_>
          <internalNodes>
            0 -1 387 -9.0373336570337415e-04</internalNodes>
          <leafValues>
            2.6701223850250244e-01 -1.4712426066398621e-01</leafValues></_>
        <_>
          <internalNodes>
            0 -1 60 6.2707765027880669e-04</internalNodes>
          <leafValues>
            1.2587778270244598e-01 -3.5722121596336365e-01</leafValues></_>
        <_>
          <internalNodes>
            0 -1 52 -2.8190901502966881e-03</internalNodes>
          <leafValues>
            -5.6396734714508057e-01 7.9116165637969971e-02</leafValues></_>
        <_>
          <internalNodes>
            0 -1 51 4.3054120615124702e-03</internalNodes>
          <leafValues>
            7.5179114937782288e-02 -5.0375270843505859e-01</leafValues></_>
        <_>
          <internalNodes>
            0 -1 431 2.8300792910158634e-03</internalNodes>
          <leafValues>
            -1.0115218162536621e-01 4.4508925080299377e-01</leafValues></_>
        <_>
          <internalNodes>
            0 -1 412 -6.5071007702499628e-04</internalNodes>
          <leafValues>
            2.3951029777526855e-01 -1.6266737878322601e-01</leafValues></_>
        <_>
          <internalNodes>
            0 -1 410 1.0708713904023170e-02</internalNodes>
          <leafValues>
            -1.4901743829250336e-01 2.7717664837837219e-01</leafValues></_>
        <_>
          <internalNodes>
            0 -1 204 -1.4059027656912804e-02</internalNodes>
          <leafValues>
            -9.4887673854827881e-01 4.4388372451066971e-02</leafValues></_>
        <_>
          <internalNodes>
            0 -1 306 -8.0653335899114609e-03</internalNodes>
          <leafValues>
            -8.1780582666397095e-01 2.7820266783237457e-02</leafValues></_>
        <_>
          <internalNodes>
            0 -1 215 -2.9855147004127502e-03</internalNodes>
          <leafValues>
            2.9353934526443481e-01 -1.3347072899341583e-01</leafValues></_>
        <_>
          <internalNodes>
            0 -1 350 3.3229701220989227e-03</internalNodes>
          <leafValues>
            5.3892914205789566e-02 -8.3356839418411255e-01</leafValues></_>
        <_>
          <internalNodes>
            0 -1 349 2.0462465472519398e-03</internalNodes>
          <leafValues>
            -1.7920088768005371e-01 2.1026980876922607e-01</leafValues></_>
        <_>
          <internalNodes>
            0 -1 134 -1.9396108109503984e-03</internalNodes>
          <leafValues>
            2.9744824767112732e-01 -1.3831664621829987e-01</leafValues></_>
        <_>
          <internalNodes>
            0 -1 77 -8.8917687535285950e-03</internalNodes>
          <leafValues>
            5.5934023857116699e-01 -6.9952264428138733e-02</leafValues></_>
        <_>
          <internalNodes>
            0 -1 397 -1.6122687375172973e-03</internalNodes>
          <leafValues>
            2.5820180773735046e-01 -1.5175779163837433e-01</leafValues></_>
        <_>
          <internalNodes>
            0 -1 418 2.3338869214057922e-03</internalNodes>
          <leafValues>
            5.9388268738985062e-02 -6.6714686155319214e-01</leafValues></_>
        <_>
          <internalNodes>
            0 -1 382 -1.7630771035328507e-03</internalNodes>
          <leafValues>
            2.7315238118171692e-01 -1.4425309002399445e-01</leafValues></_>
        <_>
          <internalNodes>
            0 -1 306 6.5791979432106018e-03</internalNodes>
          <leafValues>
            6.5563105046749115e-02 -6.3650065660476685e-01</leafValues></_>
        <_>
          <internalNodes>
            0 -1 134 5.2455300465226173e-03</internalNodes>
          <leafValues>
            -1.0868233442306519e-01 3.9542841911315918e-01</leafValues></_>
        <_>
          <internalNodes>
            0 -1 354 -7.6826754957437515e-03</internalNodes>
          <leafValues>
            -9.8049521446228027e-01 4.7615855932235718e-02</leafValues></_>
        <_>
          <internalNodes>
            0 -1 293 2.0155851962044835e-04</internalNodes>
          <leafValues>
            8.4858052432537079e-02 -3.7242320179939270e-01</leafValues></_>
        <_>
          <internalNodes>
            0 -1 293 -1.8647339311428368e-04</internalNodes>
          <leafValues>
            -2.6873770356178284e-01 1.3806469738483429e-01</leafValues></_>
        <_>
          <internalNodes>
            0 -1 190 -2.4283975362777710e-02</internalNodes>
          <leafValues>
            6.0448491573333740e-01 -7.5516134500503540e-02</leafValues></_>
        <_>
          <internalNodes>
            0 -1 128 4.0789209306240082e-02</internalNodes>
          <leafValues>
            -7.4245914816856384e-02 6.1808812618255615e-01</leafValues></_>
        <_>
          <internalNodes>
            0 -1 395 5.1465786993503571e-02</internalNodes>
          <leafValues>
            5.6027345359325409e-02 -7.7778905630111694e-01</leafValues></_>
        <_>
          <internalNodes>
            0 -1 313 -5.5399294942617416e-03</internalNodes>
          <leafValues>
            -7.5548005104064941e-01 3.6379624158143997e-02</leafValues></_>
        <_>
          <internalNodes>
            0 -1 145 3.9966580516193062e-05</internalNodes>
          <leafValues>
            -1.8254628777503967e-01 1.9715404510498047e-01</leafValues></_>
        <_>
          <internalNodes>
            0 -1 371 -1.2106660287827253e-03</internalNodes>
          <leafValues>
            2.7275088429450989e-01 -1.3764452934265137e-01</leafValues></_>
        <_>
          <internalNodes>
            0 -1 102 -2.4476926773786545e-02</internalNodes>
          <leafValues>
            -7.3691433668136597e-01 5.2897371351718903e-02</leafValues></_>
        <_>
          <internalNodes>
            0 -1 388 -4.4037103652954102e-03</internalNodes>
          <leafValues>
            2.4457968771457672e-01 -1.4445587992668152e-01</leafValues></_>
        <_>
          <internalNodes>
            0 -1 194 3.9792150259017944e-02</internalNodes>
          <leafValues>
            5.0645120441913605e-02 -7.0132756233215332e-01</leafValues></_>
        <_>
          <internalNodes>
            0 -1 242 -1.5133856795728207e-03</internalNodes>
          <leafValues>
            2.5604176521301270e-01 -1.4780093729496002e-01</leafValues></_>
        <_>
          <internalNodes>
            0 -1 178 4.1164769791066647e-03</internalNodes>
          <leafValues>
            7.3260992765426636e-02 -5.4465967416763306e-01</leafValues></_>
        <_>
          <internalNodes>
            0 -1 64 -2.4094986915588379e-01</internalNodes>
          <leafValues>
            -9.1131371259689331e-01 3.7801872938871384e-02</leafValues></_>
        <_>
          <internalNodes>
            0 -1 430 -3.8131494075059891e-02</internalNodes>
          <leafValues>
            3.8656964898109436e-01 -1.0471392422914505e-01</leafValues></_></weakClassifiers></_>
    <!-- stage 17 -->
    <_>
      <maxWeakCount>45</maxWeakCount>
      <stageThreshold>-1.3706171512603760e+00</stageThreshold>
      <weakClassifiers>
        <_>
          <internalNodes>
            0 -1 214 -4.5685242861509323e-02</internalNodes>
          <leafValues>
            2.3412698507308960e-01 -2.7996119856834412e-01</leafValues></_>
        <_>
          <internalNodes>
            0 -1 27 1.0285854339599609e-02</internalNodes>
          <leafValues>
            -6.7014582455158234e-02 7.0205104351043701e-01</leafValues></_>
        <_>
          <internalNodes>
            0 -1 478 -3.5010683350265026e-03</internalNodes>
          <leafValues>
            5.5523979663848877e-01 -1.0478764772415161e-01</leafValues></_>
        <_>
          <internalNodes>
            0 -1 233 1.1264805216342211e-03</internalNodes>
          <leafValues>
            9.1402165591716766e-02 -4.7607529163360596e-01</leafValues></_>
        <_>
          <internalNodes>
            0 -1 234 -1.1977688700426370e-04</internalNodes>
          <leafValues>
            -2.6027798652648926e-01 2.2088336944580078e-01</leafValues></_>
        <_>
          <internalNodes>
            0 -1 309 -1.4640172594226897e-04</internalNodes>
          <leafValues>
            1.4912576973438263e-01 -2.6285237073898315e-01</leafValues></_>
        <_>
          <internalNodes>
            0 -1 144 4.9619039054960012e-04</internalNodes>
          <leafValues>
            -1.7182189226150513e-01 2.3804347217082977e-01</leafValues></_>
        <_>
          <internalNodes>
            0 -1 90 -8.9396710973232985e-04</internalNodes>
          <leafValues>
            2.4051137268543243e-01 -1.6905795037746429e-01</leafValues></_>
        <_>
          <internalNodes>
            0 -1 302 -7.9486891627311707e-04</internalNodes>
          <leafValues>
            2.6177951693534851e-01 -1.4021681249141693e-01</leafValues></_>
        <_>
          <internalNodes>
            0 -1 459 -5.4376898333430290e-04</internalNodes>
          <leafValues>
            -4.1918069124221802e-01 9.8783537745475769e-02</leafValues></_>
        <_>
          <internalNodes>
            0 -1 234 1.1386688856873661e-04</internalNodes>
          <leafValues>
            1.5617719292640686e-01 -2.5935313105583191e-01</leafValues></_>
        <_>
          <internalNodes>
            0 -1 24 -3.1954192090779543e-03</internalNodes>
          <leafValues>
            2.2062011063098907e-01 -1.6943797469139099e-01</leafValues></_>
        <_>
          <internalNodes>
            0 -1 78 -1.3004602864384651e-02</internalNodes>
          <leafValues>
            3.3046934008598328e-01 -1.1355783790349960e-01</leafValues></_>
        <_>
          <internalNodes>
            0 -1 364 -1.5659190248697996e-03</internalNodes>
          <leafValues>
            2.8887465596199036e-01 -1.2719422578811646e-01</leafValues></_>
        <_>
          <internalNodes>
            0 -1 364 1.8128972733393312e-03</internalNodes>
          <leafValues>
            -1.0735226422548294e-01 3.1962698698043823e-01</leafValues></_>
        <_>
          <internalNodes>
            0 -1 20 -2.9288412770256400e-04</internalNodes>
          <leafValues>
            -2.6920703053474426e-01 1.3205531239509583e-01</leafValues></_>
        <_>
          <internalNodes>
            0 -1 227 -6.2386561185121536e-03</internalNodes>
          <leafValues>
            3.2022279500961304e-01 -1.3590177893638611e-01</leafValues></_>
        <_>
          <internalNodes>
            0 -1 419 -4.3234572513028979e-04</internalNodes>
          <leafValues>
            2.4593119323253632e-01 -1.6496703028678894e-01</leafValues></_>
        <_>
          <internalNodes>
            0 -1 220 -3.9613507688045502e-03</internalNodes>
          <leafValues>
            -4.8076081275939941e-01 9.4770081341266632e-02</leafValues></_>
        <_>
          <internalNodes>
            0 -1 492 1.6996667254716158e-03</internalNodes>
          <leafValues>
            4.0744703263044357e-02 -6.1300218105316162e-01</leafValues></_>
        <_>
          <internalNodes>
            0 -1 122 -1.5767989680171013e-02</internalNodes>
          <leafValues>
            5.3734064102172852e-01 -8.3652898669242859e-02</leafValues></_>
        <_>
          <internalNodes>
            0 -1 366 3.4339420497417450e-02</internalNodes>
          <leafValues>
            4.7939073294401169e-02 -8.3927643299102783e-01</leafValues></_>
        <_>
          <internalNodes>
            0 -1 133 2.5424573570489883e-02</internalNodes>
          <leafValues>
            4.3202750384807587e-02 -6.7029470205307007e-01</leafValues></_>
        <_>
          <internalNodes>
            0 -1 41 4.8700589686632156e-03</internalNodes>
          <leafValues>
            -8.3932846784591675e-02 4.7958371043205261e-01</leafValues></_>
        <_>
          <internalNodes>
            0 -1 41 -3.7214099429547787e-03</internalNodes>
          <leafValues>
            3.2612702250480652e-01 -1.1642890423536301e-01</leafValues></_>
        <_>
          <internalNodes>
            0 -1 120 3.2518252730369568e-02</internalNodes>
          <leafValues>
            -5.6867472827434540e-02 6.5065956115722656e-01</leafValues></_>
        <_>
          <internalNodes>
            0 -1 57 1.2273875763639808e-03</internalNodes>
          <leafValues>
            8.7517485022544861e-02 -5.0533151626586914e-01</leafValues></_>
        <_>
          <internalNodes>
            0 -1 123 -9.8817329853773117e-04</internalNodes>
          <leafValues>
            -5.0033134222030640e-01 7.1774810552597046e-02</leafValues></_>
        <_>
          <internalNodes>
            0 -1 55 6.9041026290506124e-04</internalNodes>
          <leafValues>
            -1.5815535187721252e-01 2.5750425457954407e-01</leafValues></_>
        <_>
          <internalNodes>
            0 -1 424 9.1701059136539698e-04</internalNodes>
          <leafValues>
            -1.6547577083110809e-01 2.2285386919975281e-01</leafValues></_>
        <_>
          <internalNodes>
            0 -1 447 -9.1806880664080381e-04</internalNodes>
          <leafValues>
            -4.6500414609909058e-01 8.7720222771167755e-02</leafValues></_>
        <_>
          <internalNodes>
            0 -1 341 9.1371998190879822e-02</internalNodes>
          <leafValues>
            4.0353145450353622e-02 -8.2327926158905029e-01</leafValues></_>
        <_>
          <internalNodes>
            0 -1 203 3.3069038181565702e-05</internalNodes>
          <leafValues>
            -1.8276087939739227e-01 1.9695998728275299e-01</leafValues></_>
        <_>
          <internalNodes>
            0 -1 125 -4.8464424908161163e-03</internalNodes>
          <leafValues>
            2.7197745442390442e-01 -1.3618826866149902e-01</leafValues></_>
        <_>
          <internalNodes>
            0 -1 158 -1.0693538933992386e-02</internalNodes>
          <leafValues>
            2.9979029297828674e-01 -1.2266246229410172e-01</leafValues></_>
        <_>
          <internalNodes>
            0 -1 212 1.8754976917989552e-04</internalNodes>
          <leafValues>
            1.3174344599246979e-01 -2.8595077991485596e-01</leafValues></_>
        <_>
          <internalNodes>
            0 -1 212 -2.4899485288187861e-04</internalNodes>
          <leafValues>
            -3.8751050829887390e-01 1.1952406167984009e-01</leafValues></_>
        <_>
          <internalNodes>
            0 -1 331 4.0356368117500097e-05</internalNodes>
          <leafValues>
            -2.0643810927867889e-01 1.8086591362953186e-01</leafValues></_>
        <_>
          <internalNodes>
            0 -1 19 9.6402568742632866e-03</internalNodes>
          <leafValues>
            5.1923729479312897e-02 -7.4842149019241333e-01</leafValues></_>
        <_>
          <internalNodes>
            0 -1 109 -5.4225474596023560e-03</internalNodes>
          <leafValues>
            3.1832325458526611e-01 -1.1963012814521790e-01</leafValues></_>
        <_>
          <internalNodes>
            0 -1 79 -2.4111040402203798e-03</internalNodes>
          <leafValues>
            4.1506105661392212e-01 -1.0174302756786346e-01</leafValues></_>
        <_>
          <internalNodes>
            0 -1 347 -5.0681963562965393e-02</internalNodes>
          <leafValues>
            -9.0068405866622925e-01 4.2647909373044968e-02</leafValues></_>
        <_>
          <internalNodes>
            0 -1 393 9.3793345149606466e-04</internalNodes>
          <leafValues>
            -1.5848521888256073e-01 2.1610856056213379e-01</leafValues></_>
        <_>
          <internalNodes>
            0 -1 317 5.6450086412951350e-04</internalNodes>
          <leafValues>
            8.3764299750328064e-02 -4.1158360242843628e-01</leafValues></_>
        <_>
          <internalNodes>
            0 -1 143 1.7178981797769666e-03</internalNodes>
          <leafValues>
            -1.0798604786396027e-01 3.5025778412818909e-01</leafValues></_></weakClassifiers></_>
    <!-- stage 18 -->
    <_>
      <maxWeakCount>45</maxWeakCount>
      <stageThreshold>-1.2082679271697998e+00</stageThreshold>
      <weakClassifiers>
        <_>
          <internalNodes>
            0 -1 184 4.6675048768520355e-02</internalNodes>
          <leafValues>
            -3.3451119065284729e-01 1.6557256877422333e-01</leafValues></_>
        <_>
          <internalNodes>
            0 -1 100 1.4533234760165215e-02</internalNodes>
          <leafValues>
            -8.1975340843200684e-02 5.4123836755752563e-01</leafValues></_>
        <_>
          <internalNodes>
            0 -1 258 -1.7597697442397475e-03</internalNodes>
          <leafValues>
            2.3948051035404205e-01 -1.8137428164482117e-01</leafValues></_>
        <_>
          <internalNodes>
            0 -1 475 7.6465667225420475e-03</internalNodes>
          <leafValues>
