<?xml version="1.0"?>
<opencv_storage>
<cascade>
  <stageType>BOOST</stageType>
  <featureType>HAAR</featureType>
  <height>20</height>
  <width>20</width>
  <stageParams>
    <boostType>GAB</boostType>
    <minHitRate>9.9900001287460327e-01</minHitRate>
    <maxFalseAlarm>5.0000000000000000e-01</maxFalseAlarm>
    <weightTrimRate>9.4999999999999996e-01</weightTrimRate>
    <maxDepth>1</maxDepth>
    <maxWeakCount>100</maxWeakCount></stageParams>
  <featureParams>
    <maxCatCount>0</maxCatCount>
    <featSize>1</featSize>
    <mode>ALL</mode></featureParams>
  <stageNum>20</stageNum>
  <stages>
    <!-- stage 0 -->
    <_>
      <maxWeakCount>9</maxWeakCount>
      <stageThreshold>-1.3095929622650146e+00</stageThreshold>
      <weakClassifiers>
        <_>
          <internalNodes>
            0 -1 195 -2.6484239101409912e-01</internalNodes>
          <leafValues>
            9.0476191043853760e-01 -3.4987169504165649e-01</leafValues></_>
        <_>
          <internalNodes>
            0 -1 16 1.1419051885604858e-01</internalNodes>
          <leafValues>
            2.2209110856056213e-01 -9.5532900094985962e-01</leafValues></_>
        <_>
          <internalNodes>
            0 -1 215 3.1925506889820099e-02</internalNodes>
          <leafValues>
            -3.9540976285934448e-01 3.9465677738189697e-01</leafValues></_>
        <_>
          <internalNodes>
            0 -1 5 -1.7030556499958038e-01</internalNodes>
          <leafValues>
            -8.5012537240982056e-01 2.2383905947208405e-01</leafValues></_>
        <_>
          <internalNodes>
            0 -1 117 1.4948997646570206e-02</internalNodes>
          <leafValues>
            -3.1684511899948120e-01 7.1383553743362427e-01</leafValues></_>
        <_>
          <internalNodes>
            0 -1 314 4.1453704237937927e-02</internalNodes>
          <leafValues>
            -2.4790528416633606e-01 5.8319091796875000e-01</leafValues></_>
        <_>
          <internalNodes>
            0 -1 177 8.4387585520744324e-02</internalNodes>
          <leafValues>
            -3.2051068544387817e-01 4.8537349700927734e-01</leafValues></_>
        <_>
          <internalNodes>
            0 -1 150 4.5263372361660004e-02</internalNodes>
          <leafValues>
            -3.9600503444671631e-01 4.6300566196441650e-01</leafValues></_>
        <_>
          <internalNodes>
            0 -1 56 8.7571708718314767e-05</internalNodes>
          <leafValues>
            2.7102446556091309e-01 -5.1298129558563232e-01</leafValues></_></weakClassifiers></_>
    <!-- stage 1 -->
    <_>
      <maxWeakCount>11</maxWeakCount>
      <stageThreshold>-1.6039474010467529e+00</stageThreshold>
      <weakClassifiers>
        <_>
          <internalNodes>
            0 -1 233 6.3734620809555054e-02</internalNodes>
          <leafValues>
            -4.2801931500434875e-01 6.6575342416763306e-01</leafValues></_>
        <_>
          <internalNodes>
            0 -1 143 1.5610562637448311e-02</internalNodes>
          <leafValues>
            -3.8603565096855164e-01 4.9235805869102478e-01</leafValues></_>
        <_>
          <internalNodes>
            0 -1 227 5.7719305157661438e-02</internalNodes>
          <leafValues>
            -2.0408582687377930e-01 8.1885021924972534e-01</leafValues></_>
        <_>
          <internalNodes>
            0 -1 184 1.5536408871412277e-02</internalNodes>
          <leafValues>
            -2.6875606179237366e-01 7.1107858419418335e-01</leafValues></_>
        <_>
          <internalNodes>
            0 -1 234 8.9387800544500351e-03</internalNodes>
          <leafValues>
            -1.9111394882202148e-01 7.6136577129364014e-01</leafValues></_>
        <_>
          <internalNodes>
            0 -1 83 1.2617453932762146e-02</internalNodes>
          <leafValues>
            -2.6146221160888672e-01 5.3043675422668457e-01</leafValues></_>
        <_>
          <internalNodes>
            0 -1 171 8.0590993165969849e-02</internalNodes>
          <leafValues>
            -1.9530764222145081e-01 8.1997716426849365e-01</leafValues></_>
        <_>
          <internalNodes>
            0 -1 208 3.9744183421134949e-02</internalNodes>
          <leafValues>
            2.4053785204887390e-01 -7.0626682043075562e-01</leafValues></_>
        <_>
          <internalNodes>
            0 -1 347 -2.8507303446531296e-02</internalNodes>
          <leafValues>
            5.8920669555664062e-01 -2.6301488280296326e-01</leafValues></_>
        <_>
          <internalNodes>
            0 -1 375 3.0889520421624184e-03</internalNodes>
          <leafValues>
            -2.6738610863685608e-01 6.0167354345321655e-01</leafValues></_>
        <_>
          <internalNodes>
            0 -1 101 8.1798247992992401e-03</internalNodes>
          <leafValues>
            -2.5769734382629395e-01 5.3981131315231323e-01</leafValues></_></weakClassifiers></_>
    <!-- stage 2 -->
    <_>
      <maxWeakCount>12</maxWeakCount>
      <stageThreshold>-1.1373573541641235e+00</stageThreshold>
      <weakClassifiers>
        <_>
          <internalNodes>
            0 -1 382 -9.3721989542245865e-03</internalNodes>
          <leafValues>
            6.2326872348785400e-01 -4.0904715657234192e-01</leafValues></_>
        <_>
          <internalNodes>
            0 -1 330 6.1881732195615768e-02</internalNodes>
          <leafValues>
            -2.5781309604644775e-01 6.2583065032958984e-01</leafValues></_>
        <_>
          <internalNodes>
            0 -1 357 1.3403013348579407e-02</internalNodes>
          <leafValues>
            -2.4749176204204559e-01 6.2904340028762817e-01</leafValues></_>
        <_>
          <internalNodes>
            0 -1 44 -4.8532392829656601e-03</internalNodes>
          <leafValues>
            6.8927633762359619e-01 -1.7902825772762299e-01</leafValues></_>
        <_>
          <internalNodes>
            0 -1 85 -1.4134539291262627e-02</internalNodes>
          <leafValues>
            7.4202257394790649e-01 -1.4790914952754974e-01</leafValues></_>
        <_>
          <internalNodes>
            0 -1 11 6.0306098312139511e-03</internalNodes>
          <leafValues>
            -3.2071375846862793e-01 5.2404832839965820e-01</leafValues></_>
        <_>
          <internalNodes>
            0 -1 26 -6.3893385231494904e-03</internalNodes>
          <leafValues>
            6.4162170886993408e-01 -2.4744518101215363e-01</leafValues></_>
        <_>
          <internalNodes>
            0 -1 72 7.6012238860130310e-02</internalNodes>
          <leafValues>
            -2.0179840922355652e-01 6.5963333845138550e-01</leafValues></_>
        <_>
          <internalNodes>
            0 -1 242 6.2518797814846039e-02</internalNodes>
          <leafValues>
            -1.8062898516654968e-01 7.2996455430984497e-01</leafValues></_>
        <_>
          <internalNodes>
            0 -1 311 3.6022782325744629e-02</internalNodes>
          <leafValues>
            -2.4841140210628510e-01 6.1139136552810669e-01</leafValues></_>
        <_>
          <internalNodes>
            0 -1 384 -1.4863449614495039e-03</internalNodes>
          <leafValues>
            8.3126515150070190e-01 -1.1948604881763458e-01</leafValues></_>
        <_>
          <internalNodes>
            0 -1 391 -5.0637465901672840e-03</internalNodes>
          <leafValues>
            5.4588073492050171e-01 -2.2142818570137024e-01</leafValues></_></weakClassifiers></_>
    <!-- stage 3 -->
    <_>
      <maxWeakCount>13</maxWeakCount>
      <stageThreshold>-1.3159127235412598e+00</stageThreshold>
      <weakClassifiers>
        <_>
          <internalNodes>
            0 -1 164 -8.1453934311866760e-02</internalNodes>
          <leafValues>
            7.1428573131561279e-01 -3.4391534328460693e-01</leafValues></_>
        <_>
          <internalNodes>
            0 -1 122 4.9077793955802917e-02</internalNodes>
          <leafValues>
            2.6046189665794373e-01 -5.1852226257324219e-01</leafValues></_>
        <_>
          <internalNodes>
            0 -1 103 -1.8819678574800491e-02</internalNodes>
          <leafValues>
            6.6823381185531616e-01 -1.8027177453041077e-01</leafValues></_>
        <_>
          <internalNodes>
            0 -1 236 2.0863804966211319e-02</internalNodes>
          <leafValues>
            -3.2127445936203003e-01 3.6295086145401001e-01</leafValues></_>
        <_>
          <internalNodes>
            0 -1 260 7.7574895694851875e-03</internalNodes>
          <leafValues>
            -1.6459594666957855e-01 6.6496962308883667e-01</leafValues></_>
        <_>
          <internalNodes>
            0 -1 274 -1.6385796698159538e-05</internalNodes>
          <leafValues>
            3.2790601253509521e-01 -3.0189400911331177e-01</leafValues></_>
        <_>
          <internalNodes>
            0 -1 169 3.1190173700451851e-02</internalNodes>
          <leafValues>
            -1.3252788782119751e-01 7.5884371995925903e-01</leafValues></_>
        <_>
          <internalNodes>
            0 -1 88 1.0549774020910263e-01</internalNodes>
          <leafValues>
            -2.1514725685119629e-01 5.0695651769638062e-01</leafValues></_>
        <_>
          <internalNodes>
            0 -1 206 -5.6983251124620438e-02</internalNodes>
          <leafValues>
            6.5635764598846436e-01 -1.5655604004859924e-01</leafValues></_>
        <_>
          <internalNodes>
            0 -1 299 2.1584454923868179e-02</internalNodes>
          <leafValues>
            -1.8601924180984497e-01 5.5817270278930664e-01</leafValues></_>
        <_>
          <internalNodes>
            0 -1 370 1.2130459770560265e-02</internalNodes>
          <leafValues>
            -1.3981588184833527e-01 7.1008402109146118e-01</leafValues></_>
        <_>
          <internalNodes>
            0 -1 355 -1.4370003715157509e-02</internalNodes>
          <leafValues>
            5.9379673004150391e-01 -1.7796471714973450e-01</leafValues></_>
        <_>
          <internalNodes>
            0 -1 319 -1.4669081792817451e-05</internalNodes>
          <leafValues>
            3.7920135259628296e-01 -2.7980095148086548e-01</leafValues></_></weakClassifiers></_>
    <!-- stage 4 -->
    <_>
      <maxWeakCount>16</maxWeakCount>
      <stageThreshold>-1.0140641927719116e+00</stageThreshold>
      <weakClassifiers>
        <_>
          <internalNodes>
            0 -1 360 6.2253646552562714e-02</internalNodes>
          <leafValues>
            -3.7132352590560913e-01 6.5384614467620850e-01</leafValues></_>
        <_>
          <internalNodes>
            0 -1 356 -1.8633767962455750e-02</internalNodes>
          <leafValues>
            7.0587396621704102e-01 -1.6549257934093475e-01</leafValues></_>
        <_>
          <internalNodes>
            0 -1 0 -5.1465310389176011e-04</internalNodes>
          <leafValues>
            -6.4894092082977295e-01 1.7899444699287415e-01</leafValues></_>
        <_>
          <internalNodes>
            0 -1 183 -4.4856006279587746e-03</internalNodes>
          <leafValues>
            7.0438373088836670e-01 -1.6097648441791534e-01</leafValues></_>
        <_>
          <internalNodes>
            0 -1 185 9.4407889991998672e-03</internalNodes>
          <leafValues>
            -1.7513678967952728e-01 6.9133508205413818e-01</leafValues></_>
        <_>
          <internalNodes>
            0 -1 0 5.6418823078274727e-04</internalNodes>
          <leafValues>
            3.2444298267364502e-01 -3.6219975352287292e-01</leafValues></_>
        <_>
          <internalNodes>
            0 -1 209 9.7280919551849365e-02</internalNodes>
          <leafValues>
            -2.6731610298156738e-01 5.7675254344940186e-01</leafValues></_>
        <_>
          <internalNodes>
            0 -1 289 -8.2835869397968054e-04</internalNodes>
          <leafValues>
            -4.3328958749771118e-01 2.5072279572486877e-01</leafValues></_>
        <_>
          <internalNodes>
            0 -1 246 5.4461637046188116e-04</internalNodes>
          <leafValues>
            2.3206101357936859e-01 -4.8755833506584167e-01</leafValues></_>
        <_>
          <internalNodes>
            0 -1 276 1.9709898158907890e-02</internalNodes>
          <leafValues>
            -3.0806088447570801e-01 3.6818510293960571e-01</leafValues></_>
        <_>
          <internalNodes>
            0 -1 308 4.2902538552880287e-03</internalNodes>
          <leafValues>
            -1.2232559174299240e-01 6.7298656702041626e-01</leafValues></_>
        <_>
          <internalNodes>
            0 -1 304 -4.2165503837168217e-03</internalNodes>
          <leafValues>
            6.7624193429946899e-01 -1.5996146202087402e-01</leafValues></_>
        <_>
          <internalNodes>
            0 -1 69 6.3904620707035065e-02</internalNodes>
          <leafValues>
            -1.6342955827713013e-01 6.5084475278854370e-01</leafValues></_>
        <_>
          <internalNodes>
            0 -1 325 -4.9904722254723310e-04</internalNodes>
          <leafValues>
            -5.3626829385757446e-01 2.0803663134574890e-01</leafValues></_>
        <_>
          <internalNodes>
            0 -1 14 -1.6142316162586212e-02</internalNodes>
          <leafValues>
            7.1598905324935913e-01 -1.4639507234096527e-01</leafValues></_>
        <_>
          <internalNodes>
            0 -1 2 1.4439291320741177e-02</internalNodes>
          <leafValues>
            -1.5750722587108612e-01 6.3896518945693970e-01</leafValues></_></weakClassifiers></_>
    <!-- stage 5 -->
    <_>
      <maxWeakCount>15</maxWeakCount>
      <stageThreshold>-1.4113110303878784e+00</stageThreshold>
      <weakClassifiers>
        <_>
          <internalNodes>
            0 -1 159 -3.6134088039398193e-01</internalNodes>
          <leafValues>
            8.1395345926284790e-01 -2.7687296271324158e-01</leafValues></_>
        <_>
          <internalNodes>
            0 -1 37 -9.0648815035820007e-02</internalNodes>
          <leafValues>
            -6.9150692224502563e-01 1.6093017160892487e-01</leafValues></_>
        <_>
          <internalNodes>
            0 -1 187 1.6077384352684021e-02</internalNodes>
          <leafValues>
            -2.3172274231910706e-01 5.8041375875473022e-01</leafValues></_>
        <_>
          <internalNodes>
            0 -1 325 5.7657150318846107e-04</internalNodes>
          <leafValues>
            2.5459426641464233e-01 -5.4330641031265259e-01</leafValues></_>
        <_>
          <internalNodes>
            0 -1 42 1.6335910558700562e-01</internalNodes>
          <leafValues>
            1.1518415063619614e-01 -8.8186866044998169e-01</leafValues></_>
        <_>
          <internalNodes>
            0 -1 168 -1.8347494304180145e-02</internalNodes>
          <leafValues>
            6.9542348384857178e-01 -1.6039393842220306e-01</leafValues></_>
        <_>
          <internalNodes>
            0 -1 38 7.2941102553158998e-04</internalNodes>
          <leafValues>
            1.4750239253044128e-01 -6.4663654565811157e-01</leafValues></_>
        <_>
          <internalNodes>
            0 -1 180 -5.8032516390085220e-02</internalNodes>
          <leafValues>
            7.0268899202346802e-01 -1.3762283325195312e-01</leafValues></_>
        <_>
          <internalNodes>
            0 -1 229 -9.0434524463489652e-04</internalNodes>
          <leafValues>
            -5.0343108177185059e-01 1.9639326632022858e-01</leafValues></_>
        <_>
          <internalNodes>
            0 -1 211 1.8674457445740700e-02</internalNodes>
          <leafValues>
            -3.2730457186698914e-01 3.1647941470146179e-01</leafValues></_>
        <_>
          <internalNodes>
            0 -1 259 2.6376466266810894e-03</internalNodes>
          <leafValues>
            -1.9071854650974274e-01 4.9010497331619263e-01</leafValues></_>
        <_>
          <internalNodes>
            0 -1 167 3.8793250918388367e-02</internalNodes>
          <leafValues>
            -1.8002735078334808e-01 5.3860729932785034e-01</leafValues></_>
        <_>
          <internalNodes>
            0 -1 58 2.8298955294303596e-04</internalNodes>
          <leafValues>
            1.8999364972114563e-01 -5.0423419475555420e-01</leafValues></_>
        <_>
          <internalNodes>
            0 -1 380 -7.0193782448768616e-03</internalNodes>
          <leafValues>
            6.5606325864791870e-01 -1.5199059247970581e-01</leafValues></_>
        <_>
          <internalNodes>
            0 -1 102 -1.6405947506427765e-02</internalNodes>
          <leafValues>
            6.5241014957427979e-01 -1.2502755224704742e-01</leafValues></_></weakClassifiers></_>
    <!-- stage 6 -->
    <_>
      <maxWeakCount>18</maxWeakCount>
      <stageThreshold>-1.3850926160812378e+00</stageThreshold>
      <weakClassifiers>
        <_>
          <internalNodes>
            0 -1 282 6.5330892801284790e-02</internalNodes>
          <leafValues>
            -3.7524557113647461e-01 4.7643980383872986e-01</leafValues></_>
        <_>
          <internalNodes>
            0 -1 256 -2.6760199034470133e-05</internalNodes>
          <leafValues>
            2.7472156286239624e-01 -4.5370104908943176e-01</leafValues></_>
        <_>
          <internalNodes>
            0 -1 387 -1.4264804121921770e-05</internalNodes>
          <leafValues>
            3.5099536180496216e-01 -2.9866069555282593e-01</leafValues></_>
        <_>
          <internalNodes>
            0 -1 137 -1.7711505279294215e-05</internalNodes>
          <leafValues>
            3.5591647028923035e-01 -2.4396403133869171e-01</leafValues></_>
        <_>
          <internalNodes>
            0 -1 7 2.2299403324723244e-02</internalNodes>
          <leafValues>
            -1.3611547648906708e-01 6.7129993438720703e-01</leafValues></_>
        <_>
          <internalNodes>
            0 -1 32 1.0192707180976868e-02</internalNodes>
          <leafValues>
            -2.0860502123832703e-01 3.9280867576599121e-01</leafValues></_>
        <_>
          <internalNodes>
            0 -1 388 -7.6799872331321239e-03</internalNodes>
          <leafValues>
            5.9528034925460815e-01 -2.0433481037616730e-01</leafValues></_>
        <_>
          <internalNodes>
            0 -1 249 4.8046853393316269e-02</internalNodes>
          <leafValues>
            1.3045623898506165e-01 -8.3286017179489136e-01</leafValues></_>
        <_>
          <internalNodes>
            0 -1 389 -9.8878704011440277e-03</internalNodes>
          <leafValues>
            5.1711142063140869e-01 -1.9068081676959991e-01</leafValues></_>
        <_>
          <internalNodes>
            0 -1 297 5.6148841977119446e-03</internalNodes>
          <leafValues>
            -2.5735959410667419e-01 3.4747001528739929e-01</leafValues></_>
        <_>
          <internalNodes>
            0 -1 98 1.2958508729934692e-01</internalNodes>
          <leafValues>
            -2.1719783544540405e-01 4.7685158252716064e-01</leafValues></_>
        <_>
          <internalNodes>
            0 -1 59 5.5594444274902344e-02</internalNodes>
          <leafValues>
            -2.1147504448890686e-01 3.9683392643928528e-01</leafValues></_>
        <_>
          <internalNodes>
            0 -1 238 9.2144280672073364e-02</internalNodes>
          <leafValues>
            -1.6340783238410950e-01 5.7217031717300415e-01</leafValues></_>
        <_>
          <internalNodes>
            0 -1 99 -3.8393214344978333e-02</internalNodes>
          <leafValues>
            5.0198185443878174e-01 -2.1018752455711365e-01</leafValues></_>
        <_>
          <internalNodes>
            0 -1 31 7.5305933132767677e-03</internalNodes>
          <leafValues>
            -1.3090609014034271e-01 6.2256163358688354e-01</leafValues></_>
        <_>
          <internalNodes>
            0 -1 30 -7.4768494814634323e-03</internalNodes>
          <leafValues>
            5.2856272459030151e-01 -1.5981984138488770e-01</leafValues></_>
        <_>
          <internalNodes>
            0 -1 245 5.2912242710590363e-02</internalNodes>
          <leafValues>
            -2.6670148968696594e-01 3.4131935238838196e-01</leafValues></_>
        <_>
          <internalNodes>
            0 -1 118 -1.6486130189150572e-03</internalNodes>
          <leafValues>
            -5.7179588079452515e-01 1.6739229857921600e-01</leafValues></_></weakClassifiers></_>
    <!-- stage 7 -->
    <_>
      <maxWeakCount>19</maxWeakCount>
      <stageThreshold>-1.0838946104049683e+00</stageThreshold>
      <weakClassifiers>
        <_>
          <internalNodes>
            0 -1 315 -1.1529389023780823e-01</internalNodes>
          <leafValues>
            8.7341773509979248e-01 -2.7214169502258301e-01</leafValues></_>
        <_>
          <internalNodes>
            0 -1 217 2.9189174529165030e-04</internalNodes>
          <leafValues>
            1.8133097887039185e-01 -4.7578164935112000e-01</leafValues></_>
        <_>
          <internalNodes>
            0 -1 36 6.8947696126997471e-04</internalNodes>
          <leafValues>
            1.9875819981098175e-01 -4.4543021917343140e-01</leafValues></_>
        <_>
          <internalNodes>
            0 -1 35 -3.8088770816102624e-04</internalNodes>
          <leafValues>
            -4.9151048064231873e-01 2.0902301371097565e-01</leafValues></_>
        <_>
          <internalNodes>
            0 -1 111 6.9673638790845871e-04</internalNodes>
          <leafValues>
            1.4757245779037476e-01 -5.7105857133865356e-01</leafValues></_>
        <_>
          <internalNodes>
            0 -1 116 2.6964575052261353e-02</internalNodes>
          <leafValues>
            -9.9394671618938446e-02 8.3034342527389526e-01</leafValues></_>
        <_>
          <internalNodes>
            0 -1 112 -2.5505700614303350e-04</internalNodes>
          <leafValues>
            -4.3390581011772156e-01 2.1970742940902710e-01</leafValues></_>
        <_>
          <internalNodes>
            0 -1 392 8.6333695799112320e-03</internalNodes>
          <leafValues>
            -1.6967511177062988e-01 4.8245251178741455e-01</leafValues></_>
        <_>
          <internalNodes>
            0 -1 123 1.5945741534233093e-01</internalNodes>
          <leafValues>
            -1.3738287985324860e-01 5.5640703439712524e-01</leafValues></_>
        <_>
          <internalNodes>
            0 -1 221 -4.3344080448150635e-02</internalNodes>
          <leafValues>
            5.2295005321502686e-01 -1.7108894884586334e-01</leafValues></_>
        <_>
          <internalNodes>
            0 -1 130 1.6179446130990982e-02</internalNodes>
          <leafValues>
            -3.5510993003845215e-01 2.4448528885841370e-01</leafValues></_>
        <_>
          <internalNodes>
            0 -1 24 -5.3630135953426361e-03</internalNodes>
          <leafValues>
            7.2296756505966187e-01 -8.3978042006492615e-02</leafValues></_>
        <_>
          <internalNodes>
            0 -1 320 2.5868986267596483e-04</internalNodes>
          <leafValues>
            1.7868687212467194e-01 -4.9729719758033752e-01</leafValues></_>
        <_>
          <internalNodes>
            0 -1 27 8.1296823918819427e-02</internalNodes>
          <leafValues>
            -2.3447272181510925e-01 3.8778746128082275e-01</leafValues></_>
        <_>
          <internalNodes>
            0 -1 349 3.3062475267797709e-04</internalNodes>
          <leafValues>
            1.9286176562309265e-01 -4.5390003919601440e-01</leafValues></_>
        <_>
          <internalNodes>
            0 -1 66 1.3366395607590675e-02</internalNodes>
          <leafValues>
            -1.6302214562892914e-01 6.0587173700332642e-01</leafValues></_>
        <_>
          <internalNodes>
            0 -1 278 2.5091109797358513e-02</internalNodes>
          <leafValues>
            -2.3361831903457642e-01 3.2969513535499573e-01</leafValues></_>
        <_>
          <internalNodes>
            0 -1 331 -5.2209325134754181e-02</internalNodes>
          <leafValues>
            6.1146241426467896e-01 -1.2810312211513519e-01</leafValues></_>
        <_>
          <internalNodes>
            0 -1 306 1.5176822431385517e-02</internalNodes>
          <leafValues>
            -1.7681099474430084e-01 4.8282489180564880e-01</leafValues></_></weakClassifiers></_>
    <!-- stage 8 -->
    <_>
      <maxWeakCount>16</maxWeakCount>
      <stageThreshold>-1.0498884916305542e+00</stageThreshold>
      <weakClassifiers>
        <_>
          <internalNodes>
            0 -1 365 2.3377856239676476e-02</internalNodes>
          <leafValues>
            -3.4489402174949646e-01 4.3646410107612610e-01</leafValues></_>
        <_>
          <internalNodes>
            0 -1 381 -1.8489956855773926e-02</internalNodes>
          <leafValues>
            6.6556560993194580e-01 -1.2859164178371429e-01</leafValues></_>
        <_>
          <internalNodes>
            0 -1 129 -4.9118477851152420e-02</internalNodes>
          <leafValues>
            6.5753477811813354e-01 -1.3699878752231598e-01</leafValues></_>
        <_>
          <internalNodes>
            0 -1 165 7.7405497431755066e-02</internalNodes>
          <leafValues>
            -2.4073876440525055e-01 4.0122458338737488e-01</leafValues></_>
        <_>
          <internalNodes>
            0 -1 358 -1.6895403387024999e-03</internalNodes>
          <leafValues>
            5.8273321390151978e-01 -1.3088203966617584e-01</leafValues></_>
        <_>
          <internalNodes>
            0 -1 372 2.8326881583780050e-03</internalNodes>
          <leafValues>
            -1.5692920982837677e-01 7.2831314802169800e-01</leafValues></_>
        <_>
          <internalNodes>
            0 -1 146 1.7108473926782608e-02</internalNodes>
          <leafValues>
            -1.2939596176147461e-01 5.5909252166748047e-01</leafValues></_>
        <_>
          <internalNodes>
            0 -1 148 -2.4102097377181053e-02</internalNodes>
          <leafValues>
            6.9359809160232544e-01 -1.1396820098161697e-01</leafValues></_>
        <_>
          <internalNodes>
            0 -1 29 5.5602765642106533e-03</internalNodes>
          <leafValues>
            -1.6068178415298462e-01 5.7140964269638062e-01</leafValues></_>
        <_>
          <internalNodes>
            0 -1 397 -1.9118905765935779e-04</internalNodes>
          <leafValues>
            -4.0929180383682251e-01 2.4263715744018555e-01</leafValues></_>
        <_>
          <internalNodes>
            0 -1 300 3.5735053825192153e-04</internalNodes>
          <leafValues>
            1.9637461006641388e-01 -4.9355104565620422e-01</leafValues></_>
        <_>
          <internalNodes>
            0 -1 140 2.6268312707543373e-02</internalNodes>
          <leafValues>
            -1.1615663766860962e-01 7.1766483783721924e-01</leafValues></_>
        <_>
          <internalNodes>
            0 -1 145 1.0873809456825256e-02</internalNodes>
          <leafValues>
            -2.7853542566299438e-01 3.0188766121864319e-01</leafValues></_>
        <_>
          <internalNodes>
            0 -1 318 -8.2825221121311188e-02</internalNodes>
          <leafValues>
            8.0316805839538574e-01 -1.2705992162227631e-01</leafValues></_>
        <_>
          <internalNodes>
            0 -1 240 -2.9937200248241425e-02</internalNodes>
          <leafValues>
            4.3451276421546936e-01 -1.6764366626739502e-01</leafValues></_>
        <_>
          <internalNodes>
            0 -1 288 -1.3322636950761080e-03</internalNodes>
          <leafValues>
            -5.5046242475509644e-01 2.0673969388008118e-01</leafValues></_></weakClassifiers></_>
    <!-- stage 9 -->
    <_>
      <maxWeakCount>22</maxWeakCount>
      <stageThreshold>-1.0561735630035400e+00</stageThreshold>
      <weakClassifiers>
        <_>
          <internalNodes>
            0 -1 333 -9.1442734003067017e-02</internalNodes>
          <leafValues>
            7.8160917758941650e-01 -2.7406197786331177e-01</leafValues></_>
        <_>
          <internalNodes>
            0 -1 348 -9.1369182337075472e-04</internalNodes>
          <leafValues>
            -5.6575787067413330e-01 1.5789455175399780e-01</leafValues></_>
        <_>
          <internalNodes>
            0 -1 43 2.4405648931860924e-02</internalNodes>
          <leafValues>
            7.2290688753128052e-02 -7.9131710529327393e-01</leafValues></_>
        <_>
          <internalNodes>
            0 -1 73 -2.7809668332338333e-02</internalNodes>
          <leafValues>
            -7.9853546619415283e-01 9.8433688282966614e-02</leafValues></_>
        <_>
          <internalNodes>
            0 -1 175 -5.9039279818534851e-02</internalNodes>
          <leafValues>
            4.2565807700157166e-01 -1.5615484118461609e-01</leafValues></_>
        <_>
          <internalNodes>
            0 -1 97 1.3432957231998444e-01</internalNodes>
          <leafValues>
            -1.6898036003112793e-01 4.2912513017654419e-01</leafValues></_>
        <_>
          <internalNodes>
            0 -1 395 4.5239605242386460e-04</internalNodes>
          <leafValues>
            1.8137568235397339e-01 -4.2376306653022766e-01</leafValues></_>
        <_>
          <internalNodes>
            0 -1 188 4.2888005264103413e-03</internalNodes>
          <leafValues>
            -1.2511993944644928e-01 5.5879950523376465e-01</leafValues></_>
        <_>
          <internalNodes>
            0 -1 4 -2.3461481556296349e-02</internalNodes>
          <leafValues>
            6.4528584480285645e-01 -9.7731001675128937e-02</leafValues></_>
        <_>
          <internalNodes>
            0 -1 328 1.5123561024665833e-02</internalNodes>
          <leafValues>
            -3.0826789140701294e-01 2.0994062721729279e-01</leafValues></_>
        <_>
          <internalNodes>
            0 -1 57 -1.2191580608487129e-02</internalNodes>
          <leafValues>
            6.4611852169036865e-01 -1.0295751690864563e-01</leafValues></_>
        <_>
          <internalNodes>
            0 -1 18 8.4085166454315186e-03</internalNodes>
          <leafValues>
            -1.1313784122467041e-01 5.7293075323104858e-01</leafValues></_>
        <_>
          <internalNodes>
            0 -1 322 -2.0384386516525410e-05</internalNodes>
          <leafValues>
            2.6151850819587708e-01 -2.6833501458168030e-01</leafValues></_>
        <_>
          <internalNodes>
            0 -1 269 -8.3896264433860779e-02</internalNodes>
          <leafValues>
            7.2176611423492432e-01 -1.1417309939861298e-01</leafValues></_>
        <_>
          <internalNodes>
            0 -1 323 3.6200312897562981e-03</internalNodes>
          <leafValues>
            -2.4098578095436096e-01 2.7504256367683411e-01</leafValues></_>
        <_>
          <internalNodes>
            0 -1 392 -8.3404267206788063e-03</internalNodes>
          <leafValues>
            6.0535979270935059e-01 -1.3811321556568146e-01</leafValues></_>
        <_>
          <internalNodes>
            0 -1 393 -4.6300990507006645e-03</internalNodes>
          <leafValues>
            3.7930265069007874e-01 -1.8448723852634430e-01</leafValues></_>
        <_>
          <internalNodes>
            0 -1 89 -1.0150559246540070e-02</internalNodes>
          <leafValues>
            5.9506756067276001e-01 -1.1999835073947906e-01</leafValues></_>
        <_>
          <internalNodes>
            0 -1 1 -1.1603651801124215e-03</internalNodes>
          <leafValues>
            -6.9021683931350708e-01 1.2046334147453308e-01</leafValues></_>
        <_>
          <internalNodes>
            0 -1 252 1.2660407810471952e-04</internalNodes>
          <leafValues>
            1.4247509837150574e-01 -4.6831399202346802e-01</leafValues></_>
        <_>
          <internalNodes>
            0 -1 343 -2.6243120431900024e-02</internalNodes>
          <leafValues>
            6.3498318195343018e-01 -1.3062912225723267e-01</leafValues></_>
        <_>
          <internalNodes>
            0 -1 373 5.0023393705487251e-03</internalNodes>
          <leafValues>
            -1.1816425621509552e-01 5.3791022300720215e-01</leafValues></_></weakClassifiers></_>
    <!-- stage 10 -->
    <_>
      <maxWeakCount>21</maxWeakCount>
      <stageThreshold>-9.9164569377899170e-01</stageThreshold>
      <weakClassifiers>
        <_>
          <internalNodes>
            0 -1 247 -1.0842691361904144e-01</internalNodes>
          <leafValues>
            7.5438594818115234e-01 -2.6769730448722839e-01</leafValues></_>
        <_>
          <internalNodes>
            0 -1 76 -4.4839573092758656e-03</internalNodes>
          <leafValues>
            3.5771656036376953e-01 -1.7085382342338562e-01</leafValues></_>
        <_>
          <internalNodes>
            0 -1 265 2.9022714588791132e-03</internalNodes>
          <leafValues>
            -5.2763301134109497e-01 1.2317392230033875e-01</leafValues></_>
        <_>
          <internalNodes>
            0 -1 230 2.1086924243718386e-04</internalNodes>
          <leafValues>
            2.0559956133365631e-01 -3.6667844653129578e-01</leafValues></_>
        <_>
          <internalNodes>
            0 -1 273 2.2743423469364643e-03</internalNodes>
          <leafValues>
            -2.2238670289516449e-01 2.8943938016891479e-01</leafValues></_>
        <_>
          <internalNodes>
            0 -1 201 2.0322699099779129e-02</internalNodes>
          <leafValues>
            -2.5867509841918945e-01 2.7012282609939575e-01</leafValues></_>
        <_>
          <internalNodes>
            0 -1 20 -8.8531486690044403e-02</internalNodes>
          <leafValues>
            4.1169124841690063e-01 -1.3211856782436371e-01</leafValues></_>
        <_>
          <internalNodes>
            0 -1 158 7.5175508856773376e-02</internalNodes>
          <leafValues>
            -2.3624676465988159e-01 3.2532364130020142e-01</leafValues></_>
        <_>
          <internalNodes>
            0 -1 226 5.3925398737192154e-02</internalNodes>
          <leafValues>
            -1.4444172382354736e-01 4.8593729734420776e-01</leafValues></_>
        <_>
          <internalNodes>
            0 -1 50 -4.5363713055849075e-02</internalNodes>
          <leafValues>
            -9.7098308801651001e-01 6.9348052144050598e-02</leafValues></_>
        <_>
          <internalNodes>
            0 -1 361 4.5523047447204590e-03</internalNodes>
          <leafValues>
            -1.6399341821670532e-01 5.1767462491989136e-01</leafValues></_>
        <_>
          <internalNodes>
            0 -1 334 -1.7047792673110962e-02</internalNodes>
          <leafValues>
            3.0226027965545654e-01 -2.1588507294654846e-01</leafValues></_>
        <_>
          <internalNodes>
            0 -1 181 2.4280189536511898e-03</internalNodes>
          <leafValues>
            -1.6509354114532471e-01 3.6054402589797974e-01</leafValues></_>
        <_>
          <internalNodes>
            0 -1 110 -3.4051989205181599e-03</internalNodes>
          <leafValues>
            3.3365046977996826e-01 -2.1218717098236084e-01</leafValues></_>
        <_>
          <internalNodes>
            0 -1 56 7.2204056777991354e-05</internalNodes>
          <leafValues>
            1.6829282045364380e-01 -3.8135343790054321e-01</leafValues></_>
        <_>
          <internalNodes>
            0 -1 78 4.3008718639612198e-03</internalNodes>
          <leafValues>
            -1.9568142294883728e-01 3.2030430436134338e-01</leafValues></_>
        <_>
          <internalNodes>
            0 -1 385 4.3131737038493156e-04</internalNodes>
          <leafValues>
            1.2865608930587769e-01 -4.5571869611740112e-01</leafValues></_>
        <_>
          <internalNodes>
            0 -1 371 2.3327026516199112e-02</internalNodes>
          <leafValues>
            -8.8243909180164337e-02 6.5414577722549438e-01</leafValues></_>
        <_>
          <internalNodes>
            0 -1 192 8.0041177570819855e-02</internalNodes>
          <leafValues>
            -9.9777810275554657e-02 6.4732503890991211e-01</leafValues></_>
        <_>
          <internalNodes>
            0 -1 199 5.9420287609100342e-02</internalNodes>
          <leafValues>
            1.0100245475769043e-01 -7.5793206691741943e-01</leafValues></_>
        <_>
          <internalNodes>
            0 -1 45 4.4055106118321419e-03</internalNodes>
          <leafValues>
            -1.2239865958690643e-01 6.1135137081146240e-01</leafValues></_></weakClassifiers></_>
    <!-- stage 11 -->
    <_>
      <maxWeakCount>25</maxWeakCount>
      <stageThreshold>-1.3085111379623413e+00</stageThreshold>
      <weakClassifiers>
        <_>
          <internalNodes>
            0 -1 174 -2.1779075264930725e-01</internalNodes>
          <leafValues>
            6.8888890743255615e-01 -2.6557376980781555e-01</leafValues></_>
        <_>
          <internalNodes>
            0 -1 386 -1.0169332381337881e-03</internalNodes>
          <leafValues>
            -5.1532566547393799e-01 1.3042221963405609e-01</leafValues></_>
        <_>
          <internalNodes>
            0 -1 162 5.8639571070671082e-03</internalNodes>
          <leafValues>
            -3.9399647712707520e-01 2.1176144480705261e-01</leafValues></_>
        <_>
          <internalNodes>
            0 -1 316 -3.5432852804660797e-02</internalNodes>
          <leafValues>
            4.4953775405883789e-01 -9.1333143413066864e-02</leafValues></_>
        <_>
          <internalNodes>
            0 -1 62 3.9515206590294838e-03</internalNodes>
          <leafValues>
            -9.1263011097908020e-02 7.1576505899429321e-01</leafValues></_>
        <_>
          <internalNodes>
            0 -1 335 4.1035062167793512e-04</internalNodes>
          <leafValues>
            1.6957472264766693e-01 -3.8783735036849976e-01</leafValues></_>
        <_>
          <internalNodes>
            0 -1 223 8.2049466669559479e-02</internalNodes>
          <leafValues>
            -1.7241680622100830e-01 3.9772486686706543e-01</leafValues></_>
        <_>
          <internalNodes>
            0 -1 62 -2.1104565821588039e-03</internalNodes>
          <leafValues>
            5.4786235094070435e-01 -1.2939576804637909e-01</leafValues></_>
        <_>
          <internalNodes>
            0 -1 115 2.3748584091663361e-02</internalNodes>
          <leafValues>
            -1.0393112152814865e-01 7.2368788719177246e-01</leafValues></_>
        <_>
          <internalNodes>
            0 -1 67 3.4328568726778030e-02</internalNodes>
          <leafValues>
            -2.2273300588130951e-01 2.7401706576347351e-01</leafValues></_>
        <_>
          <internalNodes>
            0 -1 190 -3.4370474517345428e-02</internalNodes>
          <leafValues>
            4.3692889809608459e-01 -1.6328656673431396e-01</leafValues></_>
        <_>
          <internalNodes>
            0 -1 85 -1.4616161584854126e-02</internalNodes>
          <leafValues>
            5.0450360774993896e-01 -1.3053777813911438e-01</leafValues></_>
        <_>
          <internalNodes>
            0 -1 12 -2.1457683760672808e-03</internalNodes>
          <leafValues>
            -4.4540801644325256e-01 1.7113184928894043e-01</leafValues></_>
        <_>
          <internalNodes>
            0 -1 261 -1.5767376869916916e-02</internalNodes>
          <leafValues>
            5.0863116979598999e-01 -1.6023522615432739e-01</leafValues></_>
        <_>
          <internalNodes>
            0 -1 353 1.0483708232641220e-02</internalNodes>
          <leafValues>
            -1.0674858838319778e-01 5.2167278528213501e-01</leafValues></_>
        <_>
          <internalNodes>
            0 -1 46 8.3614140748977661e-03</internalNodes>
          <leafValues>
            -2.1607711911201477e-01 3.1122758984565735e-01</leafValues></_>
        <_>
          <internalNodes>
            0 -1 96 7.2343185544013977e-02</internalNodes>
          <leafValues>
            -1.6283597052097321e-01 4.4539734721183777e-01</leafValues></_>
        <_>
          <internalNodes>
            0 -1 132 5.1901256665587425e-04</internalNodes>
          <leafValues>
            1.5018162131309509e-01 -4.9311342835426331e-01</leafValues></_>
        <_>
          <internalNodes>
            0 -1 127 9.6339769661426544e-03</internalNodes>
          <leafValues>
            -2.5172337889671326e-01 2.6148205995559692e-01</leafValues></_>
        <_>
          <internalNodes>
            0 -1 142 1.0209154337644577e-02</internalNodes>
          <leafValues>
            -1.5658816695213318e-01 4.6059331297874451e-01</leafValues></_>
        <_>
          <internalNodes>
            0 -1 255 2.5430864188820124e-03</internalNodes>
          <leafValues>
            1.1944182217121124e-01 -6.6846311092376709e-01</leafValues></_>
        <_>
          <internalNodes>
            0 -1 352 8.5381101816892624e-03</internalNodes>
          <leafValues>
            -2.1898655593395233e-01 3.5621434450149536e-01</leafValues></_>
        <_>
          <internalNodes>
            0 -1 377 -2.3021664470434189e-02</internalNodes>
          <leafValues>
            6.2915468215942383e-01 -1.1454360932111740e-01</leafValues></_>
        <_>
          <internalNodes>
            0 -1 17 -1.1564656160771847e-03</internalNodes>
          <leafValues>
            -5.8544874191284180e-01 1.4069786667823792e-01</leafValues></_>
        <_>
          <internalNodes>
            0 -1 212 -2.1816577762365341e-02</internalNodes>
          <leafValues>
            3.7807810306549072e-01 -2.0337164402008057e-01</leafValues></_></weakClassifiers></_>
    <!-- stage 12 -->
    <_>
      <maxWeakCount>27</maxWeakCount>
      <stageThreshold>-1.3037126064300537e+00</stageThreshold>
      <weakClassifiers>
        <_>
          <internalNodes>
            0 -1 263 -1.0669893771409988e-01</internalNodes>
          <leafValues>
            5.8490568399429321e-01 -2.7272728085517883e-01</leafValues></_>
        <_>
          <internalNodes>
            0 -1 367 -1.5267991329892538e-05</internalNodes>
          <leafValues>
            2.9301333427429199e-01 -2.2104939818382263e-01</leafValues></_>
        <_>
          <internalNodes>
            0 -1 172 1.4928719401359558e-01</internalNodes>
          <leafValues>
            -1.4986838400363922e-01 5.7343345880508423e-01</leafValues></_>
        <_>
          <internalNodes>
            0 -1 84 1.3436903245747089e-02</internalNodes>
          <leafValues>
            -1.3083939254283905e-01 4.7922497987747192e-01</leafValues></_>
        <_>
          <internalNodes>
            0 -1 191 8.6208045482635498e-02</internalNodes>
          <leafValues>
            -1.8650561571121216e-01 3.5767525434494019e-01</leafValues></_>
        <_>
          <internalNodes>
            0 -1 194 -6.1137124896049500e-02</internalNodes>
          <leafValues>
            5.8889251947402954e-01 -1.0682078450918198e-01</leafValues></_>
        <_>
          <internalNodes>
            0 -1 13 7.3151371907442808e-04</internalNodes>
          <leafValues>
            1.2216269224882126e-01 -5.6722426414489746e-01</leafValues></_>
        <_>
          <internalNodes>
            0 -1 61 1.3209746219217777e-02</internalNodes>
          <leafValues>
            -9.4333231449127197e-02 6.0293203592300415e-01</leafValues></_>
        <_>
          <internalNodes>
            0 -1 113 8.1215403042733669e-05</internalNodes>
          <leafValues>
            -2.8312334418296814e-01 2.5990164279937744e-01</leafValues></_>
        <_>
          <internalNodes>
            0 -1 237 -4.7772862017154694e-03</internalNodes>
          <leafValues>
            6.0851526260375977e-01 -9.9538952112197876e-02</leafValues></_>
        <_>
          <internalNodes>
            0 -1 138 -4.3298728996887803e-04</internalNodes>
          <leafValues>
            -4.4923150539398193e-01 1.6525499522686005e-01</leafValues></_>
        <_>
          <internalNodes>
            0 -1 138 -1.4669081792817451e-05</internalNodes>
          <leafValues>
            3.1709560751914978e-01 -2.5246912240982056e-01</leafValues></_>
        <_>
          <internalNodes>
            0 -1 121 1.4701018109917641e-02</internalNodes>
          <leafValues>
            -1.5749220550060272e-01 4.4754850864410400e-01</leafValues></_>
        <_>
          <internalNodes>
            0 -1 9 -1.1374942213296890e-01</internalNodes>
          <leafValues>
            -8.2375437021255493e-01 8.8496871292591095e-02</leafValues></_>
        <_>
          <internalNodes>
            0 -1 204 8.7677501142024994e-02</internalNodes>
          <leafValues>
            -1.3288643956184387e-01 4.9922195076942444e-01</leafValues></_>
        <_>
          <internalNodes>
            0 -1 216 -7.1539960801601410e-02</internalNodes>
          <leafValues>
            6.1294078826904297e-01 -1.1179824918508530e-01</leafValues></_>
        <_>
          <internalNodes>
            0 -1 351 1.6173825133591890e-04</internalNodes>
          <leafValues>
            1.5683744847774506e-01 -4.0956091880798340e-01</leafValues></_>
        <_>
          <internalNodes>
            0 -1 379 5.4587512277066708e-03</internalNodes>
          <leafValues>
            -1.1211772263050079e-01 5.9919071197509766e-01</leafValues></_>
        <_>
          <internalNodes>
            0 -1 33 -2.3042650427669287e-03</internalNodes>
          <leafValues>
            4.0751203894615173e-01 -1.4392873644828796e-01</leafValues></_>
        <_>
          <internalNodes>
            0 -1 366 -7.1647838922217488e-05</internalNodes>
          <leafValues>
            2.6346844434738159e-01 -2.3091492056846619e-01</leafValues></_>
        <_>
          <internalNodes>
            0 -1 337 -1.8471537259756587e-05</internalNodes>
          <leafValues>
            2.6617091894149780e-01 -2.3637074232101440e-01</leafValues></_>
        <_>
          <internalNodes>
            0 -1 383 6.5511297434568405e-03</internalNodes>
          <leafValues>
            -7.4633009731769562e-02 7.4748414754867554e-01</leafValues></_>
        <_>
          <internalNodes>
            0 -1 114 -2.2312363144010305e-03</internalNodes>
          <leafValues>
            -4.7276046872138977e-01 1.3749897480010986e-01</leafValues></_>
        <_>
          <internalNodes>
            0 -1 82 -7.4646575376391411e-03</internalNodes>
          <leafValues>
            -7.1387737989425659e-01 6.6168040037155151e-02</leafValues></_>
        <_>
          <internalNodes>
            0 -1 160 -1.7565212910994887e-03</internalNodes>
          <leafValues>
            -6.2649625539779663e-01 8.2296982407569885e-02</leafValues></_>
        <_>
          <internalNodes>
            0 -1 52 3.0383478850126266e-02</internalNodes>
          <leafValues>
            -1.1072885245084763e-01 5.9323710203170776e-01</leafValues></_>
        <_>
          <internalNodes>
            0 -1 106 -2.6238895952701569e-04</internalNodes>
          <leafValues>
            2.5215283036231995e-01 -2.6651731133460999e-01</leafValues></_></weakClassifiers></_>
    <!-- stage 13 -->
    <_>
      <maxWeakCount>30</maxWeakCount>
      <stageThreshold>-1.3267320394515991e+00</stageThreshold>
      <weakClassifiers>
        <_>
          <internalNodes>
            0 -1 267 -6.4153119921684265e-02</internalNodes>
          <leafValues>
            3.9297124743461609e-01 -2.9714810848236084e-01</leafValues></_>
        <_>
          <internalNodes>
            0 -1 3 1.5714628621935844e-02</internalNodes>
          <leafValues>
            -1.7197175323963165e-01 3.8531321287155151e-01</leafValues></_>
        <_>
          <internalNodes>
            0 -1 124 -1.1906689405441284e-01</internalNodes>
          <leafValues>
            -7.2641408443450928e-01 6.2081720679998398e-02</leafValues></_>
        <_>
          <internalNodes>
            0 -1 374 -5.6208828464150429e-03</internalNodes>
          <leafValues>
            5.2483797073364258e-01 -1.0473098605871201e-01</leafValues></_>
        <_>
          <internalNodes>
            0 -1 228 -5.5905320914462209e-04</internalNodes>
          <leafValues>
            -5.1155602931976318e-01 1.1561714857816696e-01</leafValues></_>
        <_>
          <internalNodes>
            0 -1 346 6.0280084609985352e-02</internalNodes>
          <leafValues>
            -1.0523177683353424e-01 4.5602884888648987e-01</leafValues></_>
        <_>
          <internalNodes>
            0 -1 292 -6.0666427016258240e-02</internalNodes>
          <leafValues>
            5.8454340696334839e-01 -1.3556972146034241e-01</leafValues></_>
        <_>
          <internalNodes>
            0 -1 394 -1.4782461337745190e-02</internalNodes>
          <leafValues>
            -5.9564810991287231e-01 1.3999705016613007e-01</leafValues></_>
        <_>
          <internalNodes>
            0 -1 295 2.9066618299111724e-04</internalNodes>
          <leafValues>
            1.6918623447418213e-01 -3.6942407488822937e-01</leafValues></_>
        <_>
          <internalNodes>
            0 -1 19 -1.7661668360233307e-02</internalNodes>
          <leafValues>
            3.3154553174972534e-01 -1.9690914452075958e-01</leafValues></_>
        <_>
          <internalNodes>
            0 -1 93 4.9794420599937439e-02</internalNodes>
          <leafValues>
            -1.9947679340839386e-01 3.2524833083152771e-01</leafValues></_>
        <_>
          <internalNodes>
            0 -1 126 1.6381466761231422e-02</internalNodes>
          <leafValues>
            -1.9554036855697632e-01 3.0257195234298706e-01</leafValues></_>
        <_>
          <internalNodes>
            0 -1 70 -1.8782515544444323e-03</internalNodes>
          <leafValues>
            2.6223987340927124e-01 -2.5245156884193420e-01</leafValues></_>
        <_>
          <internalNodes>
            0 -1 131 7.2443880140781403e-02</internalNodes>
          <leafValues>
            -2.3730073869228363e-01 2.9719695448875427e-01</leafValues></_>
        <_>
          <internalNodes>
            0 -1 90 -8.5306398570537567e-02</internalNodes>
          <leafValues>
            -8.6281996965408325e-01 9.3480914831161499e-02</leafValues></_>
        <_>
          <internalNodes>
            0 -1 133 3.6627717316150665e-02</internalNodes>
          <leafValues>
            -2.0454064011573792e-01 3.7049117684364319e-01</leafValues></_>
        <_>
          <internalNodes>
            0 -1 266 1.5231749974191189e-02</internalNodes>
          <leafValues>
            -2.2279137372970581e-01 2.7306574583053589e-01</leafValues></_>
        <_>
          <internalNodes>
            0 -1 141 1.0853935033082962e-02</internalNodes>
          <leafValues>
            -1.4043883979320526e-01 4.7106918692588806e-01</leafValues></_>
        <_>
          <internalNodes>
            0 -1 362 -1.9056696444749832e-02</internalNodes>
          <leafValues>
            3.0181473493576050e-01 -2.2763787209987640e-01</leafValues></_>
        <_>
          <internalNodes>
            0 -1 270 -1.1802122462540865e-03</internalNodes>
          <leafValues>
            3.0266734957695007e-01 -2.1750165522098541e-01</leafValues></_>
        <_>
          <internalNodes>
            0 -1 8 -1.5067782998085022e-01</internalNodes>
          <leafValues>
            -6.7957770824432373e-01 1.1208083480596542e-01</leafValues></_>
        <_>
          <internalNodes>
            0 -1 232 9.4227548688650131e-03</internalNodes>
          <leafValues>
            -1.9081777334213257e-01 3.3876842260360718e-01</leafValues></_>
        <_>
          <internalNodes>
            0 -1 239 6.1012919992208481e-02</internalNodes>
          <leafValues>
            -1.1599973589181900e-01 5.7518339157104492e-01</leafValues></_>
        <_>
          <internalNodes>
            0 -1 214 -1.4948637224733829e-02</internalNodes>
          <leafValues>
            3.7699887156486511e-01 -1.6741952300071716e-01</leafValues></_>
        <_>
          <internalNodes>
            0 -1 243 5.3540281951427460e-02</internalNodes>
          <leafValues>
            -2.5659719109535217e-01 2.8819781541824341e-01</leafValues></_>
        <_>
          <internalNodes>
            0 -1 307 5.3221574053168297e-03</internalNodes>
          <leafValues>
            -1.0676791518926620e-01 5.6010782718658447e-01</leafValues></_>
        <_>
          <internalNodes>
            0 -1 342 7.5708376243710518e-04</internalNodes>
          <leafValues>
            1.3202704489231110e-01 -5.3862565755844116e-01</leafValues></_>
        <_>
          <internalNodes>
            0 -1 342 -6.8402237957343459e-04</internalNodes>
          <leafValues>
            -5.1830309629440308e-01 1.1290805786848068e-01</leafValues></_>
        <_>
          <internalNodes>
            0 -1 291 8.8902488350868225e-03</internalNodes>
          <leafValues>
            -1.3522742688655853e-01 5.5569273233413696e-01</leafValues></_>
        <_>
          <internalNodes>
            0 -1 49 8.2083381712436676e-03</internalNodes>
          <leafValues>
            -2.1721327304840088e-01 2.8464660048484802e-01</leafValues></_></weakClassifiers></_>
    <!-- stage 14 -->
    <_>
      <maxWeakCount>30</maxWeakCount>
      <stageThreshold>-1.3745768070220947e+00</stageThreshold>
      <weakClassifiers>
        <_>
          <internalNodes>
            0 -1 54 4.5239562168717384e-03</internalNodes>
          <leafValues>
            -2.5900515913963318e-01 4.3589743971824646e-01</leafValues></_>
        <_>
          <internalNodes>
            0 -1 317 1.8076296895742416e-02</internalNodes>
          <leafValues>
            -2.7077564597129822e-01 2.2277618944644928e-01</leafValues></_>
        <_>
          <internalNodes>
            0 -1 144 5.6934384629130363e-03</internalNodes>
          <leafValues>
            -2.2355744242668152e-01 2.9239115118980408e-01</leafValues></_>
        <_>
          <internalNodes>
            0 -1 339 -1.7633134120842442e-05</internalNodes>
          <leafValues>
            2.6347091794013977e-01 -2.4655793607234955e-01</leafValues></_>
        <_>
          <internalNodes>
            0 -1 10 -1.8441863358020782e-02</internalNodes>
          <leafValues>
            6.4813756942749023e-01 -8.1691421568393707e-02</leafValues></_>
        <_>
          <internalNodes>
            0 -1 63 3.3401749096810818e-03</internalNodes>
          <leafValues>
            -1.5280829370021820e-01 3.3269402384757996e-01</leafValues></_>
        <_>
          <internalNodes>
            0 -1 157 -4.3452531099319458e-04</internalNodes>
          <leafValues>
            -4.3746995925903320e-01 1.7162512242794037e-01</leafValues></_>
        <_>
          <internalNodes>
            0 -1 51 -1.6526031686225906e-05</internalNodes>
          <leafValues>
            2.2155211865901947e-01 -2.7782228589057922e-01</leafValues></_>
        <_>
          <internalNodes>
            0 -1 224 -5.3732398897409439e-02</internalNodes>
          <leafValues>
            3.6007565259933472e-01 -1.5650770068168640e-01</leafValues></_>
        <_>
          <internalNodes>
            0 -1 376 -2.9401563107967377e-02</internalNodes>
          <leafValues>
            6.7623484134674072e-01 -9.3100331723690033e-02</leafValues></_>
        <_>
          <internalNodes>
            0 -1 340 1.0245593730360270e-03</internalNodes>
          <leafValues>
            -2.0118838548660278e-01 2.9819732904434204e-01</leafValues></_>
        <_>
          <internalNodes>
            0 -1 286 1.8425384769216180e-04</internalNodes>
          <leafValues>
            1.6184403002262115e-01 -4.4178900122642517e-01</leafValues></_>
        <_>
          <internalNodes>
            0 -1 219 -2.5171106681227684e-02</internalNodes>
          <leafValues>
            -8.0583983659744263e-01 5.3155142813920975e-02</leafValues></_>
        <_>
          <internalNodes>
            0 -1 74 8.4622344002127647e-04</internalNodes>
          <leafValues>
            -1.4308294653892517e-01 4.2629814147949219e-01</leafValues></_>
        <_>
          <internalNodes>
            0 -1 241 1.5763717237859964e-03</internalNodes>
          <leafValues>
            -2.7169311046600342e-01 2.2344113886356354e-01</leafValues></_>
        <_>
          <internalNodes>
            0 -1 205 -2.4488219060003757e-03</internalNodes>
          <leafValues>
            3.0231001973152161e-01 -1.8723821640014648e-01</leafValues></_>
        <_>
          <internalNodes>
            0 -1 80 -1.3303717598319054e-02</internalNodes>
          <leafValues>
            4.2597630620002747e-01 -1.4161086082458496e-01</leafValues></_>
        <_>
          <internalNodes>
            0 -1 303 -2.4995836429297924e-03</internalNodes>
          <leafValues>
            3.1058102846145630e-01 -1.9048689305782318e-01</leafValues></_>
        <_>
          <internalNodes>
            0 -1 222 -7.8701914753764868e-04</internalNodes>
          <leafValues>
            -5.0609314441680908e-01 1.2306080758571625e-01</leafValues></_>
        <_>
          <internalNodes>
            0 -1 302 -2.0669635385274887e-02</internalNodes>
          <leafValues>
            -8.4047067165374756e-01 5.2824392914772034e-02</leafValues></_>
        <_>
          <internalNodes>
            0 -1 135 5.8503020554780960e-03</internalNodes>
          <leafValues>
            -1.0915646702051163e-01 5.5325675010681152e-01</leafValues></_>
        <_>
          <internalNodes>
            0 -1 125 -2.4239870253950357e-03</internalNodes>
          <leafValues>
            -5.0292867422103882e-01 1.1332951486110687e-01</leafValues></_>
        <_>
          <internalNodes>
            0 -1 109 -1.7425526166334748e-03</internalNodes>
          <leafValues>
            5.1035326719284058e-01 -1.3401892781257629e-01</leafValues></_>
        <_>
          <internalNodes>
            0 -1 48 -9.8023723694495857e-05</internalNodes>
          <leafValues>
            2.5043532252311707e-01 -2.6547059416770935e-01</leafValues></_>
        <_>
          <internalNodes>
            0 -1 210 -2.8565865010023117e-02</internalNodes>
          <leafValues>
            6.1994814872741699e-01 -1.0386496037244797e-01</leafValues></_>
        <_>
          <internalNodes>
            0 -1 153 -3.9053745567798615e-02</internalNodes>
          <leafValues>
            3.4320461750030518e-01 -1.6310274600982666e-01</leafValues></_>
        <_>
          <internalNodes>
            0 -1 152 2.6983326300978661e-02</internalNodes>
          <leafValues>
            -1.6646403074264526e-01 4.2070087790489197e-01</leafValues></_>
        <_>
          <internalNodes>
            0 -1 193 -6.3527651131153107e-02</internalNodes>
          <leafValues>
            4.5594364404678345e-01 -1.3298946619033813e-01</leafValues></_>
        <_>
          <internalNodes>
            0 -1 338 1.5622183680534363e-02</internalNodes>
          <leafValues>
            8.3380058407783508e-02 -7.6687228679656982e-01</leafValues></_>
        <_>
          <internalNodes>
            0 -1 25 2.0493524149060249e-02</internalNodes>
          <leafValues>
            -1.1121390759944916e-01 5.7910650968551636e-01</leafValues></_></weakClassifiers></_>
    <!-- stage 15 -->
    <_>
      <maxWeakCount>27</maxWeakCount>
      <stageThreshold>-1.1171853542327881e+00</stageThreshold>
      <weakClassifiers>
        <_>
          <internalNodes>
            0 -1 280 -6.0838095843791962e-02</internalNodes>
          <leafValues>
            3.9705881476402283e-01 -2.7304965257644653e-01</leafValues></_>
        <_>
          <internalNodes>
            0 -1 128 5.8820225298404694e-02</internalNodes>
          <leafValues>
            -1.1851434409618378e-01 4.1224405169487000e-01</leafValues></_>
        <_>
          <internalNodes>
            0 -1 68 -5.2537076175212860e-02</internalNodes>
          <leafValues>
            4.0534612536430359e-01 -1.5639378130435944e-01</leafValues></_>
        <_>
          <internalNodes>
            0 -1 163 -6.6495343344286084e-04</internalNodes>
          <leafValues>
            -5.5011510848999023e-01 8.7295569479465485e-02</leafValues></_>
        <_>
          <internalNodes>
            0 -1 161 -1.6939006745815277e-02</internalNodes>
          <leafValues>
            7.0817971229553223e-01 -1.0933330282568932e-02</leafValues></_>
        <_>
          <internalNodes>
            0 -1 372 -3.3783577382564545e-03</internalNodes>
          <leafValues>
            5.5959796905517578e-01 -1.1632582545280457e-01</leafValues></_>
        <_>
          <internalNodes>
            0 -1 372 3.5508582368493080e-03</internalNodes>
          <leafValues>
            -9.8134912550449371e-02 5.8627176284790039e-01</leafValues></_>
        <_>
          <internalNodes>
            0 -1 87 1.4530437067151070e-02</internalNodes>
          <leafValues>
            -2.1281313896179199e-01 2.4861453473567963e-01</leafValues></_>
        <_>
          <internalNodes>
            0 -1 23 -2.7663584798574448e-02</internalNodes>
          <leafValues>
            7.2916805744171143e-01 -7.2443619370460510e-02</leafValues></_>
        <_>
          <internalNodes>
            0 -1 94 2.0056106150150299e-03</internalNodes>
          <leafValues>
            -3.0772683024406433e-01 1.9962845742702484e-01</leafValues></_>
        <_>
          <internalNodes>
            0 -1 65 -6.4657144248485565e-02</internalNodes>
          <leafValues>
            5.7235217094421387e-01 -1.3351792097091675e-01</leafValues></_>
        <_>
          <internalNodes>
            0 -1 293 5.6330867111682892e-02</internalNodes>
          <leafValues>
            -2.1974009275436401e-01 2.4626453220844269e-01</leafValues></_>
        <_>
          <internalNodes>
            0 -1 313 -2.6370789855718613e-02</internalNodes>
          <leafValues>
            5.5882883071899414e-01 -9.5543004572391510e-02</leafValues></_>
        <_>
          <internalNodes>
            0 -1 218 -3.7332304054871202e-04</internalNodes>
          <leafValues>
            -3.7063711881637573e-01 1.5372931957244873e-01</leafValues></_>
        <_>
          <internalNodes>
            0 -1 332 5.8238327503204346e-02</internalNodes>
          <leafValues>
            -1.3491693139076233e-01 4.2138546705245972e-01</leafValues></_>
        <_>
          <internalNodes>
            0 -1 173 1.1554442346096039e-01</internalNodes>
          <leafValues>
            -8.0034159123897552e-02 6.0525053739547729e-01</leafValues></_>
        <_>
          <internalNodes>
            0 -1 378 -1.0143576189875603e-02</internalNodes>
          <leafValues>
            -8.2081753015518188e-01 7.1970053017139435e-02</leafValues></_>
        <_>
          <internalNodes>
            0 -1 75 -3.2127187587320805e-03</internalNodes>
          <leafValues>
            3.7855511903762817e-01 -1.5356048941612244e-01</leafValues></_>
        <_>
          <internalNodes>
            0 -1 21 -4.2896153172478080e-04</internalNodes>
          <leafValues>
            -4.0938109159469604e-01 1.2658999860286713e-01</leafValues></_>
        <_>
          <internalNodes>
            0 -1 22 -6.2045594677329063e-03</internalNodes>
          <leafValues>
            6.4932578802108765e-01 -9.3749716877937317e-02</leafValues></_>
        <_>
          <internalNodes>
            0 -1 197 -4.0329467505216599e-02</internalNodes>
          <leafValues>
            4.0516701340675354e-01 -1.2643267214298248e-01</leafValues></_>
        <_>
          <internalNodes>
            0 -1 253 1.0410067625343800e-03</internalNodes>
          <leafValues>
            -2.8589627146720886e-01 2.0447984337806702e-01</leafValues></_>
        <_>
          <internalNodes>
            0 -1 285 -3.8557729567401111e-05</internalNodes>
          <leafValues>
            2.1721376478672028e-01 -2.6700988411903381e-01</leafValues></_>
        <_>
          <internalNodes>
            0 -1 198 5.6416221923427656e-05</internalNodes>
          <leafValues>
            1.4315329492092133e-01 -3.5663121938705444e-01</leafValues></_>
        <_>
          <internalNodes>
            0 -1 186 6.8298298865556717e-03</internalNodes>
          <leafValues>
            -1.3936977088451385e-01 3.6093464493751526e-01</leafValues></_>
        <_>
          <internalNodes>
            0 -1 207 -2.8813653625547886e-03</internalNodes>
          <leafValues>
            4.2040678858757019e-01 -1.5847846865653992e-01</leafValues></_>
        <_>
          <internalNodes>
            0 -1 298 -8.7215639650821686e-03</internalNodes>
          <leafValues>
            -5.6484240293502808e-01 9.7077608108520508e-02</leafValues></_></weakClassifiers></_>
    <!-- stage 16 -->
    <_>
      <maxWeakCount>25</maxWeakCount>
      <stageThreshold>-1.0800113677978516e+00</stageThreshold>
      <weakClassifiers>
        <_>
          <internalNodes>
            0 -1 196 -7.2292722761631012e-02</internalNodes>
          <leafValues>
            2.2926829755306244e-01 -2.9696971178054810e-01</leafValues></_>
        <_>
          <internalNodes>
            0 -1 344 -3.7937383167445660e-03</internalNodes>
          <leafValues>
            6.0243529081344604e-01 -9.0299345552921295e-02</leafValues></_>
        <_>
          <internalNodes>
            0 -1 326 2.5720810517668724e-03</internalNodes>
          <leafValues>
            -1.1869206279516220e-01 5.0077319145202637e-01</leafValues></_>
        <_>
          <internalNodes>
            0 -1 91 -7.1455731987953186e-02</internalNodes>
          <leafValues>
            5.0858354568481445e-01 -1.3935302197933197e-01</leafValues></_>
        <_>
          <internalNodes>
            0 -1 155 7.3680475354194641e-02</internalNodes>
          <leafValues>
            -1.6905692219734192e-01 3.0561608076095581e-01</leafValues></_>
        <_>
          <internalNodes>
            0 -1 100 -7.4728429317474365e-02</internalNodes>
          <leafValues>
            -8.1693774461746216e-01 7.4264913797378540e-02</leafValues></_>
        <_>
          <internalNodes>
            0 -1 0 -5.5202003568410873e-04</internalNodes>
          <leafValues>
            -5.7916760444641113e-01 8.5530422627925873e-02</leafValues></_>
        <_>
          <internalNodes>
            0 -1 309 -7.4384324252605438e-03</internalNodes>
          <leafValues>
            4.7044542431831360e-01 -1.0321376472711563e-01</leafValues></_>
        <_>
          <internalNodes>
            0 -1 107 1.4800248667597771e-02</internalNodes>
          <leafValues>
            -1.0378307104110718e-01 5.1997011899948120e-01</leafValues></_>
        <_>
          <internalNodes>
            0 -1 53 -7.1724486770108342e-04</internalNodes>
          <leafValues>
            2.3788516223430634e-01 -2.4904254078865051e-01</leafValues></_>
        <_>
          <internalNodes>
            0 -1 257 -6.6943410784006119e-03</internalNodes>
          <leafValues>
            -5.8919352293014526e-01 9.4214938580989838e-02</leafValues></_>
        <_>
          <internalNodes>
            0 -1 350 4.2296689935028553e-04</internalNodes>
          <leafValues>
            1.1574282497167587e-01 -4.2823114991188049e-01</leafValues></_>
        <_>
          <internalNodes>
            0 -1 283 3.7786281609442085e-05</internalNodes>
          <leafValues>
            -2.1853059530258179e-01 2.4715615808963776e-01</leafValues></_>
        <_>
          <internalNodes>
            0 -1 0 -1.5461429939023219e-05</internalNodes>
          <leafValues>
            3.3438640832901001e-01 -1.5214972198009491e-01</leafValues></_>
        <_>
          <internalNodes>
            0 -1 396 -2.9619544511660933e-04</internalNodes>
          <leafValues>
            -4.2883887887001038e-01 1.1434793472290039e-01</leafValues></_>
        <_>
          <internalNodes>
            0 -1 92 3.5856375470757484e-03</internalNodes>
          <leafValues>
            -9.3021303415298462e-02 6.2469834089279175e-01</leafValues></_>
        <_>
          <internalNodes>
            0 -1 92 -4.2368271388113499e-03</internalNodes>
          <leafValues>
            7.0964467525482178e-01 -7.4506811797618866e-02</leafValues></_>
        <_>
          <internalNodes>
            0 -1 15 2.0552543923258781e-02</internalNodes>
          <leafValues>
            8.0814518034458160e-02 -7.9171299934387207e-01</leafValues></_>
        <_>
          <internalNodes>
            0 -1 47 -8.5152149200439453e-02</internalNodes>
          <leafValues>
            7.5306105613708496e-01 -9.3727961182594299e-02</leafValues></_>
        <_>
          <internalNodes>
            0 -1 225 5.3780956659466028e-04</internalNodes>
          <leafValues>
            1.4433646202087402e-01 -4.8906072974205017e-01</leafValues></_>
        <_>
          <internalNodes>
            0 -1 105 -1.0997027158737183e-02</internalNodes>
          <leafValues>
            -5.5397236347198486e-01 8.9808531105518341e-02</leafValues></_>
        <_>
          <internalNodes>
            0 -1 134 -1.2331990525126457e-02</internalNodes>
          <leafValues>
            -7.7953958511352539e-01 6.4316250383853912e-02</leafValues></_>
        <_>
          <internalNodes>
            0 -1 275 5.1714940927922726e-03</internalNodes>
          <leafValues>
            -9.7230575978755951e-02 6.6098737716674805e-01</leafValues></_>
        <_>
          <internalNodes>
            0 -1 287 -2.8553727315738797e-04</internalNodes>
          <leafValues>
            -2.5481557846069336e-01 2.2099834680557251e-01</leafValues></_>
        <_>
          <internalNodes>
            0 -1 384 2.4712854065001011e-03</internalNodes>
          <leafValues>
            -1.0591250658035278e-01 5.4026705026626587e-01</leafValues></_></weakClassifiers></_>
    <!-- stage 17 -->
    <_>
      <maxWeakCount>26</maxWeakCount>
      <stageThreshold>-1.1669352054595947e+00</stageThreshold>
      <weakClassifiers>
        <_>
          <internalNodes>
            0 -1 294 -7.3178581893444061e-02</internalNodes>
          <leafValues>
            2.9203540086746216e-01 -2.8180962800979614e-01</leafValues></_>
        <_>
          <internalNodes>
            0 -1 86 5.2772224880754948e-03</internalNodes>
          <leafValues>
            -6.9708898663520813e-02 7.2004586458206177e-01</leafValues></_>
        <_>
          <internalNodes>
            0 -1 18 -1.2781601399183273e-02</internalNodes>
          <leafValues>
            7.0737349987030029e-01 -9.8103821277618408e-02</leafValues></_>
        <_>
          <internalNodes>
            0 -1 341 1.9491100683808327e-03</internalNodes>
          <leafValues>
            1.3839702308177948e-01 -4.8201137781143188e-01</leafValues></_>
        <_>
          <internalNodes>
            0 -1 390 -8.5570532828569412e-03</internalNodes>
          <leafValues>
            5.4383182525634766e-01 -9.9941469728946686e-02</leafValues></_>
        <_>
          <internalNodes>
            0 -1 108 -4.6952371485531330e-04</internalNodes>
          <leafValues>
            3.0980873107910156e-01 -1.5783552825450897e-01</leafValues></_>
        <_>
          <internalNodes>
            0 -1 109 2.7071777731180191e-04</internalNodes>
          <leafValues>
            -1.9561207294464111e-01 3.1464996933937073e-01</leafValues></_>
        <_>
          <internalNodes>
            0 -1 248 1.0605774819850922e-01</internalNodes>
          <leafValues>
            5.4437968879938126e-02 -7.9833537340164185e-01</leafValues></_>
        <_>
          <internalNodes>
            0 -1 264 -8.2461610436439514e-03</internalNodes>
          <leafValues>
            3.6870509386062622e-01 -1.6535526514053345e-01</leafValues></_>
        <_>
          <internalNodes>
            0 -1 151 -9.4918429851531982e-02</internalNodes>
          <leafValues>
            6.8254250288009644e-01 -6.6652834415435791e-02</leafValues></_>
        <_>
          <internalNodes>
            0 -1 166 3.0406392761506140e-04</internalNodes>
          <leafValues>
            1.4815859496593475e-01 -4.1298240423202515e-01</leafValues></_>
        <_>
          <internalNodes>
            0 -1 398 2.7929195202887058e-03</internalNodes>
          <leafValues>
            8.2692004740238190e-02 -5.6126618385314941e-01</leafValues></_>
        <_>
          <internalNodes>
            0 -1 79 -8.4493681788444519e-03</internalNodes>
          <leafValues>
            4.0794393420219421e-01 -1.4144998788833618e-01</leafValues></_>
        <_>
          <internalNodes>
            0 -1 34 -4.6342296991497278e-04</internalNodes>
          <leafValues>
            2.4597096443176270e-01 -2.2910617291927338e-01</leafValues></_>
        <_>
          <internalNodes>
            0 -1 136 5.4949009791016579e-03</internalNodes>
          <leafValues>
            -7.8784570097923279e-02 6.5606117248535156e-01</leafValues></_>
        <_>
          <internalNodes>
            0 -1 154 6.0279756784439087e-02</internalNodes>
          <leafValues>
            7.8112281858921051e-02 -7.5399261713027954e-01</leafValues></_>
        <_>
          <internalNodes>
            0 -1 238 -8.8712036609649658e-02</internalNodes>
          <leafValues>
            6.7902112007141113e-01 -1.0364127159118652e-01</leafValues></_>
        <_>
          <internalNodes>
            0 -1 327 -6.5109191928058863e-04</internalNodes>
          <leafValues>
            2.8370949625968933e-01 -1.8776975572109222e-01</leafValues></_>
        <_>
          <internalNodes>
            0 -1 39 -4.7980272211134434e-04</internalNodes>
          <leafValues>
            -4.1674575209617615e-01 1.2556369602680206e-01</leafValues></_>
        <_>
          <internalNodes>
            0 -1 179 -1.5267991329892538e-05</internalNodes>
          <leafValues>
            2.0240291953086853e-01 -2.7109450101852417e-01</leafValues></_>
        <_>
          <internalNodes>
            0 -1 345 -3.5919193178415298e-03</internalNodes>
          <leafValues>
            6.4719432592391968e-01 -7.8804731369018555e-02</leafValues></_>
        <_>
          <internalNodes>
            0 -1 77 1.2966811191290617e-03</internalNodes>
          <leafValues>
            1.3535451889038086e-01 -4.5916780829429626e-01</leafValues></_>
        <_>
          <internalNodes>
            0 -1 329 -4.8039656132459641e-02</internalNodes>
          <leafValues>
            5.3621315956115723e-01 -1.2491780519485474e-01</leafValues></_>
        <_>
          <internalNodes>
            0 -1 310 9.4789311289787292e-02</internalNodes>
          <leafValues>
            -1.4915288984775543e-01 3.7173324823379517e-01</leafValues></_>
        <_>
          <internalNodes>
            0 -1 305 -2.8681308031082153e-03</internalNodes>
          <leafValues>
            -5.5603140592575073e-01 1.0586899518966675e-01</leafValues></_>
        <_>
          <internalNodes>
            0 -1 268 4.1915187612175941e-03</internalNodes>
          <leafValues>
            -2.6407587528228760e-01 2.1334618330001831e-01</leafValues></_></weakClassifiers></_>
    <!-- stage 18 -->
    <_>
      <maxWeakCount>36</maxWeakCount>
      <stageThreshold>-1.3021380901336670e+00</stageThreshold>
      <weakClassifiers>
        <_>
          <internalNodes>
            0 -1 3 1.6929034143686295e-02</internalNodes>
          <leafValues>
            -2.9019609093666077e-01 2.5263157486915588e-01</leafValues></_>
        <_>
          <internalNodes>
            0 -1 29 -3.2040365040302277e-03</internalNodes>
          <leafValues>
            3.3754861354827881e-01 -1.5565025806427002e-01</leafValues></_>
        <_>
          <internalNodes>
            0 -1 202 3.0641552060842514e-02</internalNodes>
          <leafValues>
            -1.7044292390346527e-01 3.3541929721832275e-01</leafValues></_>
        <_>
          <internalNodes>
            0 -1 354 2.7361905202269554e-02</internalNodes>
          <leafValues>
            -3.4323118627071381e-02 7.6359885931015015e-01</leafValues></_>
        <_>
          <internalNodes>
            0 -1 373 -5.3003807552158833e-03</internalNodes>
          <leafValues>
            4.4278317689895630e-01 -1.2027424573898315e-01</leafValues></_>
        <_>
          <internalNodes>
            0 -1 324 4.3032434768974781e-04</internalNodes>
          <leafValues>
            -2.0909462869167328e-01 2.1913942694664001e-01</leafValues></_>
        <_>
          <internalNodes>
            0 -1 6 -1.6020492694224231e-05</internalNodes>
          <leafValues>
            2.5729244947433472e-01 -1.7823258042335510e-01</leafValues></_>
        <_>
          <internalNodes>
            0 -1 321 -1.4048931188881397e-03</internalNodes>
          <leafValues>
            -4.8519662022590637e-01 1.4511843025684357e-01</leafValues></_>
        <_>
          <internalNodes>
            0 -1 149 -4.0749683976173401e-03</internalNodes>
          <leafValues>
            3.8894444704055786e-01 -1.3638277351856232e-01</leafValues></_>
        <_>
          <internalNodes>
            0 -1 58 -6.5145839471369982e-04</internalNodes>
          <leafValues>
            -3.8885587453842163e-01 1.6097156703472137e-01</leafValues></_>
        <_>
          <internalNodes>
            0 -1 359 -2.1146629005670547e-03</internalNodes>
          <leafValues>
            2.9183503985404968e-01 -1.8384099006652832e-01</leafValues></_>
        <_>
          <internalNodes>
            0 -1 364 -6.7402399145066738e-03</internalNodes>
          <leafValues>
            2.7371594309806824e-01 -2.0122891664505005e-01</leafValues></_>
        <_>
          <internalNodes>
            0 -1 279 3.5052172839641571e-02</internalNodes>
          <leafValues>
            -2.2076928615570068e-01 2.4427570402622223e-01</leafValues></_>
        <_>
          <internalNodes>
            0 -1 244 -7.9845398664474487e-02</internalNodes>
          <leafValues>
            7.3159587383270264e-01 -7.7615253627300262e-02</leafValues></_>
        <_>
          <internalNodes>
            0 -1 176 -1.6007426893338561e-03</internalNodes>
          <leafValues>
            -6.5155470371246338e-01 1.0733999311923981e-01</leafValues></_>
        <_>
          <internalNodes>
            0 -1 182 1.4601093716919422e-03</internalNodes>
          <leafValues>
            -1.8545973300933838e-01 3.0232372879981995e-01</leafValues></_>
        <_>
          <internalNodes>
            0 -1 104 -3.4242174588143826e-03</internalNodes>
          <leafValues>
            3.2542830705642700e-01 -1.5762367844581604e-01</leafValues></_>
        <_>
          <internalNodes>
            0 -1 55 1.9814867991954088e-03</internalNodes>
          <leafValues>
            -1.9904069602489471e-01 3.0081546306610107e-01</leafValues></_>
        <_>
          <internalNodes>
            0 -1 301 1.2078208237653598e-04</internalNodes>
          <leafValues>
            1.4724086225032806e-01 -3.9653313159942627e-01</leafValues></_>
        <_>
          <internalNodes>
            0 -1 272 -1.8010212806984782e-03</internalNodes>
          <leafValues>
            2.6368483901023865e-01 -2.1666629612445831e-01</leafValues></_>
        <_>
          <internalNodes>
            0 -1 250 -7.1022465825080872e-02</internalNodes>
          <leafValues>
            -8.0684947967529297e-01 6.2429379671812057e-02</leafValues></_>
        <_>
          <internalNodes>
            0 -1 64 2.2528404369950294e-02</internalNodes>
          <leafValues>
            -2.1753473579883575e-01 2.4227875471115112e-01</leafValues></_>
        <_>
          <internalNodes>
            0 -1 120 1.3536029495298862e-02</internalNodes>
          <leafValues>
            -8.8480934500694275e-02 7.3696309328079224e-01</leafValues></_>
        <_>
          <internalNodes>
            0 -1 81 -1.2168692424893379e-02</internalNodes>
          <leafValues>
            -8.4366613626480103e-01 7.7409647405147552e-02</leafValues></_>
        <_>
          <internalNodes>
            0 -1 220 7.1332238614559174e-02</internalNodes>
          <leafValues>
            -1.2575997412204742e-01 4.4569683074951172e-01</leafValues></_>
        <_>
          <internalNodes>
            0 -1 200 2.4943483993411064e-02</internalNodes>
          <leafValues>
            -2.1975822746753693e-01 3.1137591600418091e-01</leafValues></_>
        <_>
          <internalNodes>
            0 -1 254 7.9701751470565796e-02</internalNodes>
          <leafValues>
            -1.0266746580600739e-01 5.6665700674057007e-01</leafValues></_>
        <_>
          <internalNodes>
            0 -1 40 -1.6082593798637390e-01</internalNodes>
          <leafValues>
            -7.5718563795089722e-01 6.7802421748638153e-02</leafValues></_>
        <_>
          <internalNodes>
            0 -1 60 1.1375846341252327e-02</internalNodes>
          <leafValues>
            -1.0449884831905365e-01 5.5537992715835571e-01</leafValues></_>
        <_>
          <internalNodes>
            0 -1 156 6.2576018273830414e-02</internalNodes>
          <leafValues>
            7.4247919023036957e-02 -9.1806548833847046e-01</leafValues></_>
        <_>
          <internalNodes>
            0 -1 213 -2.7612555772066116e-02</internalNodes>
          <leafValues>
            4.2408820986747742e-01 -1.4197127521038055e-01</leafValues></_>
        <_>
          <internalNodes>
            0 -1 281 1.2906176969408989e-02</internalNodes>
          <leafValues>
            -2.9323640465736389e-01 2.4945433437824249e-01</leafValues></_>
        <_>
          <internalNodes>
            0 -1 326 3.3511179499328136e-03</internalNodes>
          <leafValues>
            -9.9111050367355347e-02 5.4533320665359497e-01</leafValues></_>
        <_>
          <internalNodes>
            0 -1 203 -2.6228630915284157e-02</internalNodes>
          <leafValues>
            3.3165875077247620e-01 -1.4601445198059082e-01</leafValues></_>
        <_>
          <internalNodes>
            0 -1 231 1.4891205728054047e-01</internalNodes>
          <leafValues>
            6.3634164631366730e-02 -9.2028051614761353e-01</leafValues></_>
        <_>
          <internalNodes>
            0 -1 369 -6.6793872974812984e-04</internalNodes>
          <leafValues>
            2.3817121982574463e-01 -2.3920835554599762e-01</leafValues></_></weakClassifiers></_>
    <!-- stage 19 -->
    <_>
      <maxWeakCount>25</maxWeakCount>
      <stageThreshold>-9.3491500616073608e-01</stageThreshold>
      <weakClassifiers>
        <_>
          <internalNodes>
            0 -1 251 -2.4766180664300919e-02</internalNodes>
          <leafValues>
            2.3383083939552307e-01 -2.9458919167518616e-01</leafValues></_>
        <_>
          <internalNodes>
            0 -1 284 7.1905297227203846e-04</internalNodes>
          <leafValues>
            9.4739824533462524e-02 -5.2530312538146973e-01</leafValues></_>
        <_>
          <internalNodes>
            0 -1 262 7.0500753819942474e-02</internalNodes>
          <leafValues>
            8.4136739373207092e-02 -1.</leafValues></_>
        <_>
          <internalNodes>
            0 -1 13 -5.1974711823277175e-05</internalNodes>
          <leafValues>
            -3.5325971245765686e-01 1.1599302291870117e-01</leafValues></_>
        <_>
          <internalNodes>
            0 -1 296 9.6079610288143158e-02</internalNodes>
          <leafValues>
            6.4719699323177338e-02 -9.3533617258071899e-01</leafValues></_>
        <_>
          <internalNodes>
            0 -1 312 2.6338998228311539e-02</internalNodes>
          <leafValues>
            -1.5434847772121429e-01 3.3631023764610291e-01</leafValues></_>
        <_>
          <internalNodes>
            0 -1 235 1.0600498877465725e-02</internalNodes>
          <leafValues>
            -1.6018392145633698e-01 3.1736069917678833e-01</leafValues></_>
        <_>
          <internalNodes>
            0 -1 363 2.0079199224710464e-02</internalNodes>
          <leafValues>
            8.8263072073459625e-02 -6.1406815052032471e-01</leafValues></_>
        <_>
          <internalNodes>
            0 -1 277 -4.1035234928131104e-02</internalNodes>
          <leafValues>
            4.6365582942962646e-01 -1.0807982087135315e-01</leafValues></_>
        <_>
          <internalNodes>
            0 -1 189 1.5092256478965282e-02</internalNodes>
          <leafValues>
            -2.8026121854782104e-01 2.0862197875976562e-01</leafValues></_>
        <_>
          <internalNodes>
            0 -1 41 2.0755572244524956e-02</internalNodes>
          <leafValues>
            -1.8206535279750824e-01 2.8896218538284302e-01</leafValues></_>
        <_>
          <internalNodes>
            0 -1 147 5.0082048401236534e-03</internalNodes>
          <leafValues>
            -1.6472215950489044e-01 3.9515981078147888e-01</leafValues></_>
        <_>
          <internalNodes>
            0 -1 258 4.2685968801379204e-03</internalNodes>
          <leafValues>
            -1.4171464741230011e-01 3.9362084865570068e-01</leafValues></_>
        <_>
          <internalNodes>
            0 -1 178 1.8545237253420055e-04</internalNodes>
          <leafValues>
            1.5132872760295868e-01 -3.7480390071868896e-01</leafValues></_>
        <_>
          <internalNodes>
            0 -1 371 1.7871171236038208e-02</internalNodes>
          <leafValues>
            -1.1504983156919479e-01 5.3146386146545410e-01</leafValues></_>
        <_>
          <internalNodes>
            0 -1 290 -3.7374034523963928e-02</internalNodes>
          <leafValues>
            4.5957615971565247e-01 -1.0966818034648895e-01</leafValues></_>
        <_>
          <internalNodes>
            0 -1 71 5.5439416319131851e-03</internalNodes>
          <leafValues>
            1.7535316944122314e-01 -3.2498091459274292e-01</leafValues></_>
        <_>
          <internalNodes>
            0 -1 271 2.4545602500438690e-03</internalNodes>
          <leafValues>
            -1.5939520299434662e-01 3.7671780586242676e-01</leafValues></_>
        <_>
          <internalNodes>
            0 -1 170 6.1732921749353409e-02</internalNodes>
          <leafValues>
            -1.4663115143775940e-01 5.5841547250747681e-01</leafValues></_>
        <_>
          <internalNodes>
            0 -1 119 7.8758522868156433e-03</internalNodes>
          <leafValues>
            8.1891879439353943e-02 -7.2200250625610352e-01</leafValues></_>
        <_>
          <internalNodes>
            0 -1 139 9.9485628306865692e-03</internalNodes>
          <leafValues>
            4.4902112334966660e-02 -8.9858186244964600e-01</leafValues></_>
        <_>
          <internalNodes>
            0 -1 336 5.1732584834098816e-03</internalNodes>
          <leafValues>
            -6.6940590739250183e-02 8.3138453960418701e-01</leafValues></_>
        <_>
          <internalNodes>
            0 -1 368 6.7564900964498520e-03</internalNodes>
          <leafValues>
            -5.9588249772787094e-02 6.7156952619552612e-01</leafValues></_>
        <_>
          <internalNodes>
            0 -1 95 -4.4377140700817108e-02</internalNodes>
          <leafValues>
            3.7344565987586975e-01 -1.2476364523172379e-01</leafValues></_>
        <_>
          <internalNodes>
            0 -1 28 -2.3492290638387203e-03</internalNodes>
          <leafValues>
            -3.0440849065780640e-01 1.9753859937191010e-01</leafValues></_></weakClassifiers></_></stages>
  <features>
    <_>
      <rects>
        <_>
          0 0 2 1 -1.</_>
        <_>
          1 0 1 1 2.</_></rects>
      <tilted>0</tilted></_>
    <_>
      <rects>
        <_>
          0 0 1 2 -1.</_>
        <_>
          0 1 1 1 2.</_></rects>
      <tilted>0</tilted></_>
    <_>
      <rects>
        <_>
          0 0 2 20 -1.</_>
        <_>
          0 0 1 10 2.</_>
        <_>
          1 10 1 10 2.</_></rects>
      <tilted>0</tilted></_>
    <_>
      <rects>
        <_>
          0 0 2 20 -1.</_>
        <_>
          1 0 1 20 2.</_></rects>
      <tilted>0</tilted></_>
    <_>
      <rects>
        <_>
          0 0 20 2 -1.</_>
        <_>
          0 0 10 1 2.</_>
        <_>
          10 1 10 1 2.</_></rects>
      <tilted>0</tilted></_>
    <_>
      <rects>
        <_>
          0 0 20 20 -1.</_>
        <_>
          0 0 10 10 2.</_>
        <_>
          10 10 10 10 2.</_></rects>
      <tilted>0</tilted></_>
    <_>
      <rects>
        <_>
          0 1 2 1 -1.</_>
        <_>
          1 1 1 1 2.</_></rects>
      <tilted>0</tilted></_>
    <_>
      <rects>
        <_>
          0 1 2 18 -1.</_>
        <_>
          0 1 1 9 2.</_>
        <_>
          1 10 1 9 2.</_></rects>
      <tilted>0</tilted></_>
    <_>
      <rects>
        <_>
          0 1 20 8 -1.</_>
        <_>
          10 1 10 8 2.</_></rects>
      <tilted>0</tilted></_>
    <_>
      <rects>
        <_>
          0 1 12 16 -1.</_>
        <_>
          0 5 12 8 2.</_></rects>
      <tilted>0</tilted></_>
    <_>
      <rects>
        <_>
          0 2 2 12 -1.</_>
        <_>
          0 2 1 6 2.</_>
        <_>
          1 8 1 6 2.</_></rects>
      <tilted>0</tilted></_>
    <_>
      <rects>
        <_>
          0 2 2 18 -1.</_>
        <_>
          1 2 1 18 2.</_></rects>
      <tilted>0</tilted></_>
    <_>
      <rects>
        <_>
          0 2 3 2 -1.</_>
        <_>
          0 3 3 1 2.</_></rects>
      <tilted>0</tilted></_>
    <_>
      <rects>
        <_>
          0 3 1 2 -1.</_>
        <_>
          0 4 1 1 2.</_></rects>
      <tilted>0</tilted></_>
    <_>
      <rects>
        <_>
          0 3 2 16 -1.</_>
        <_>
          0 3 1 8 2.</_>
        <_>
          1 11 1 8 2.</_></rects>
      <tilted>0</tilted></_>
    <_>
      <rects>
        <_>
          0 3 4 4 -1.</_>
        <_>
          0 5 4 2 2.</_></rects>
      <tilted>0</tilted></_>
    <_>
      <rects>
        <_>
          0 3 20 16 -1.</_>
        <_>
          0 11 20 8 2.</_></rects>
      <tilted>0</tilted></_>
    <_>
      <rects>
        <_>
          0 4 1 2 -1.</_>
        <_>
          0 5 1 1 2.</_></rects>
      <tilted>0</tilted></_>
    <_>
      <rects>
        <_>
          0 4 2 6 -1.</_>
        <_>
          0 4 1 3 2.</_>
        <_>
          1 7 1 3 2.</_></rects>
      <tilted>0</tilted></_>
    <_>
      <rects>
        <_>
          0 4 12 4 -1.</_>
        <_>
          0 6 12 2 2.</_></rects>
      <tilted>0</tilted></_>
    <_>
      <rects>
        <_>
          0 4 18 12 -1.</_>
        <_>
          0 8 18 4 3.</_></rects>
      <tilted>0</tilted></_>
    <_>
      <rects>
        <_>
          0 5 1 2 -1.</_>
        <_>
          0 6 1 1 2.</_></rects>
      <tilted>0</tilted></_>
    <_>
      <rects>
        <_>
          0 5 3 1 -1.</_>
        <_>
          1 5 1 1 3.</_></rects>
      <tilted>0</tilted></_>
    <_>
      <rects>
        <_>
          0 5 2 14 -1.</_>
        <_>
          0 5 1 7 2.</_>
        <_>
          1 12 1 7 2.</_></rects>
      <tilted>0</tilted></_>
    <_>
      <rects>
        <_>
          0 6 3 1 -1.</_>
        <_>
          1 6 1 1 3.</_></rects>
      <tilted>0</tilted></_>
    <_>
      <rects>
        <_>
          0 6 2 14 -1.</_>
        <_>
          0 6 1 7 2.</_>
        <_>
          1 13 1 7 2.</_></rects>
      <tilted>0</tilted></_>
    <_>
      <rects>
        <_>
          0 6 3 9 -1.</_>
        <_>
          1 6 1 9 3.</_></rects>
      <tilted>0</tilted></_>
    <_>
      <rects>
        <_>
          0 6 12 6 -1.</_>
        <_>
          4 8 4 2 9.</_></rects>
      <tilted>0</tilted></_>
    <_>
      <rects>
        <_>
          0 6 16 7 -1.</_>
        <_>
          4 6 8 7 2.</_></rects>
      <tilted>0</tilted></_>
    <_>
      <rects>
        <_>
          0 7 3 2 -1.</_>
        <_>
          1 7 1 2 3.</_></rects>
      <tilted>0</tilted></_>
    <_>
      <rects>
        <_>
          0 8 3 5 -1.</_>
        <_>
          1 8 1 5 3.</_></rects>
      <tilted>0</tilted></_>
    <_>
      <rects>
        <_>
          0 9 3 3 -1.</_>
        <_>
          1 9 1 3 3.</_></rects>
      <tilted>0</tilted></_>
    <_>
      <rects>
        <_>
          0 11 12 3 -1.</_>
        <_>
          3 11 6 3 2.</_></rects>
      <tilted>0</tilted></_>
    <_>
      <rects>
        <_>
          0 13 3 1 -1.</_>
        <_>
          1 13 1 1 3.</_></rects>
      <tilted>0</tilted></_>
    <_>
      <rects>
        <_>
          0 13 4 2 -1.</_>
        <_>
          1 13 2 2 2.</_></rects>
      <tilted>0</tilted></_>
    <_>
      <rects>
        <_>
          0 14 1 2 -1.</_>
        <_>
          0 15 1 1 2.</_></rects>
      <tilted>0</tilted></_>
    <_>
      <rects>
        <_>
          0 14 1 3 -1.</_>
        <_>
          0 15 1 1 3.</_></rects>
      <tilted>0</tilted></_>
    <_>
      <rects>
        <_>
          0 14 20 6 -1.</_>
        <_>
          10 14 10 6 2.</_></rects>
      <tilted>0</tilted></_>
    <_>
      <rects>
        <_>
          0 15 1 2 -1.</_>
        <_>
          0 16 1 1 2.</_></rects>
      <tilted>0</tilted></_>
    <_>
      <rects>
        <_>
          0 16 1 2 -1.</_>
        <_>
          0 17 1 1 2.</_></rects>
      <tilted>0</tilted></_>
    <_>
      <rects>
        <_>
          1 0 18 14 -1.</_>
        <_>
          1 0 9 7 2.</_>
        <_>
          10 7 9 7 2.</_></rects>
      <tilted>0</tilted></_>
    <_>
      <rects>
        <_>
          1 2 9 3 -1.</_>
        <_>
          4 3 3 1 9.</_></rects>
      <tilted>0</tilted></_>
    <_>
      <rects>
        <_>
          1 3 18 16 -1.</_>
        <_>
          1 3 9 8 2.</_>
        <_>
          10 11 9 8 2.</_></rects>
      <tilted>0</tilted></_>
    <_>
      <rects>
        <_>
          1 3 10 16 -1.</_>
        <_>
          1 11 10 8 2.</_></rects>
      <tilted>0</tilted></_>
    <_>
      <rects>
        <_>
          1 5 3 4 -1.</_>
        <_>
          2 5 1 4 3.</_></rects>
      <tilted>0</tilted></_>
    <_>
      <rects>
        <_>
          1 6 3 1 -1.</_>
        <_>
          2 6 1 1 3.</_></rects>
      <tilted>0</tilted></_>
    <_>
      <rects>
        <_>
          1 6 6 3 -1.</_>
        <_>
          3 7 2 1 9.</_></rects>
      <tilted>0</tilted></_>
    <_>
      <rects>
        <_>
          1 7 12 5 -1.</_>
        <_>
          4 7 6 5 2.</_></rects>
      <tilted>0</tilted></_>
    <_>
      <rects>
        <_>
          1 8 5 2 -1.</_>
        <_>
          1 9 5 1 2.</_></rects>
      <tilted>0</tilted></_>
    <_>
      <rects>
        <_>
          1 9 3 6 -1.</_>
        <_>
          2 11 1 2 9.</_></rects>
      <tilted>0</tilted></_>
    <_>
      <rects>
        <_>
          1 9 19 4 -1.</_>
        <_>
          1 10 19 2 2.</_></rects>
      <tilted>0</tilted></_>
    <_>
      <rects>
        <_>
          1 10 4 2 -1.</_>
        <_>
          1 11 4 1 2.</_></rects>
      <tilted>0</tilted></_>
    <_>
      <rects>
        <_>
          1 11 6 8 -1.</_>
        <_>
          1 15 6 4 2.</_></rects>
      <tilted>0</tilted></_>
    <_>
      <rects>
        <_>
          1 13 2 4 -1.</_>
        <_>
          1 15 2 2 2.</_></rects>
      <tilted>0</tilted></_>
    <_>
      <rects>
        <_>
          1 15 2 4 -1.</_>
        <_>
          1 15 1 2 2.</_>
        <_>
          2 17 1 2 2.</_></rects>
      <tilted>0</tilted></_>
    <_>
      <rects>
        <_>
          1 15 4 2 -1.</_>
        <_>
          3 15 2 2 2.</_></rects>
      <tilted>0</tilted></_>
    <_>
      <rects>
        <_>
          2 0 2 1 -1.</_>
        <_>
          3 0 1 1 2.</_></rects>
      <tilted>0</tilted></_>
    <_>
      <rects>
        <_>
          2 0 2 2 -1.</_>
        <_>
          2 0 1 2 2.</_></rects>
      <tilted>1</tilted></_>
    <_>
      <rects>
        <_>
          2 1 2 1 -1.</_>
        <_>
          3 1 1 1 2.</_></rects>
      <tilted>0</tilted></_>
    <_>
      <rects>
        <_>
          2 1 6 9 -1.</_>
        <_>
          4 4 2 3 9.</_></rects>
      <tilted>0</tilted></_>
    <_>
      <rects>
        <_>
          2 1 6 2 -1.</_>
        <_>
          2 1 3 1 2.</_>
        <_>
          5 2 3 1 2.</_></rects>
      <tilted>0</tilted></_>
    <_>
      <rects>
        <_>
          2 2 3 2 -1.</_>
        <_>
          3 3 1 2 3.</_></rects>
      <tilted>1</tilted></_>
    <_>
      <rects>
        <_>
          2 3 2 2 -1.</_>
        <_>
          2 3 1 1 2.</_>
        <_>
          3 4 1 1 2.</_></rects>
      <tilted>0</tilted></_>
    <_>
      <rects>
        <_>
          2 3 2 4 -1.</_>
        <_>
          3 3 1 4 2.</_></rects>
      <tilted>0</tilted></_>
    <_>
      <rects>
        <_>
          2 3 6 6 -1.</_>
        <_>
          4 5 2 2 9.</_></rects>
      <tilted>0</tilted></_>
    <_>
      <rects>
        <_>
          2 3 9 10 -1.</_>
        <_>
          5 3 3 10 3.</_></rects>
      <tilted>0</tilted></_>
    <_>
      <rects>
        <_>
          2 4 3 2 -1.</_>
        <_>
          3 5 1 2 3.</_></rects>
      <tilted>1</tilted></_>
    <_>
      <rects>
        <_>
          2 4 9 6 -1.</_>
        <_>
          5 6 3 2 9.</_></rects>
      <tilted>0</tilted></_>
    <_>
      <rects>
        <_>
          2 5 17 8 -1.</_>
        <_>
          2 7 17 4 2.</_></rects>
      <tilted>0</tilted></_>
    <_>
      <rects>
        <_>
          2 6 9 7 -1.</_>
        <_>
          5 6 3 7 3.</_></rects>
      <tilted>0</tilted></_>
    <_>
      <rects>
        <_>
          2 10 14 1 -1.</_>
        <_>
          9 10 7 1 2.</_></rects>
      <tilted>0</tilted></_>
    <_>
      <rects>
        <_>
          2 10 14 3 -1.</_>
        <_>
          9 10 7 3 2.</_></rects>
      <tilted>0</tilted></_>
    <_>
      <rects>
        <_>
          2 10 12 9 -1.</_>
        <_>
          2 13 12 3 3.</_></rects>
      <tilted>0</tilted></_>
    <_>
      <rects>
        <_>
          2 12 6 2 -1.</_>
        <_>
          2 12 3 2 2.</_></rects>
      <tilted>1</tilted></_>
    <_>
      <rects>
        <_>
          2 14 2 2 -1.</_>
        <_>
          2 14 1 1 2.</_>
        <_>
          3 15 1 1 2.</_></rects>
      <tilted>0</tilted></_>
    <_>
      <rects>
        <_>
          2 14 2 4 -1.</_>
        <_>
          2 14 1 2 2.</_>
        <_>
          3 16 1 2 2.</_></rects>
      <tilted>0</tilted></_>
    <_>
      <rects>
        <_>
          2 17 10 2 -1.</_>
        <_>
          2 17 5 1 2.</_>
        <_>
          7 18 5 1 2.</_></rects>
      <tilted>0</tilted></_>
    <_>
      <rects>
        <_>
          2 18 3 1 -1.</_>
        <_>
          3 18 1 1 3.</_></rects>
      <tilted>0</tilted></_>
    <_>
      <rects>
        <_>
          2 18 12 2 -1.</_>
        <_>
          2 18 6 1 2.</_>
        <_>
          8 19 6 1 2.</_></rects>
      <tilted>0</tilted></_>
    <_>
      <rects>
        <_>
          2 18 16 2 -1.</_>
        <_>
          2 18 8 1 2.</_>
        <_>
          10 19 8 1 2.</_></rects>
      <tilted>0</tilted></_>
    <_>
      <rects>
        <_>
          2 18 18 2 -1.</_>
        <_>
          2 18 9 1 2.</_>
        <_>
          11 19 9 1 2.</_></rects>
      <tilted>0</tilted></_>
    <_>
      <rects>
        <_>
          2 19 8 1 -1.</_>
        <_>
          4 19 4 1 2.</_></rects>
      <tilted>0</tilted></_>
    <_>
      <rects>
        <_>
          3 0 4 3 -1.</_>
        <_>
          4 0 2 3 2.</_></rects>
      <tilted>0</tilted></_>
    <_>
      <rects>
        <_>
          3 0 8 8 -1.</_>
        <_>
          3 0 4 4 2.</_>
        <_>
          7 4 4 4 2.</_></rects>
      <tilted>0</tilted></_>
    <_>
      <rects>
        <_>
          3 0 12 2 -1.</_>
        <_>
          3 0 6 1 2.</_>
        <_>
          9 1 6 1 2.</_></rects>
      <tilted>0</tilted></_>
    <_>
      <rects>
        <_>
          3 1 3 3 -1.</_>
        <_>
          4 2 1 3 3.</_></rects>
