<?xml version="1.0"?>
<opencv_storage>
<stage0>
  <maxWeakCount>9</maxWeakCount>
  <stageThreshold>-1.3095929622650146e+00</stageThreshold>
  <weakClassifiers>
    <_>
      <internalNodes>
        0 -1 67973 -2.6484239101409912e-01</internalNodes>
      <leafValues>
        9.0476191043853760e-01 -3.4987169504165649e-01</leafValues></_>
    <_>
      <internalNodes>
        0 -1 3571 1.1419051885604858e-01</internalNodes>
      <leafValues>
        2.2209110856056213e-01 -9.5532900094985962e-01</leafValues></_>
    <_>
      <internalNodes>
        0 -1 74612 3.1925506889820099e-02</internalNodes>
      <leafValues>
        -3.9540976285934448e-01 3.9465677738189697e-01</leafValues></_>
    <_>
      <internalNodes>
        0 -1 755 -1.7030556499958038e-01</internalNodes>
      <leafValues>
        -8.5012537240982056e-01 2.2383905947208405e-01</leafValues></_>
    <_>
      <internalNodes>
        0 -1 39551 1.4948997646570206e-02</internalNodes>
      <leafValues>
        -3.1684511899948120e-01 7.1383553743362427e-01</leafValues></_>
    <_>
      <internalNodes>
        0 -1 107552 4.1453704237937927e-02</internalNodes>
      <leafValues>
        -2.4790528416633606e-01 5.8319091796875000e-01</leafValues></_>
    <_>
      <internalNodes>
        0 -1 60461 8.4387585520744324e-02</internalNodes>
      <leafValues>
        -3.2051068544387817e-01 4.8537349700927734e-01</leafValues></_>
    <_>
      <internalNodes>
        0 -1 48273 4.5263372361660004e-02</internalNodes>
      <leafValues>
        -3.9600503444671631e-01 4.6300566196441650e-01</leafValues></_>
    <_>
      <internalNodes>
        0 -1 19355 8.7571708718314767e-05</internalNodes>
      <leafValues>
        2.7102446556091309e-01 -5.1298129558563232e-01</leafValues></_></weakClassifiers></stage0>
</opencv_storage>
